-5.092399
-4.366347
-5.106207
-3.448474
-3.425604
-4.315349
-4.334166
-5.399572
-5.783149
-5.062083
-5.483530
-5.541184
-4.009304
-5.907706
-6.023773
-5.128894
-2.804591
-4.272384
-2.997554
-2.597002
-5.033020
-5.992964
-3.498583
-6.615586
-2.506004
-4.412028
-4.327008
-3.806191
-2.462442
-3.124284
-1.856221
-4.962961
-3.721782
-3.197791
-2.163755
-1.542307
-2.324545
-1.216538
-1.557590
-2.200716
-1.196050
-1.122301
0.336690
-1.795063
-0.696547
-0.656449
-0.839802
1.065822
-1.246534
-1.781941
1.882153
-2.701510
0.143266
-1.090042
0.901107
2.498441
-0.872921
-0.423388
-0.084206
1.143292
1.690253
0.381208
0.896485
-0.298945
-1.127744
-0.960167
-1.109709
0.314496
-0.991127
-0.216590
1.222689
-0.413087
0.632485
1.685987
1.418094
2.103874
0.569193
0.571392
0.099858
0.393619
1.140082
-1.795418
0.399589
0.382814
-1.563835
-0.453594
-1.756580
-4.081170
-3.293434
-2.798883
-4.234949
-3.426119
-3.804952
-4.663790
-4.630723
-4.698162
-6.270487
-5.724725
-4.330810
-4.932647
-5.589642
-3.152549
-4.975127
-4.917163
-4.566827
-4.815708
-4.401890
-4.463767
-5.426519
-4.460654
-5.638187
-4.128570
-5.611413
-3.537266
-5.495294
-5.273759
-6.047635
-3.534689
-5.152679
-7.195975
-3.712125
-4.261660
-7.696957
-5.598024
-4.878112
-5.412862
-4.480754
-5.617708
-4.379054
-3.489521
-3.739983
-4.488747
-4.458868
-3.889355
-4.896297
-5.631224
-5.728521
-4.201825
-4.047803
-4.508664
-4.395962
-5.288041
-5.497713
-4.480202
-5.571870
-2.027219
-3.569968
-3.535441
-4.426240
-3.340917
-4.488388
-5.869759
-5.852528
-3.525622
-3.575671
-2.984494
-3.390229
-3.538567
-3.782902
-4.298502
-2.600453
-0.781315
-2.686777
-1.741964
-2.242847
-1.762829
-2.519806
-0.608543
-1.012932
-1.805929
-1.362202
-0.730965
-2.149402
-1.073780
-1.007681
-0.291042
-0.018920
-1.101093
-1.916070
1.293162
0.046992
-1.043975
0.269697
-1.212286
-0.794073
-0.817967
1.490531
0.174952
0.521548
1.657825
-0.373620
-0.592377
1.623297
0.136239
-0.831216
0.153608
-1.356827
0.813066
0.483316
-0.182923
1.403839
0.095818
0.170710
-0.448228
0.586941
-0.360698
-0.504941
-0.452563
-0.916041
1.665211
-0.348493
0.080605
-0.319838
-2.186985
-2.033090
-0.886129
-3.790745
-2.597016
-3.718999
-4.044116
-2.117293
-4.667909
-3.451674
-2.786827
-5.114251
-4.989134
-5.163569
-3.410805
-4.572596
-5.225843
-4.686262
-7.516459
-4.628522
-3.902182
-4.626110
-5.975247
-4.176808
-5.193210
-4.397710
-4.037564
-4.051985
-3.993331
-3.782553
-4.389426
-3.934702
-3.885267
-5.663113
-5.266672
-4.308004
-3.442413
-5.325958
-5.356070
-5.436244
-5.120044
-3.658925
-4.973274
-4.969023
-2.697046
-5.943098
-4.334417
-4.547864
-4.087165
-4.902676
-5.800860
-5.132626
-4.841311
-5.463539
-5.245646
-4.881866
-4.752834
-6.055848
-5.306960
-4.591456
-4.006543
-4.310556
-4.547603
-4.383635
-4.223738
-5.028774
-3.005363
-4.111633
-3.391465
-4.411483
-3.747589
-4.552798
-4.958712
-3.421459
-4.781321
-1.146746
-3.731758
-3.927540
-0.984164
-1.440893
-1.072650
-0.167589
-1.881639
-2.139035
-2.003850
-1.873568
-0.123127
-1.764645
-1.157976
-1.255339
-1.872890
-0.410000
-0.850067
-0.454139
-1.309828
-0.709409
-0.429341
-0.190723
0.405510
-0.146350
-0.072390
-1.552187
-0.041071
0.571682
1.288236
-1.354810
-0.935747
-0.575324
-0.370840
0.145943
1.222668
1.603860
0.263839
0.029070
2.087288
1.470773
0.599196
-0.171611
-0.741362
0.900912
0.103651
0.124946
-0.608239
1.193138
-1.378406
-1.446252
0.447203
-1.037324
-0.637925
-0.608962
0.600486
-2.716434
-2.734118
-1.231611
-3.287825
-2.822399
-3.302296
-5.471371
-4.651588
-3.885723
-1.745117
-2.914279
-3.775827
-3.758590
-4.450492
-4.241749
-5.232885
-3.645499
-5.848657
-4.122424
-5.209801
-4.813733
-4.611148
-4.680438
-5.765282
-5.325813
-4.340367
-4.875653
-6.256809
-6.168513
-5.094326
-3.494415
-3.183966
-4.703394
-6.644200
-4.896963
-4.002386
-5.302541
-4.499071
-4.821645
-4.920420
-3.441715
-4.484736
-7.231952
-5.472489
-4.875816
-5.967740
-5.085267
-5.340025
-3.951244
-4.100882
-4.080438
-6.187653
-3.363086
-5.327431
-4.966442
-5.306842
-3.272343
-4.976460
-4.942419
-4.110307
-4.348486
-5.274522
-5.926281
-5.555218
-6.062487
-6.029746
-3.982076
-2.372468
-4.266880
-3.535352
-4.662061
-5.290273
-3.727879
-2.939583
-1.577179
-2.909222
-2.256090
0.426746
-2.327437
-2.559651
-0.769796
-2.473634
0.060755
0.050435
-1.000704
0.136827
0.248482
-0.280467
-0.794374
-1.041018
0.465312
-1.815821
-0.515769
-1.012962
-0.295878
1.230830
0.051771
-0.671582
1.061312
-1.690403
0.426058
0.359259
-0.130696
-0.736643
-0.090432
-1.255029
-1.546759
-0.393396
2.378858
2.917461
-0.542903
-0.692380
-0.805827
0.047458
-0.703648
0.151160
1.434572
1.054451
0.627903
-0.919974
0.255756
2.299775
0.111825
0.664188
-0.137376
-1.421412
1.173811
1.573470
-1.240072
-2.138569
-1.960031
-0.221758
-3.435349
-2.906058
-2.912192
-3.837016
-1.965697
-4.633422
-1.583208
-4.555936
-4.320598
-3.352147
-4.391258
-4.223287
-4.954672
-5.267610
-2.345728
-5.452039
-4.369584
-4.109169
-4.995783
-3.086146
-6.105272
-5.977074
-4.586441
-5.386648
-5.786361
-5.789790
-5.687172
-4.434908
-5.922399
-4.050486
-6.546327
-5.923971
-4.913117
-4.281494
-4.661123
-5.437905
-4.575312
-3.062242
-4.306603
-5.167452
-5.662645
-5.340330
-6.340854
-5.152184
-5.816824
-3.775300
-2.448240
-4.752729
-3.970883
-4.226620
-3.661722
-2.659610
-5.931085
-2.958856
-3.454852
-5.025424
-3.914264
-2.878551
-5.016864
-4.059394
-4.295110
-4.700278
-4.958246
-4.502642
-3.303727
-2.405203
-3.432009
-2.946624
-3.937399
-2.997850
-1.691632
-1.111743
0.374633
-1.962869
-2.504365
-1.460967
-1.552031
-1.114661
-1.177467
-0.856409
-1.525970
-0.353966
0.844380
1.242719
0.052350
-0.034751
0.758170
-0.490167
0.167681
-0.214620
-0.252408
1.652551
1.803597
1.121618
-0.244947
-1.820595
-0.224837
-0.699810
-1.391339
-0.144934
-0.033764
1.841502
-0.377936
0.479812
-0.540476
-1.181932
1.695673
1.506820
-0.696804
2.734038
-0.539096
0.373941
1.831503
2.239360
0.353784
-1.216409
-0.829978
1.604476
1.059355
-1.392330
-0.567185
1.633322
0.639223
-1.304773
-1.510317
-0.799829
-0.306784
-0.934618
-2.260162
-1.437700
-0.582155
-2.539440
-3.971989
-3.180524
-3.364449
-3.979329
-3.919691
-3.280672
-4.142935
-3.503698
-6.630035
-5.616597
-2.838380
-6.137035
-1.608414
-4.686430
-4.550827
-4.271361
-4.854963
-5.293231
-4.040084
-4.563692
-5.578578
-3.297570
-3.650072
-5.832643
-5.774321
-4.755964
-5.480350
-5.051543
-4.019423
-5.709181
-5.514287
-4.871821
-5.596035
-6.178336
-3.659191
-3.480639
-6.362998
-2.910451
-3.546216
-5.159017
-4.004333
-5.591054
-4.975603
-5.192113
-4.534918
-6.071947
-4.475872
-4.917960
-2.692064
-6.259682
-5.336873
-5.169817
-5.786796
-6.625353
-4.285185
-4.057190
-3.601865
-4.630027
-3.836790
-3.033452
-4.449474
-2.411362
-3.818446
-2.001301
-4.020615
-3.951705
-3.737817
-0.855696
0.827622
-1.785920
-3.124395
-0.496033
-0.830053
-2.304525
-1.117567
-1.294508
1.165019
-0.146626
-0.528356
1.460632
-0.184387
0.479971
0.662684
-1.245095
-0.282069
0.364583
1.056816
-0.312810
0.051244
0.750638
1.012282
1.470999
0.510565
0.267308
0.268267
-0.524900
0.366567
1.133790
-0.182187
1.120689
-1.779678
1.379319
0.149254
0.383760
-0.652336
-0.273594
-0.905495
0.371960
-0.568496
2.193922
-0.273754
-0.864035
2.493584
1.858625
-0.683509
0.175567
-1.028286
0.181079
-2.446682
-0.660455
-1.316549
-1.181978
-1.490661
-1.266311
-0.669249
-1.074875
-0.465584
-2.028459
-1.351040
-3.057938
-2.711765
-2.437130
-4.383457
-2.903839
-5.626337
-3.813972
-3.258756
-1.917536
-4.297968
-2.340801
-4.742321
-4.597145
-3.100796
-4.125501
-6.154041
-6.415496
-4.549673
-5.428924
-3.701137
-4.160812
-5.033626
-5.611804
-2.624205
-4.068423
-4.407805
-5.277878
-5.218675
-5.758877
-3.940013
-6.378017
-3.903984
-2.237294
-5.447407
-4.337806
-4.973543
-5.170259
-4.148986
-3.526366
-4.376511
-5.162682
-3.969468
-5.239718
-4.200943
-4.840122
-6.016721
-3.114828
-4.104373
-4.196348
-5.207591
-3.954279
-4.099874
-5.013772
-5.430586
-4.169025
-3.641982
-4.699876
-3.874550
-3.399335
-4.305670
-1.588415
-3.517270
-2.146566
-2.198358
-1.552262
-0.920972
-1.739760
-0.551113
-2.000601
-1.240942
-1.771891
-2.693145
-3.159093
-1.178682
-0.625520
-1.352204
0.319631
1.870567
0.512655
-0.651630
-1.533277
-0.695875
0.345699
0.776637
-0.758160
1.624601
0.376501
-0.022507
0.008443
-1.022890
-0.945896
1.620219
-0.299249
1.312216
-1.705862
-0.395690
-0.034684
1.624129
1.277272
0.881018
1.692007
1.051169
0.189088
0.585942
1.430514
0.916416
-0.356624
0.195174
-1.024922
-0.230146
0.735992
0.471173
1.173644
-0.166402
0.236048
0.095753
-1.875253
-1.394777
-1.121452
-0.989670
0.897395
-0.739584
-0.430234
-1.418187
-1.942636
-1.510469
-3.172199
-1.183774
-2.180407
0.122098
-2.884333
-2.928484
-3.176071
-4.163418
-1.926563
-4.642195
-2.301221
-2.570729
-2.937223
-2.417962
-4.726204
-3.852461
-5.170681
-3.909486
-3.678391
-4.594991
-3.206723
-4.013955
-4.281482
-5.511679
-4.912721
-5.260608
-4.144748
-4.542566
-4.567674
-3.932792
-6.890491
-4.480138
-6.420877
-3.261526
-3.280716
-5.180666
-4.340181
-3.816405
-5.436642
-2.723109
-3.769021
-5.372568
-4.753971
-4.223259
-3.937134
-7.001409
-4.636724
-4.340610
-3.708173
-4.526656
-4.387612
-5.570215
-3.851783
-2.615640
-4.730003
-5.276071
-4.145846
-4.032130
-3.839353
-4.345063
-4.164051
-5.272650
-4.016005
-2.965441
-1.264281
-1.469318
-2.656066
-1.010383
-0.341461
-0.474688
0.731201
-0.980567
-2.009480
-2.300657
-1.739204
1.141540
-0.602020
-0.907576
-0.104003
0.517076
0.697867
0.685483
-0.664519
0.362631
-0.656661
-0.264188
0.392162
0.405179
0.494259
0.356858
1.466683
0.008123
0.269244
-0.181440
1.424525
-1.502007
0.823924
-0.345045
1.694567
-0.348874
0.107366
0.886616
0.968541
1.793655
-2.692552
0.869544
0.757062
0.541589
0.817032
-0.472337
0.287609
1.118978
-0.419943
-0.097185
1.631924
1.863383
-0.818152
1.256663
-0.590898
0.372122
-1.215276
-0.568033
0.225290
0.022569
-0.289624
0.378677
-0.765349
-1.633706
0.859393
2.015339
-0.751573
-0.571168
-3.436873
-1.992900
-1.608814
-2.788176
-3.106025
-1.437454
-3.175162
-2.148025
-3.187996
-2.972644
-5.080859
-4.685778
-5.635983
-4.165732
-2.714579
-2.602902
-2.579825
-4.981801
-5.081600
-3.783016
-3.879374
-5.552625
-3.297779
-3.375184
-3.673796
-4.699782
-3.921803
-3.483014
-5.530770
-4.415863
-2.313347
-4.609684
-5.063987
-4.545991
-3.922527
-4.113780
-4.105400
-5.686246
-4.997728
-3.926660
-4.923800
-1.709649
-4.947359
-3.748742
-5.657718
-6.143817
-2.845025
-4.398757
-4.690024
-5.450429
-4.045970
-4.781501
-3.637592
-4.997580
-3.935784
-4.542771
-2.720917
-2.703861
-3.471400
-1.234903
-1.851651
-3.033958
-1.823746
-1.661277
-0.144627
-1.246248
-1.066539
-0.927443
-0.665440
-2.488789
0.837244
-1.173060
0.768385
0.880887
0.435344
1.788051
1.294270
0.255615
-0.266031
-0.029427
1.166467
0.296795
-0.461066
-0.226695
-1.580210
0.915721
1.643216
-0.183336
1.020546
0.040566
1.032418
0.273425
1.223209
0.881268
2.503006
0.682409
-1.385969
-0.348702
0.238668
1.203374
-0.070345
-0.542476
1.077124
1.874604
0.172955
-1.240270
-0.361109
1.530842
1.649942
-0.141457
-0.591521
1.311057
-0.511932
0.779787
1.915828
0.277583
0.944621
-0.398759
0.361717
-2.560054
-1.390256
-0.354643
-1.092005
1.508165
1.629904
-1.138346
-1.139456
2.300549
-1.226707
-1.044444
-2.065567
-2.802420
-1.068702
-2.871673
-1.326675
-3.079248
-2.219428
-1.944810
-4.032097
-2.785914
-1.866613
-1.652412
-2.718497
-3.731822
-5.646419
-3.130879
-4.692523
-3.243873
-4.683017
-3.034076
-5.418666
-3.758865
-5.938398
-2.191839
-5.719938
-5.531381
-5.568211
-5.281592
-4.309411
-5.099094
-6.197183
-4.630610
-4.708462
-5.372648
-3.839814
-3.284698
-2.742773
-3.504802
-4.575040
-4.422960
-5.439543
-2.686917
-2.537634
-5.627962
-3.515815
-4.943560
-4.784570
-4.884394
-4.958125
-4.706246
-4.174883
-4.292565
-3.895770
-3.392805
-5.094654
-2.849885
-2.955220
-3.489527
-2.552359
-2.225056
-1.223655
-0.990130
-1.557757
-1.085340
-0.588508
-0.233733
0.694829
-0.782821
-0.996134
-0.997634
0.150564
0.313524
0.345733
1.646532
1.649709
-0.330695
1.511489
1.315045
2.123342
-1.358556
-1.160310
-0.926151
1.607297
-0.271696
1.020904
0.243014
-1.219980
-0.731335
1.603460
0.834542
-0.509715
1.752524
2.585528
0.179821
0.739642
-0.535882
0.841355
0.641568
-0.751157
0.084305
-0.443712
-0.736167
0.752415
0.822775
0.871574
-0.483860
-0.950353
0.431230
1.420176
-0.296986
-1.685985
-0.427958
0.247675
1.776379
-1.360122
0.755677
0.218661
0.199309
0.311670
0.019073
-0.665765
0.218625
-0.555601
-1.250259
-0.308586
-0.746824
-1.527279
0.631702
-2.712681
-1.679750
-1.697173
-1.209861
-2.658513
-3.084596
-1.972401
-3.018414
0.263810
-2.731234
-3.790202
-2.626821
-2.675839
-1.442316
-4.471124
-3.776048
-5.364957
-4.066278
-2.421581
-5.081357
-2.340561
-4.696204
-6.834430
-3.423140
-3.232834
-5.237331
-5.165769
-3.975033
-4.205741
-3.765620
-4.778883
-4.147029
-4.714252
-6.185365
-2.662899
-2.707889
-4.911277
-5.757650
-4.598180
-4.651435
-3.997768
-2.751785
-2.909631
-6.142086
-3.022092
-5.131884
-4.138759
-3.735800
-4.203250
-3.504041
-4.306165
-3.146507
-5.718367
-2.771277
-2.155347
-3.436502
-3.780387
-3.128869
-1.688848
-1.806192
-2.486840
-0.845987
-2.721868
0.454749
-0.587838
-1.697474
-1.124518
0.922186
-0.722847
1.102203
-1.242965
-1.463209
-0.482287
1.460668
0.314744
1.371480
1.027971
0.430198
0.668889
1.219119
0.633206
0.483282
1.547653
0.521539
2.175411
0.422789
-0.061041
0.788291
0.399437
-0.246134
-0.209353
1.384661
1.596665
-0.307031
-0.087196
0.136010
1.534933
-0.087130
-0.754404
0.448161
-0.050575
1.189924
-1.370837
0.500949
-0.793341
0.780121
1.370524
0.739576
1.314925
0.862892
1.409405
-0.486100
1.841467
2.352936
-0.945406
0.303568
0.956948
-0.550372
0.647470
1.652421
0.381962
-0.028331
-1.065849
-0.873014
-1.368171
0.596314
0.592800
-0.138537
-1.114428
-2.680880
-2.256864
-2.494501
-2.329162
-2.203786
-2.609522
-1.748144
-2.602275
-1.715190
-1.742372
-1.750644
-3.414346
-2.050054
-2.353393
-4.047028
-1.950998
-3.125089
-4.894596
-3.912258
-5.207306
-4.492488
-3.202234
-3.974415
-5.811344
-4.108350
-5.549952
-5.003248
-3.600470
-4.300962
-4.671633
-3.205070
-4.621500
-3.663365
-3.939991
-4.010924
-4.891392
-4.453040
-5.017975
-4.892456
-3.588033
-4.365407
-3.648512
-1.494754
-3.948644
-4.309594
-3.318455
-3.348686
-5.058531
-3.285787
-4.427051
-2.719327
-1.520334
-3.006401
-1.810444
-2.595893
-1.802236
-2.176993
-1.959645
-3.044999
-1.595380
-1.769919
0.003458
-2.659372
-0.860775
-1.740755
0.955191
-0.698934
-0.497928
0.130151
-0.002504
-0.731940
-0.240615
-0.333997
2.028971
0.408094
-0.173785
-1.057830
1.676548
1.593878
0.988144
-0.976079
2.172456
-0.985923
1.323200
-0.329120
-0.165036
-0.660040
1.039325
1.004909
0.680944
0.001648
-0.900776
-0.460163
0.707148
0.161597
0.314064
1.317676
-0.349678
-1.859115
2.446311
0.898974
0.333060
2.260093
1.550618
1.479823
-1.888895
0.578124
-0.761635
-0.670763
0.296318
0.607596
0.650492
-0.450494
0.285537
1.889018
0.912403
1.670829
-0.019315
0.495889
-1.274804
-1.061087
0.341508
-2.137940
0.846726
-0.255164
0.374238
1.560558
1.204855
-2.214922
-1.480304
-2.111106
-1.151482
-1.243270
-0.720779
-1.229031
-0.938633
-1.419037
-2.542356
-1.412113
-2.093998
-2.640109
-2.961639
-2.392606
-3.182640
-3.274659
-2.612352
-4.728988
-3.442606
-4.734899
-3.303317
-3.660851
-3.296915
-5.113299
-5.623220
-4.091909
-2.069465
-3.589943
-3.737529
-2.858188
-3.516943
-3.972192
-6.146029
-5.021456
-4.503319
-2.968379
-3.416560
-4.751576
-4.462419
-4.171712
-3.287884
-3.361401
-3.999006
-5.038862
-1.950039
-4.183700
-5.119114
-4.158087
-5.591233
-4.930357
-4.739145
-3.154531
-2.081419
-2.074232
-0.836943
-2.339711
-1.910523
-1.731749
-1.520326
-1.049543
-1.313017
-0.263778
-0.795489
-1.275278
0.043655
-1.081733
-2.396662
0.039468
0.184939
2.901328
1.030672
1.194145
0.994171
-0.199549
1.220865
-1.423392
0.690004
-0.268047
0.194024
1.548822
1.081884
-0.333327
0.077662
0.758295
-0.010061
0.592269
-0.335998
-1.666071
0.122027
1.377801
-1.085421
-0.781614
-1.156736
-0.104567
1.051836
0.088570
0.019242
1.592223
1.866340
0.903408
1.975659
0.460493
0.495724
-0.785042
1.619163
-0.328395
0.399277
0.295783
0.088971
0.066381
-0.137563
-0.103400
0.794969
0.429139
2.003128
0.560558
0.343276
2.690519
-1.180036
0.570617
-0.072695
1.250790
-1.457034
-0.239941
-0.492709
-0.445681
-0.772591
0.799932
-1.353897
-1.303347
-1.991070
-1.223670
-1.809409
-2.012429
0.019150
-0.230310
-2.174407
-2.303141
-3.213569
-0.832318
-2.171328
0.881873
-2.902329
-3.232416
-2.273302
-3.888783
-3.996241
-1.842222
-3.549106
-3.696659
-4.386863
-4.404305
-3.047562
-3.117155
-2.523558
-4.875862
-5.006299
-4.846119
-3.635556
-5.877796
-5.132819
-2.124585
-4.171329
-2.570250
-4.872161
-3.383836
-3.003926
-4.247745
-3.026959
-3.039297
-2.361265
-4.798784
-3.711676
-3.020838
-2.744726
-3.784289
-3.552521
-3.959755
-3.835625
-2.721870
-2.335071
-2.525653
-2.150714
-1.387109
-0.888930
-0.057267
-0.296239
-0.160046
-1.766491
-0.551251
-1.354730
-1.174351
-0.376234
-0.316765
0.251687
-0.345729
1.213300
-0.921948
-1.307232
1.485103
2.796940
-0.886819
0.845941
0.854889
0.768958
1.385200
0.550711
0.226780
-1.202156
-0.080486
0.294866
0.110311
-0.935663
1.659041
0.303875
-0.334274
-0.027305
1.089892
0.225194
0.844207
-0.144200
0.500694
0.836373
0.404277
0.345793
1.860627
-0.158450
1.829458
-0.294754
1.675329
0.845728
0.108359
2.715401
3.336331
0.728289
1.640823
0.745138
0.405009
1.062001
-0.531037
-0.178995
0.887736
-0.011556
-0.104717
2.314762
1.878653
1.093937
-1.862514
-0.761574
0.435511
-0.585162
1.253441
-0.034434
0.836956
-1.558179
0.027383
-0.791351
-1.424739
-0.763715
-2.822413
-0.584865
-1.800039
-0.180692
-1.857840
-2.371917
-1.997197
0.091169
-1.107252
-0.485328
-2.725531
-2.908234
-4.209560
-4.950934
-3.807250
-5.306394
-2.483806
-3.402929
-2.813702
-3.420450
-4.502443
-5.166871
-5.055405
-4.022820
-4.563433
-4.261157
-5.474713
-3.081019
-4.899475
-3.546572
-6.626255
-5.091020
-4.104222
-3.509012
-3.841928
-4.922414
-4.276021
-4.988562
-5.027625
-3.470975
-4.437210
-1.998235
-3.822250
-2.295905
-3.204603
-1.995479
-2.963772
-1.965224
-1.923594
-2.025660
-2.579217
-3.473110
-0.127582
0.641803
-2.039695
-1.136822
-1.250900
-2.176548
-2.377882
-0.276150
-0.203332
-1.420614
0.409120
0.654897
-1.769449
1.249879
1.035594
-1.409284
1.961181
0.328288
-0.418473
-0.553438
0.424092
0.328353
0.465891
-1.142206
0.292943
-1.014996
0.781090
-0.943288
1.317527
1.775332
0.220131
1.926805
-1.126579
-0.138060
0.912009
-0.337464
-0.898975
1.603432
-0.021254
0.902697
-0.027793
0.289936
0.699469
-0.857652
0.694592
2.429563
3.136909
-0.375760
1.353003
0.475551
1.645230
-0.205918
0.802810
2.202014
0.367639
1.498033
0.665523
0.597545
2.194703
0.606510
-0.025034
0.426404
1.367578
-0.596655
-0.634380
0.817981
0.192383
0.165222
-1.796311
-1.874270
0.436207
-2.221052
-1.053349
-1.047141
-0.479478
-2.022233
-0.192579
-1.244836
0.097990
0.126054
-0.744162
-1.075542
-0.954547
-0.035710
-2.470355
0.272885
-4.289448
-2.081921
-2.117515
-2.263454
-1.990245
-3.684331
-2.940333
-2.249785
-2.951663
-2.051754
-3.924913
-4.662074
-4.679996
-4.931725
-6.662193
-6.001348
-5.679776
-4.897637
-2.634361
-4.885871
-5.726720
-4.841957
-4.228974
-2.639635
-4.404138
-2.643518
-4.783096
-3.427356
-5.313763
-4.170456
-3.478538
-4.675867
-3.312287
-4.178974
-2.554422
-0.481067
-3.728506
-0.990937
-1.845930
-2.311177
-0.668831
-1.665685
-1.504055
-1.231992
-1.855965
-2.233221
-0.747306
-0.593772
-0.605624
-1.271351
1.789770
-1.013530
-0.857318
-0.332194
0.224194
1.200893
-0.542853
0.856268
-1.775204
1.008562
0.357748
0.814707
1.043744
0.733287
1.913018
1.400127
0.020639
1.499785
0.063645
-1.444287
1.123496
1.074378
-1.030526
-0.472139
-0.810932
-0.183540
0.740635
-0.087445
-0.156830
0.201725
-0.862163
0.309612
2.198674
1.136365
-0.541100
-0.284077
-0.417831
0.401486
1.658658
0.964845
-0.207259
1.471719
2.203212
1.477480
3.176933
-0.620007
-1.392395
-0.027181
0.792183
1.174370
1.238169
2.723948
0.918182
2.338074
0.851474
0.323212
-0.660108
-0.775559
-0.671316
-0.535762
-0.558234
-1.606865
-0.555707
-0.884948
0.843651
1.197602
0.436304
-1.290972
-2.067868
-1.603939
0.007565
0.197717
-1.868107
-2.796864
-0.775380
-0.111136
-0.976504
-1.602777
-0.520298
-0.830390
-0.893701
-1.559984
-2.623983
-1.399494
-2.195731
-2.788533
-1.296394
-2.689802
-2.963797
-3.930982
-3.861075
-4.321711
-4.829343
-5.117858
-6.550385
-3.903898
-2.981105
-5.520605
-6.451387
-5.656355
-5.455875
-3.261144
-1.834070
-3.790585
-2.963438
-6.196468
-5.116452
-4.612898
-4.833296
-2.813438
-4.290195
-3.466849
-2.717520
-3.375956
-1.649282
-1.603515
-0.827220
-1.798438
-1.741505
-2.367390
-0.615749
-1.396967
-1.580647
0.390120
-0.843330
-1.813267
-0.060458
0.318679
-0.246442
1.000855
0.564100
0.430792
-0.530523
1.579745
-0.165748
0.662036
0.587643
-0.830484
1.059573
-0.231143
2.772049
-0.999546
0.467038
0.633954
0.885579
1.590252
0.095955
-0.105301
-0.619373
-0.622150
-1.009458
0.323279
-0.192868
-0.994543
-0.492969
-0.904368
-1.037732
0.786734
-1.238739
1.277254
-0.089011
1.575326
0.288141
1.146711
0.264714
1.913189
2.093452
2.335299
2.185003
0.899786
2.390929
0.409113
3.628169
0.565170
-0.500558
1.395222
1.043437
-0.484308
1.752595
0.201054
0.320896
0.093590
0.145652
0.310608
1.140026
0.675167
0.825010
-0.405133
-1.144119
1.050413
-0.203300
-2.084556
-0.592271
-1.058253
-1.510722
-0.579743
-1.653558
0.292679
-1.287785
-0.610839
-0.347846
-0.297048
-1.119579
-0.998216
-2.922094
-1.643089
-0.362274
-1.364430
-2.686583
-1.733167
-1.398633
-0.219524
-2.684497
-2.447801
-3.314545
-3.028485
-3.407544
-2.439654
-3.473504
-5.735346
-3.756100
-3.369015
-4.648666
-3.724628
-5.782425
-6.322310
-6.907776
-4.749906
-4.700402
-1.096805
-4.321893
-4.688647
-3.511561
-2.759063
-4.360069
-1.888521
-4.446668
-5.838280
-5.044157
-2.582549
-2.047436
-1.846823
-1.766824
-2.137877
-3.181149
-2.624728
-1.741359
-1.184652
-1.124736
0.874688
-0.991602
-2.355468
0.186921
-0.525401
-1.936470
0.393271
-0.257628
-0.103837
1.264973
-0.302829
1.015418
0.319494
-0.403800
1.072915
-1.290869
-0.033637
-1.583827
0.242274
-0.739724
-0.488395
2.100113
-0.783430
-0.866030
1.501477
0.185169
-0.061791
0.578325
-0.205564
0.037545
-0.444579
-1.422938
1.377938
-1.727641
-1.610700
-0.512776
0.034005
-0.492103
0.663923
0.567542
-0.339365
1.222628
0.562864
-0.914004
-0.926532
-1.118793
-1.407423
0.438494
1.747172
0.114100
1.926810
2.479302
0.438481
1.681982
0.041202
-0.143000
-0.559127
0.661572
1.691215
-0.239275
1.251951
1.045150
1.421216
0.235987
1.242838
-0.716553
-0.771833
-0.153769
0.505641
0.646557
-1.515978
-2.141186
-1.168992
0.048580
-2.577267
-0.937714
-1.838575
-1.136330
-1.639000
-0.326352
-0.306758
-1.670519
-0.602956
-1.305377
-0.153988
-2.707032
-1.128318
-2.355699
-0.951929
-3.373936
-1.899360
-1.931357
-1.617926
-1.135685
-2.026215
-1.534458
-3.032703
-6.700977
-4.721517
-3.755195
-4.762657
-4.794950
-4.677675
-4.410606
-3.093496
-4.607972
-4.634427
-3.359818
-4.592482
-4.623097
-3.446057
-4.377688
-3.070515
-3.678050
-2.378973
-4.634150
-2.552835
-1.815676
-3.485135
-2.663333
-2.729463
-0.619778
-1.543007
-0.461023
-1.644757
-1.122489
-0.606921
-1.242035
0.526101
0.366950
-0.391082
1.428349
-0.215932
-0.591418
-0.714051
0.108912
-0.485567
-0.755841
-1.056794
1.219712
0.020376
-1.234866
-0.786742
0.333460
1.394017
0.160020
-0.557316
0.015570
0.561788
0.671853
0.897908
2.474650
-0.887289
1.071544
0.333275
-1.130302
0.802726
0.284843
0.380280
0.320000
1.142192
-1.208741
1.511360
-2.076644
1.054130
0.012784
1.370045
0.903118
1.654644
1.146896
1.889011
0.553880
1.189902
-0.137786
-0.421073
0.654663
-0.060261
1.017788
1.266403
0.914660
0.825904
1.559688
1.052440
0.117694
-0.542897
1.090700
0.237749
1.518032
0.853696
1.110752
-0.782133
0.815790
1.383498
-0.091604
0.276379
-0.919241
0.202129
-0.762236
-0.817239
-1.179331
-1.009443
-1.010656
0.893575
-0.677701
-0.780130
-1.017970
0.898358
0.694805
-1.792528
-0.090783
-1.047815
-0.115594
-1.628822
0.052905
-2.003088
-0.152445
-3.105758
-3.595382
-0.619005
-2.756474
-0.301351
-0.950034
-3.716369
-3.489217
-1.618060
-3.742615
-4.845881
-4.856979
-5.245435
-4.348312
-1.550743
-4.933212
-4.599001
-3.906414
-5.217190
-3.795623
-4.451015
-3.905194
-2.517460
-3.145573
-3.571503
-2.698962
-1.994661
-4.265934
-2.691866
-1.721205
-2.291269
-0.529845
-1.495433
-2.306801
-1.691317
0.278985
-2.283207
-0.959983
-1.186951
-1.976647
-0.837811
-1.372788
1.495745
-0.731761
0.991272
-0.345007
1.300499
-0.307834
-0.236635
0.608962
0.679983
-1.180813
-0.357580
-1.537672
0.540756
-0.830632
0.368821
-0.265512
2.302077
2.164093
-0.135467
0.355505
0.414083
1.424772
1.139141
1.961176
3.020162
0.159522
1.544069
1.592638
1.802805
-0.219766
1.295773
0.679349
3.049398
1.209502
-0.165853
-0.411677
0.033785
1.174324
1.644470
1.077959
0.396646
0.801587
1.426841
0.729428
1.240992
0.928486
1.254360
-0.570674
0.317532
-0.288343
0.702357
2.907637
0.616696
0.003293
0.951795
-0.403540
0.417903
0.835397
0.071468
2.589286
1.133431
-1.701398
0.519384
-0.226677
0.105472
-1.073434
-0.018345
0.796789
0.572325
-0.864451
0.581668
0.943571
-1.161901
0.709337
0.106551
-0.485476
0.675346
-0.714992
0.154623
0.833579
-0.753210
1.793203
-2.124129
-0.953622
-0.921380
-0.418364
-2.049350
-2.421023
-0.847541
-1.807132
0.483452
-2.285343
-2.479122
-2.185042
-1.909263
-6.423944
-4.123261
-4.208932
-4.826957
-2.797543
-3.562807
-4.844013
-5.664939
-5.815560
-3.995489
-3.745401
-3.947352
-4.265909
-4.813666
-3.967457
-3.580402
-3.272778
-3.735258
-3.697974
-1.138777
-2.876611
-2.523597
-2.656665
-1.216580
-1.445272
-2.336534
-0.987570
0.403277
-0.485072
-0.421019
0.094892
0.177384
-0.192348
-1.148021
-0.729556
-1.338663
0.514319
0.944005
0.804796
-0.906975
-0.537190
1.140125
0.015915
1.661628
0.762440
0.209849
-0.265874
0.340491
0.847289
0.428599
-0.231013
0.834765
-0.350884
0.735857
-1.550078
0.582254
-1.964265
0.005440
-0.800514
-0.123069
0.591525
-0.010245
0.016428
0.959325
0.298660
-0.209865
0.184707
2.589827
1.382134
2.058427
-0.147180
0.926154
0.719080
0.738616
-0.219615
1.125988
-0.538904
1.366863
0.669156
-0.315105
-1.790682
2.397906
4.500194
1.178815
-0.209891
0.360185
-0.934440
-1.482719
0.258185
0.837807
-0.292620
1.171351
-0.178741
2.115908
-0.534706
0.037431
0.946196
0.099213
-0.034191
1.384294
1.088284
0.356825
1.627765
-0.823611
0.686961
0.308183
-0.569766
0.361612
-0.950788
0.214788
2.298140
-0.090065
0.606391
0.286195
-0.471349
0.770529
-0.843281
1.252934
-0.542655
0.215048
-3.219680
-0.334864
-2.839271
0.961024
-2.428518
-1.858137
-2.067808
-2.425531
-4.252341
-3.187603
-4.875202
-5.402355
-4.087875
-3.726388
-4.815968
-4.937332
-5.415516
-5.350039
-3.073778
-5.900902
-3.640669
-4.091378
-4.653544
-4.141720
-3.415513
-3.924838
-2.935810
-3.128602
-0.365314
-1.032367
-2.524689
0.245961
-2.431064
-2.600668
-0.475641
0.283432
-1.408916
-0.988951
0.461185
-1.862488
1.542462
-1.086048
2.095505
0.026795
-0.797305
0.891748
0.155073
0.859207
0.373467
1.786012
-0.797528
-0.332606
-1.450063
0.628915
0.463183
-1.262196
0.460912
0.304110
0.840025
1.577170
0.510595
-0.361704
0.470780
-0.078274
-1.524170
2.189416
-1.466784
2.152471
-0.435705
0.397735
0.718750
2.139872
1.444501
1.878366
2.135493
-0.116471
0.233436
0.158951
-1.227406
-0.189432
0.571440
0.990112
0.322386
0.211218
1.814234
0.398818
0.146593
-0.273595
-0.142816
2.462096
1.317130
1.933696
0.819379
2.737777
1.758128
0.928985
1.239744
3.748906
0.911300
-0.591451
1.671868
-0.832030
0.494344
-0.002055
0.954911
0.618191
0.641625
0.938378
-0.016240
-0.803155
-0.253367
0.444031
0.003965
0.982407
0.705057
-0.964286
-2.451723
-1.989401
-1.259248
-1.185515
-1.286247
-2.163673
1.151672
0.707910
-0.187782
-0.798303
-0.727522
-2.042283
0.644427
-0.478611
-2.615151
-1.108146
-1.485102
-2.032146
-1.331212
-1.937460
-3.774568
-4.496221
-4.038162
-4.351842
-4.098846
-2.056571
-3.897525
-3.122351
-3.642699
-4.146925
-5.238928
-6.066611
-4.193914
-3.501962
-3.237175
-3.934514
-2.368878
-2.919610
-3.970891
-2.938333
-1.184441
-2.318731
-3.637415
-2.097841
-1.540416
-2.145167
-1.725460
-0.979277
-1.081758
0.042387
-2.010079
-2.083126
-1.122877
0.751256
-0.290792
-0.451924
-0.026716
-1.108806
-0.991066
0.419676
-0.371140
0.743084
-0.572349
1.347363
-1.928938
0.257888
-0.208729
-2.395796
-1.402737
-0.165813
0.436718
0.280002
-0.390124
0.358451
-1.247759
-1.164606
0.238861
1.750215
-0.386473
-0.381698
0.578553
-1.293200
-0.587420
1.047711
-0.003285
0.901238
2.349674
0.190676
0.554130
0.467021
0.116055
-0.656191
-0.710184
0.848678
-0.281242
-0.896519
0.415969
0.782695
0.102753
0.937982
0.407865
3.352705
-0.145610
1.442941
0.184383
1.930781
0.306815
0.321687
0.384875
1.721953
1.670220
1.216490
-0.889600
-0.307700
0.162584
0.103855
0.088439
-0.892556
0.983878
-0.230819
-0.180059
-0.420740
0.512996
0.326256
-1.126478
-0.612308
-0.220059
-0.866589
0.819847
0.559737
-0.518994
-2.593772
1.683668
-0.090345
0.477641
-0.547081
-1.521211
0.581084
-0.895562
-1.726942
-1.951572
-3.540884
-1.689443
-0.128339
-1.069539
-2.327885
-0.857550
-0.855350
-2.772218
-5.904450
-3.614418
-3.074235
-5.933135
-5.144142
-3.188987
-4.975132
-4.131360
-4.042241
-4.421689
-3.973909
-3.941569
-3.707101
-3.203042
-4.427424
-1.911893
-2.488163
-4.117537
-3.136741
-2.007725
-0.573041
-3.904319
-1.971644
-1.098207
-0.087555
-1.277200
-0.139685
1.165130
1.757084
0.978700
-0.354302
-1.121416
-0.251087
-0.378229
-1.352914
-0.012313
-1.995387
-0.387273
0.941604
0.601833
0.312301
0.752779
-1.718886
-0.876259
0.132080
-0.651864
0.445103
-0.122989
-0.251291
-0.784557
0.982109
1.416286
0.506644
0.817871
2.156541
1.807175
-0.350728
-0.034007
-1.569642
1.979296
-2.438429
0.212521
-1.256898
1.848911
-0.465020
-0.547051
0.460831
0.861488
-0.602572
-1.086237
-0.447971
0.774287
-0.616105
1.117813
0.947198
0.353289
1.439647
0.302921
1.843164
1.629087
-0.126978
0.713816
0.262223
0.778229
0.067996
-1.591261
0.202280
1.401011
2.567129
1.803559
1.483843
1.896651
0.329195
0.571432
2.639913
-0.085786
1.722146
2.411389
0.194947
0.396366
0.951930
-0.063694
0.521745
-1.060664
0.075389
-0.916950
-3.021785
-0.780779
-0.603954
-0.001285
-0.169440
0.185350
-1.503065
0.510198
0.063056
-0.244478
0.400933
0.737480
0.610728
1.094997
-0.880452
-1.749855
0.480233
0.087665
-1.232382
0.189184
-2.115360
-4.277220
-4.241425
-4.973907
-5.518688
-3.814447
-3.377921
-5.968961
-5.102292
-3.777610
-3.819888
-3.963261
-4.135301
-3.077125
-3.256760
-4.783943
-2.016814
-3.167317
-2.169560
-2.766213
-2.522904
-3.103022
-3.306829
-1.983429
1.681380
-1.200481
-1.008536
0.359869
-0.155570
1.873258
-0.241052
3.368140
-0.956345
-0.285242
0.450451
1.816905
-0.408297
1.020739
0.876433
1.732057
-0.844062
-0.803399
1.264222
0.675141
-0.170993
1.108180
0.343102
-0.024343
-0.161816
1.025968
-1.060951
-0.636538
0.023719
2.051785
0.616971
0.420679
-1.244315
0.372110
-1.099242
0.576427
-1.139551
0.227763
2.307273
0.353447
2.682989
2.074530
2.078737
2.115522
1.475187
-1.967220
0.341578
-0.148818
1.239805
0.981574
2.789917
0.814621
1.288603
0.494935
-0.653254
2.060646
-0.106387
0.495332
0.684082
1.979543
-0.372473
-0.353390
1.280218
-0.353741
1.092539
2.282996
2.223934
3.620549
0.647263
1.261447
1.328374
-0.750509
1.785399
0.087825
0.724163
0.589256
0.539641
1.555960
0.519926
1.359144
1.433798
-0.445742
0.254709
-0.199870
-1.106021
-1.894644
-0.943069
0.108765
0.323850
0.100217
-1.625267
1.442261
-1.061470
1.513586
0.158340
0.920471
-2.258193
1.165846
-0.947559
-0.613024
-2.079334
-0.755426
-1.623460
-0.770370
-1.429639
-5.097830
-5.608182
-3.170805
-3.862558
-2.100530
-4.247006
-4.352133
-4.709511
-2.858417
-4.391448
-4.960522
-3.763527
-3.359000
-3.909071
-4.062036
-1.981688
-3.764148
-3.888032
-1.862751
0.101197
-3.232402
-2.821712
-0.056284
-3.074482
0.560666
0.431282
1.512219
0.384256
-0.372110
0.590017
-0.563585
1.723354
0.044215
-1.196451
0.114919
0.835108
-0.832444
1.104101
-1.195022
-1.124858
-0.838383
1.378523
0.805666
-0.057726
-1.211510
0.457665
-0.767482
0.476673
0.949748
0.935187
0.380072
0.801253
0.156258
0.823171
0.107547
-0.154502
-0.016539
-1.663325
-0.092908
-0.507682
1.188246
0.544175
-0.426138
2.467411
1.739358
2.157534
1.356058
0.471643
0.603881
0.983637
0.961441
1.085449
0.526264
0.132701
0.608488
-1.532919
1.443196
-1.124837
1.141553
1.283851
2.342435
0.667246
0.750858
1.205354
3.029015
1.749063
1.132342
1.208232
0.148113
0.402882
1.544267
1.253374
0.755338
1.104239
1.074238
-0.532882
-2.021381
-1.295749
0.774601
1.468604
-0.332496
0.428624
-0.085008
-1.142986
-1.448335
0.032978
-0.396824
-0.244095
-2.595633
0.147228
1.075211
0.783176
0.341983
-0.547222
1.403036
-0.564741
-0.815654
0.223346
-1.590709
0.493190
-0.245836
0.044175
-0.678478
-2.392118
-1.434754
-0.934286
-1.847582
0.526543
-4.382180
-4.150538
-3.177371
-4.088097
-3.933491
-3.425899
-5.204764
-1.633319
-3.764403
-3.710626
-3.112184
-1.731416
-5.748729
-2.470135
-2.766038
-3.060446
-3.608328
-0.894764
-2.464370
-1.082203
-1.304632
-2.081434
-0.243281
-0.130839
1.120461
0.309603
1.768906
0.328349
0.598736
0.960147
0.824359
1.292636
-0.731154
0.763482
0.135609
-1.288874
0.420337
1.431375
-0.540093
-0.275519
-0.814222
1.240258
-0.686869
0.302412
1.440451
1.743454
0.343326
-0.916236
-0.468930
-0.446007
-0.164819
-0.126228
1.493445
-1.973282
-0.891996
0.312438
-2.305656
1.478068
0.287208
-1.011516
1.532557
-2.661436
0.541365
2.650607
0.484532
-0.364772
1.318648
1.166717
0.452181
1.405006
0.060725
0.015665
1.365970
-0.078070
0.410040
0.030399
1.875982
0.008145
0.456911
0.329823
-1.312013
3.620227
0.360348
1.106012
1.554200
0.184569
0.131955
0.280522
-0.033924
1.528881
-0.094081
0.758423
1.363485
-0.850769
0.047066
-0.619338
3.158005
0.394426
-0.383711
-0.240418
0.191127
0.467803
-0.353932
-0.688648
-0.429088
0.077124
0.719231
-1.036407
0.347646
-1.052874
-0.095524
-0.481670
0.022199
-0.899197
0.026126
0.608900
-0.219072
-1.332968
-0.924335
0.173913
-0.363967
-1.999404
-1.154383
0.596708
-0.746158
-0.248750
-1.354811
-0.236228
-6.209875
-3.494833
-3.869381
-4.844987
-4.859755
-3.889849
-2.782298
-3.805354
-1.910342
-5.791915
-5.828273
-5.395121
-3.489613
-1.613932
-3.375853
-3.308782
-2.575350
-2.704017
-0.131884
-0.964457
0.221233
-0.848232
0.296150
0.723267
1.348110
0.882519
0.711042
-0.632084
0.488428
-0.599151
-0.071013
-0.302457
-0.409028
-0.558546
0.813117
0.532136
0.622855
1.210017
-0.418038
0.670256
0.379509
-0.234190
-1.204133
1.170043
1.227527
-0.783799
0.596257
0.158884
-0.597112
0.832940
0.343927
-0.340642
-0.418557
-0.288397
1.156447
1.628155
-1.241210
0.182332
1.040309
-0.384682
1.466317
0.421170
0.887706
-0.071656
-0.155124
-0.325271
1.001426
0.974464
1.026906
-0.325054
1.627068
0.558028
-0.255982
0.222879
0.239611
2.171754
0.566293
0.188951
0.321227
0.616613
1.249818
-0.059767
0.198446
0.891469
0.821295
0.116854
0.705842
-0.949017
0.544164
-0.109765
1.568451
1.396342
0.316879
-0.128808
0.709804
0.896850
0.540300
-0.574906
0.905487
-2.128787
1.115026
1.001435
0.578634
2.284167
-2.116900
0.161721
-0.616292
0.565663
-2.232287
-0.235168
0.904400
-0.786543
0.280934
-0.950282
-0.381256
-0.720317
-0.318451
0.152283
-0.852269
-0.427251
0.547342
1.359860
-1.624756
-0.340358
-1.108082
0.071951
-3.034886
-1.876103
-3.305749
-3.527667
-4.114838
-1.249601
-3.619970
-3.541215
-4.838911
-4.473134
-5.230947
-3.806194
-4.172107
-2.556559
-4.695859
-2.454625
-2.805859
-1.450724
-2.524330
-1.347294
-1.037658
-1.638246
-0.683332
-0.266104
1.464710
0.126301
-0.920681
0.680914
0.013377
2.580689
0.607243
0.020405
-0.158242
-0.995161
-0.843553
0.351386
-1.663778
-0.652089
-1.459853
-0.764873
0.209262
2.958059
-0.917514
-0.381900
0.851075
0.341821
-0.029304
1.750142
0.602333
-1.293234
2.079281
1.330061
-1.513382
0.333608
-2.391713
-0.514540
0.163168
0.790641
-1.121224
-0.233581
0.002940
1.408948
-0.017493
0.125912
-0.407367
1.627305
1.642591
-2.054685
0.902082
-0.352086
0.873207
1.510845
-0.733541
-1.259271
-0.617139
0.172722
-0.016653
1.994372
0.777418
0.888232
0.967352
-0.502286
1.902915
2.295971
0.752922
0.322049
-1.215096
0.478267
1.396443
1.653556
0.519974
0.408551
2.003536
1.629138
-0.162532
1.789718
0.223387
1.427364
1.774803
0.637074
0.334701
0.654622
-0.426121
-0.676069
0.549191
0.658041
0.073361
1.377073
-0.266909
0.035200
1.969458
0.440584
0.134297
-0.883765
-2.371726
1.363275
-1.374034
-0.062454
1.662300
-0.653390
-0.027576
-0.049324
-0.221471
-2.278883
0.940083
0.409477
-0.512031
-0.258211
0.392102
-2.246248
-3.631147
-3.483412
-4.670861
-6.006324
-2.839631
-2.829324
-6.900805
-3.551236
-4.467006
-4.611941
-1.763029
-3.519768
-3.161867
-3.069958
-3.510131
-2.011411
-2.615552
-1.088060
-0.634472
0.468045
-1.165185
0.652724
1.249218
0.191414
1.911889
0.031547
-0.744807
-0.312162
0.726452
-1.832107
0.916083
-2.287070
1.483440
-1.049929
0.852890
0.350271
0.818623
0.890064
0.453427
0.687619
1.169431
1.108409
0.472483
0.340094
-0.319784
1.479542
1.614585
-1.723209
1.236946
-0.260474
-0.316345
-1.016055
0.492568
0.173769
-0.694001
0.194886
-0.924251
2.744094
0.580391
1.301514
-0.257022
1.732618
0.289920
-0.342068
1.490844
1.085972
-0.187858
1.060204
0.699237
1.230150
-0.064695
0.990209
1.513004
0.040536
-1.650643
0.730708
0.031450
-1.138461
-1.343838
-0.256448
0.081553
-0.041138
0.192749
1.188578
1.576969
-0.978635
-0.829007
0.842704
0.415007
3.004317
-1.771610
1.460786
3.120734
-1.596492
0.219983
1.151891
0.447980
1.847630
-0.268367
0.182767
-0.392164
0.142368
-0.595637
-0.209853
-0.577350
-0.841083
1.103718
2.121410
-1.510989
0.005602
-0.004375
1.254509
0.008403
2.427953
-1.312865
-0.249881
-1.566628
-0.513213
-0.885120
-2.690027
-0.855715
-1.100313
-0.709217
1.625096
-0.144527
0.870437
0.511209
1.249618
-4.225153
-3.588852
-5.445257
-4.212394
-2.930100
-4.290928
-2.730697
-4.115182
-1.956185
-2.393127
-3.149592
-3.861906
-2.237131
-3.528224
-1.899729
-1.162981
-1.681671
-0.703779
-1.039185
-2.665228
1.206329
-0.301827
-0.302555
-0.513250
0.969359
-0.366425
-0.099995
0.906509
-1.272437
0.173029
0.388886
1.316733
1.766384
0.314991
1.265510
2.974673
1.572850
-0.161087
2.052687
2.078970
2.097434
2.381921
1.695491
-0.443408
-0.839681
0.798369
0.404316
0.832325
1.653683
1.948649
-0.156256
0.253176
-0.317654
0.227520
2.257731
-1.545773
2.749760
1.365500
0.067620
-0.654018
-0.824178
1.403319
2.190848
0.292302
0.733941
1.693964
2.085993
1.393208
0.684405
0.159902
0.803156
0.263603
-2.421066
1.289431
0.543213
0.441053
0.375611
0.875555
1.036349
-1.145852
-0.788495
0.673267
-0.342363
0.744349
2.045489
0.354321
0.715056
-1.062117
-0.531080
-0.411347
2.034956
2.264993
0.030901
0.039807
1.230266
0.281427
2.293546
0.910775
1.094545
0.425699
0.392680
1.009474
-1.914325
-0.732171
0.635700
-1.074247
-0.007993
-0.433960
0.054370
0.280162
-0.003999
0.559412
1.027171
1.074358
0.367671
-1.617580
0.164621
-1.485645
-1.334887
-0.942746
-0.953678
0.125700
0.517067
-1.238844
0.315674
-0.650008
-1.619080
-1.412049
-4.592730
-2.190496
-4.201839
-4.559206
-6.682806
-3.698410
-2.860058
-5.014552
-3.935073
-2.511050
-2.311300
-0.146738
-3.090035
-3.394399
-1.797124
-1.952073
-2.432720
0.894973
0.337431
1.740853
-1.246168
-0.471156
0.679908
0.420257
-0.484661
1.163819
2.141740
2.387748
0.309989
0.488726
0.398915
0.321339
1.957873
0.727244
0.419423
0.952057
0.334364
1.147557
-0.708024
1.462144
0.591940
1.018756
0.420700
2.966451
0.775390
2.071454
1.220011
2.467825
-0.038083
-0.834194
0.896677
2.676528
-1.421022
-0.225204
0.435270
0.414435
1.119112
-0.838821
-0.937182
0.688019
0.747617
2.458337
1.416199
0.333491
0.694891
1.374332
1.613001
0.130757
1.822472
0.093072
0.817377
1.227044
-0.077651
0.828990
0.458300
2.543408
1.263858
2.756274
1.083904
0.110261
1.279499
0.171008
1.458181
1.540093
1.424517
0.178883
1.852104
-1.061403
1.971592
-0.608880
1.071202
1.137509
-1.114712
-0.168261
1.005354
0.909982
1.982646
0.619076
-0.459711
-0.058496
1.247413
0.984419
1.059448
0.574739
-1.842223
-0.127759
-1.256860
-0.100830
-1.887597
-1.434427
-0.260781
-0.176632
0.365085
0.855718
-0.971132
-0.166483
-0.717651
-0.520935
-1.214642
-1.193579
-1.108331
0.047751
-1.114751
-1.546433
-1.156270
-0.103390
-1.329432
-0.740800
-2.975954
-4.081838
-3.241460
-2.796654
-2.293615
-4.462322
-4.277339
-4.804037
-3.997609
-3.299290
-3.397169
-3.859843
-1.028872
-3.941919
-1.500385
0.012866
-0.696908
-2.778591
-1.039663
1.496837
0.183302
1.776984
1.836488
2.212108
0.762603
1.708091
1.334821
-0.701443
0.093417
1.983550
-0.081810
1.662423
0.882163
0.763812
1.371352
-0.217951
1.430071
0.533530
1.623561
1.123900
2.244414
1.246138
2.120001
0.986226
0.495855
0.485585
1.525623
2.294427
1.500322
4.036626
0.050105
0.201370
-0.650620
3.271892
-0.567957
0.653838
0.968003
1.259499
-1.348322
-0.356766
0.193364
0.830466
1.075467
1.266277
1.863718
0.176506
2.876769
1.112498
1.655378
-0.085513
-0.919242
0.612142
-0.152049
-0.251744
0.674649
0.732135
-0.330979
0.555444
0.269261
0.593603
1.395031
-0.825109
-0.218470
-0.284766
0.285928
0.066713
0.045010
-0.484166
0.817423
1.068594
-0.629513
-0.308274
0.952960
0.166924
-0.342831
1.242530
0.745909
-1.093573
1.478504
0.335904
-0.268365
0.152259
2.396101
-0.079108
0.728386
-0.105967
-0.203233
-1.661357
0.301967
1.119095
-0.974654
0.032084
-0.923054
0.547370
-1.483004
0.410338
-0.578042
1.807591
-2.324056
-0.204067
-2.383951
-0.953790
-0.838848
-0.230680
-0.611659
-0.653562
-0.801929
-2.858296
-2.413732
-4.779299
-3.545612
-5.437966
-4.974040
-5.121636
-3.745504
-4.488896
-2.640274
-1.473649
-3.232447
-1.829044
-1.797794
-1.133046
-0.132601
-1.890111
-1.210896
0.829493
-0.346149
-0.337526
0.831810
2.706390
1.139450
1.546016
1.416271
0.538223
0.019823
-0.083611
1.112460
1.003091
0.869193
2.039376
2.061814
0.707109
-0.469880
1.391480
0.485539
0.086619
2.942316
1.614097
-0.076279
1.728137
-0.459110
-0.802895
1.807553
1.699533
2.024920
-0.908807
-0.689365
-0.228927
0.016849
0.203666
0.149728
0.071911
0.348053
0.737813
0.983733
-0.572543
1.385386
-0.117681
2.284786
2.850821
1.048556
1.296838
-0.062354
1.692502
1.501177
-0.978950
1.638349
1.102716
1.529203
-0.131580
-0.346745
0.858043
-0.217079
0.050031
-0.214782
0.717070
-0.752556
1.494403
0.931292
-0.422308
0.623934
-0.778594
1.153674
-2.246587
1.571271
-0.398557
0.856320
1.023092
1.136545
-0.100704
1.349487
2.584279
0.109709
-1.408523
1.495105
-0.028763
0.772567
-0.255205
-1.088684
0.542242
0.385077
-1.526523
-0.925009
-0.443672
1.582946
-1.935581
-1.050946
0.883585
-0.283865
0.336293
0.325069
-0.960999
0.610728
-0.462443
-0.991376
-0.421635
1.075956
-1.043822
-1.070770
0.481949
-0.214229
-3.197521
-1.474776
-1.577276
-1.451711
-0.670354
-3.830814
-5.395882
-4.895544
-3.809288
-3.440086
-3.714117
-5.622975
-3.631063
-3.868898
-3.197002
-3.615651
-1.789470
-0.859011
-2.610315
1.727685
-0.340831
-0.038766
0.816973
0.841494
-1.162253
-0.290710
2.106970
2.077829
1.892821
-0.884048
2.181626
1.250009
0.474639
3.447326
0.580701
1.402007
0.151025
-0.202762
2.753067
3.318428
1.321837
0.226409
1.415499
0.737347
1.028105
2.300142
1.560626
0.954645
2.566824
1.757687
0.763499
1.799701
0.519304
0.437884
0.383753
-0.096999
-1.465166
-0.152881
2.124777
1.062977
0.627135
-0.975220
0.725165
-0.719340
2.010710
1.366238
0.965580
0.815460
-0.494879
-0.719849
1.372999
0.473943
-0.454414
0.181929
1.213934
0.357177
-0.007301
2.660887
0.735410
-0.945198
0.612936
-0.201991
0.203078
-1.406510
-1.221460
-1.103381
-0.476003
1.467117
-0.244654
1.138218
0.473839
0.903207
-0.732737
1.330046
-0.755318
0.679369
0.313247
-0.125141
0.131540
0.198960
2.076267
-0.390048
0.072641
-0.751610
0.824914
0.039411
0.021030
-0.591433
0.502673
0.973257
2.679428
-0.196174
0.388428
1.587450
-1.325026
-0.501553
-0.561202
0.357180
-0.447909
1.630153
0.638124
-0.046637
1.698738
-1.077284
-0.165373
-2.037211
-0.360837
0.189288
-0.518358
-2.137732
-0.517025
-2.066514
-0.542120
-2.166068
-2.526533
-4.720357
-1.476627
-2.949567
-4.844155
-3.998219
-2.653668
-0.926367
-2.007527
-0.262587
-1.888476
0.887825
-0.955504
-1.322791
0.222648
0.275568
-0.148869
-0.815374
-0.961591
0.555567
-0.579385
0.301104
1.914608
0.395025
-0.983605
0.727341
1.446087
0.797276
0.194490
0.369196
0.623915
2.406732
0.699960
0.821196
0.501499
1.370262
-0.239940
1.043112
2.726452
2.495079
-0.818408
0.844884
0.946942
1.906495
1.333513
0.296323
0.485424
0.798495
0.522554
-0.521619
0.455748
0.783112
0.265471
2.020376
-1.304209
0.936925
0.943355
1.561057
-0.041979
-0.101957
0.731215
-1.463539
1.667029
1.143017
3.071734
1.910680
0.402479
2.476940
1.794779
0.424344
0.494828
1.374098
0.424705
2.237863
-0.497812
-0.238297
-1.675695
-2.238420
1.766900
-0.181812
-0.094839
-0.349855
0.625301
0.076800
0.489039
-1.109386
0.391808
1.905282
1.044086
0.303066
1.642108
0.291115
0.612002
1.453044
1.508090
-0.757551
0.680402
1.817273
0.143953
-0.525961
0.131903
0.148488
1.551110
-0.466103
0.992672
1.340555
-0.141627
1.152860
0.444259
1.235982
0.233931
-0.960793
1.906377
0.739194
0.634874
0.662731
-1.516846
-0.139907
-0.041194
0.567524
-0.337849
-0.668932
-1.601796
-0.750472
-0.362666
0.048647
-0.793684
-3.842613
-1.920032
-3.829902
-2.757882
-3.011666
-3.368614
-5.492059
-4.852208
-0.994118
-4.018990
-2.309803
-1.261695
-0.775885
0.424307
-0.305116
0.417866
0.129417
0.780205
1.390001
1.572624
0.404031
-1.062367
1.215658
0.525185
2.151570
2.795380
0.419282
1.021800
2.147891
0.138283
-0.270066
0.324413
1.594826
0.352296
1.647035
1.679091
1.086046
1.758026
1.329561
2.501566
1.072925
2.654798
0.453423
-0.107886
0.577043
-0.572368
0.656633
0.821470
-0.736498
0.629567
0.193544
1.371706
0.740718
1.156457
-0.829465
-0.683149
-1.035601
0.366338
-1.975333
1.113220
1.406542
0.639560
0.548399
-1.023276
-0.183478
1.345866
-0.051920
1.308808
0.957173
0.672644
1.888972
1.366718
-0.605800
0.186145
0.810976
0.288066
0.147282
1.111338
-0.442023
-0.253175
0.144475
0.918340
-0.008472
1.158984
-1.036039
-0.230849
0.699125
-2.157401
-0.234368
0.297359
1.330137
0.065642
0.638184
0.544144
2.031267
-0.541823
0.592600
-0.404411
0.644043
-0.612574
-0.991937
0.168743
-1.034242
-0.741774
0.761901
-1.095217
1.053785
0.290568
0.125595
1.853110
-0.083998
-0.283810
0.848785
-0.025188
0.040957
-0.167771
0.428232
0.632038
0.904918
-0.868018
-0.029165
-1.303318
-1.208941
-1.279624
-3.174015
-1.607969
-3.198144
-0.277955
-3.693889
-5.255388
-2.285235
-3.496895
-5.257678
-3.522962
-2.896692
-3.468994
-1.869289
-1.648940
-1.772604
-2.520761
-1.568485
0.764368
1.578774
1.260928
0.873972
1.121181
0.959400
1.495025
-0.637179
0.407909
0.989528
2.409978
0.160669
1.629144
-0.067918
1.251997
0.887681
0.366696
-0.268715
0.723807
2.664733
1.800912
0.723337
0.468365
-1.184934
2.423474
1.487817
-0.686709
-0.505442
0.958960
1.321906
0.316699
0.738965
0.556934
0.859499
-1.228801
-0.560330
0.874226
-2.104596
-1.763581
-1.105761
0.658404
-0.145510
0.211474
-0.030666
1.764864
1.517992
0.650801
-0.073715
1.852733
1.396538
1.924820
1.168611
0.299666
0.930878
0.477752
-0.279321
-0.328432
-0.806883
0.681873
0.791449
-0.683799
-0.439286
0.014046
-0.123371
0.748895
0.641669
0.604546
0.851404
0.933786
0.708653
-0.346664
-0.288511
0.359877
-1.013199
0.196241
2.097925
0.775937
-0.529137
-0.097395
-0.117859
0.453622
0.986219
0.600841
-0.759034
-0.690895
1.973752
0.213307
0.833025
0.863683
0.027930
-2.064955
4.259082
0.231233
-0.139722
0.037144
-1.569154
-0.759611
-1.001951
-0.684803
-0.349432
0.543472
0.610357
0.889816
-0.858141
0.223419
1.699657
-1.973383
-1.540957
-0.397836
-1.828808
0.882407
-0.350624
-2.312188
-0.921920
-0.343587
-4.140246
-4.286905
-1.719583
-2.772480
-3.304514
-5.089716
-1.137751
-1.836525
-2.945349
0.070250
-0.046252
1.924480
1.329003
-0.579538
0.036987
-0.691993
1.510421
0.452153
2.060578
1.101777
1.312311
1.541018
0.074543
1.232768
0.851471
1.165994
2.745693
0.596906
1.112944
-1.253799
1.061734
0.520779
-0.015596
2.899019
0.327679
2.258865
0.442113
1.808021
0.355741
2.026068
-0.036002
1.984418
0.936539
-1.253361
-1.458806
1.120042
-1.117126
0.109910
-0.719834
0.865844
0.567045
0.879642
1.040162
-0.507418
0.445806
-1.272780
-0.910432
2.374269
1.679659
-0.120439
-0.505508
-1.692420
-0.613623
0.762283
0.869786
1.973859
1.109857
-0.710244
-0.907120
0.156740
0.387110
0.740482
0.869421
0.892290
-0.844418
1.126879
-0.259364
-0.169707
0.758231
-0.753779
-0.778788
2.383288
-0.057726
0.475926
-0.224177
1.113124
0.566589
-1.019186
0.194122
-0.282627
0.037509
0.809856
1.370076
0.292849
-0.735062
0.101565
-0.663141
0.866802
-0.128355
1.762223
2.233789
-0.167222
0.090546
1.927665
0.540008
0.260149
-0.403458
1.163556
2.918401
0.681774
1.583347
-0.226711
0.408830
0.529547
0.185493
-0.161430
-0.276043
0.570346
0.430526
-1.363083
-0.036624
-1.493218
0.204078
-1.346249
-0.875412
-1.964979
-0.274292
-1.659665
-3.333184
-4.472437
-4.189107
-2.138259
-2.765159
-3.547551
-0.854277
-1.653694
-1.422978
-0.505582
-0.692934
0.541639
1.859681
2.020736
-0.172535
-1.518081
0.022693
3.163314
0.561174
0.923078
0.952825
-0.300644
1.326567
0.229802
0.992578
0.734371
0.189644
-1.291407
1.002519
3.739307
1.337096
1.317967
0.768221
-0.325467
0.721317
-1.436723
0.104442
2.348346
0.914341
0.495260
1.700823
1.421518
1.138586
-0.650388
-0.178966
0.016838
0.285376
-1.059572
0.780773
0.807501
0.387507
-0.203211
1.449056
-2.534124
-0.228028
0.268768
0.602369
-1.217152
-1.853926
-0.581218
1.392729
0.818921
-0.963869
-0.553595
0.371276
-1.017171
-0.484187
0.863757
-0.552593
1.064295
1.351726
0.480846
0.096133
-0.308684
-0.635629
0.317778
0.597650
0.409732
-1.333921
0.150142
1.380456
0.562292
-2.603722
0.592718
-0.045618
-0.959007
-0.646253
-0.182022
-0.780557
0.698432
-1.050811
-1.488400
-0.313337
1.963135
0.280614
-0.638893
-0.717698
1.599140
0.128077
-0.786776
-1.184353
2.231389
0.636613
-1.661120
0.131956
-0.609090
0.060635
-0.142318
0.112181
0.506326
-0.561816
0.629958
-0.124928
1.728280
0.264827
0.002128
-1.757602
0.466060
0.370938
-1.561112
-0.872899
-0.801809
-1.283068
-0.251964
-0.689923
-2.733466
0.815225
1.015459
-3.481496
-2.803180
-4.194260
-3.235445
-3.635635
-4.581427
-0.801388
-2.198875
-1.753794
-1.739862
-0.060059
1.459623
-0.302838
1.438319
0.897455
-0.135548
-0.075099
-0.131875
2.440475
0.850413
0.319198
1.480172
2.100074
1.350002
1.742645
0.391041
0.068242
0.235162
1.019950
1.294013
-0.760764
1.282256
1.899352
2.178253
0.734783
1.946333
-0.345393
1.821641
2.028935
0.130869
1.183532
-0.282507
-0.592377
0.552416
-0.455992
-1.877207
-0.670683
1.347000
0.250979
1.855554
1.366293
1.488298
-0.166384
2.140533
-0.414006
1.991081
0.271422
0.156812
1.107629
1.086874
1.619683
-1.097877
-0.501751
-0.934009
-1.105021
-0.403306
0.086549
1.963490
2.153121
1.890976
0.509954
0.853477
0.329174
0.763004
0.708118
0.952587
0.690520
0.887493
0.164533
1.125044
0.434835
-0.385553
-2.202274
-0.390014
-1.581918
0.022203
-0.072700
0.109942
0.390964
1.319494
0.988584
0.787686
-0.109304
-0.610394
-1.926398
-0.426263
1.952321
0.896630
0.794364
1.646529
-0.122805
0.123046
0.459119
0.042426
1.040772
1.313213
2.158647
0.246715
-0.429171
0.252141
-0.519845
-0.869483
-0.930631
1.758556
-1.065224
1.185320
1.093770
0.145086
0.953345
-0.952495
0.243009
-0.049645
-0.262748
0.230965
0.876754
-1.724202
-1.866563
-1.077469
-2.410456
-3.850606
-1.730341
-5.050955
-1.178649
-3.874512
-0.265229
-1.168927
-0.182757
-1.125773
-0.043384
0.294531
0.903127
1.729708
1.703637
0.290534
1.423789
0.359022
1.107362
0.120139
1.731196
0.616014
0.479627
-1.743486
-0.288671
1.250358
0.508216
2.092557
1.363675
-0.169307
-0.054472
1.288920
-0.184349
0.675212
-0.258580
1.665920
1.773678
0.918261
2.194420
0.582955
0.123313
-0.877237
-0.200261
-0.530791
1.058604
-0.445936
0.181938
-0.247613
-1.810719
-1.242305
0.492768
1.721911
-0.411729
0.286558
2.349255
0.407514
-1.522407
1.773111
0.164481
-0.153965
-0.215312
-2.084808
-0.136424
0.238107
0.759279
0.778369
-0.302998
-1.002177
2.453202
0.002424
0.828531
0.769196
0.805978
-0.111405
0.887920
-0.755598
1.970568
0.753063
0.658674
1.008765
1.198900
-0.165738
1.184370
-0.481031
1.483080
0.437866
-0.374956
-0.499985
0.663738
-0.345135
-0.694925
-0.353759
-0.919356
0.686515
0.286255
2.439409
-1.578556
1.559875
0.362236
1.199840
-0.505352
-0.833114
0.150313
-0.572215
-1.502278
1.435264
1.281854
-0.083410
-0.454338
-1.249348
-0.436087
-1.494191
0.657906
0.559672
-0.511665
-1.398254
0.670936
0.884921
-1.053915
0.732976
0.233640
-1.962182
0.343066
-0.732211
1.064769
-1.998690
-0.742484
-1.364431
-3.018259
-2.442484
-1.259029
-2.464629
-2.315220
-0.248268
-1.139113
-0.519189
-0.815826
0.931792
-0.527126
-0.041367
1.585142
2.263220
0.418840
0.303654
0.371960
1.233146
0.816576
0.054968
-1.867708
-0.141238
-0.204439
-0.022466
2.559969
0.913794
0.140222
0.527400
-0.164617
-1.521071
2.240394
-0.459691
0.593212
0.719814
0.925891
0.011622
0.372494
0.510081
-1.648989
-0.175472
0.414384
0.425328
-0.475047
-1.142414
-1.994424
-0.904111
-0.768056
-0.878286
-1.193837
-0.467883
-0.064248
0.588834
0.568646
0.001707
-0.287903
-0.763041
0.836059
1.730183
0.803219
0.402657
-0.380863
0.037495
1.150491
1.008612
-0.273555
1.000792
-1.058951
0.407993
1.090809
-0.409949
0.143530
0.673149
0.096902
1.311542
0.719594
1.581593
2.272849
0.986672
1.898483
1.760153
1.026259
0.003302
0.050307
1.411195
0.811664
0.138445
1.871001
2.131844
-1.443804
1.692017
-0.093274
0.033144
-0.316845
-1.277617
1.657578
0.812221
-0.267034
0.336970
-1.533945
-0.557041
0.745619
1.713708
-0.273499
-0.769818
1.020314
-0.637918
2.692298
-0.161581
-0.765996
-1.329035
-1.718839
-1.358104
-1.624452
0.068893
-0.074110
-0.350564
0.486830
1.862887
-0.611468
0.190181
-0.210991
-3.222229
1.052077
0.670246
-0.324146
-0.550242
-0.673126
-0.494262
-2.553795
-2.044505
-3.510914
-2.901720
0.576214
-0.128477
-0.353784
-2.344078
-0.277837
-0.070350
0.803728
1.088529
1.539711
-0.758679
1.108444
3.597325
0.860162
1.536078
0.972245
0.689383
0.781671
2.425881
-0.384052
2.409151
1.062152
0.364739
-0.400356
0.727585
-0.264508
1.115829
-0.084008
1.494950
2.478925
-0.289763
2.454436
-0.720592
-0.564856
-0.277359
1.891675
0.976648
0.497679
-2.195947
-0.819568
0.227580
-2.227685
0.653617
-0.126621
0.229576
0.183534
1.497513
0.380274
-0.349513
-0.156237
0.302965
0.048756
1.011552
-1.375452
1.454385
-0.123850
-1.269630
-0.169447
2.099255
1.631489
0.543788
0.626034
1.146362
1.156818
-0.786453
0.459987
-0.043703
-0.102344
-0.682627
0.931165
1.340579
-0.839287
-0.155471
0.790525
1.323051
-0.656591
-0.587259
-0.624778
-0.108321
-0.036890
1.420581
-0.050246
1.084028
-0.473435
-0.873560
0.353498
0.390713
0.153285
-0.928574
1.611318
0.655077
0.542477
-0.305849
0.275265
1.004320
-0.982593
-0.975580
2.456531
-1.457501
0.670276
-0.360465
1.494045
0.218310
-0.100085
0.782148
1.027881
0.082625
-0.861344
0.330546
-0.577926
-0.628242
-1.225954
-0.320488
-1.872910
-0.790130
-1.690978
-0.385367
-0.754514
1.503782
-0.342095
-2.867610
-1.882546
-2.100016
-0.451860
-0.995034
-3.184965
-3.747504
-2.355205
-2.768796
-0.739685
1.978788
-0.817037
0.259506
0.207537
-0.135697
2.129393
0.736409
0.522658
2.642360
2.943975
1.158790
2.470962
0.167818
1.321811
0.879071
0.122097
-0.601180
1.075246
2.114295
0.557931
-0.291513
-0.474736
1.961039
1.306544
0.514543
-0.671139
-0.641547
3.038853
1.772992
1.117394
-0.179646
1.076130
1.219976
-0.134642
0.877333
0.672865
-1.131051
1.035085
1.346382
-0.299467
1.147824
-1.120612
0.817483
-0.772112
2.081007
-1.312516
-0.044290
1.020486
-0.489564
-0.012892
-0.111059
0.872345
-0.340686
2.110748
-0.850705
0.334753
0.546562
0.452782
0.554381
0.812795
0.528344
0.119258
0.663591
0.670030
0.644515
1.118743
1.098769
0.085926
0.955073
0.964708
0.084580
1.457904
0.903775
0.666812
-1.328679
-0.683508
-0.481352
1.687945
1.168156
0.724759
2.597392
2.296820
0.401518
1.346035
0.302499
-0.758131
-0.812228
-0.891396
-1.537811
-0.670161
-1.395136
0.954185
0.857641
-1.933592
0.875962
-0.902248
-0.158799
-0.235191
3.142687
1.466079
-0.541464
-0.557924
-1.018217
0.351621
-0.403202
-1.249470
-1.549723
-2.395634
1.042035
-3.496560
0.392737
-1.748221
-0.046343
0.626391
-1.635768
-0.424916
-0.958678
-0.189059
-2.428386
-3.001935
-0.558936
0.100473
-0.337736
-2.768064
-2.944834
-2.170841
-0.363359
1.832821
-0.279579
-0.392855
1.567571
1.683210
0.611515
0.669301
1.539955
2.849629
0.863926
1.062183
0.742110
1.096391
1.267391
0.216257
0.809765
-0.871966
1.976664
-0.649157
-0.177060
0.966998
0.204903
0.965941
0.022284
-0.392556
2.453403
1.312277
1.076211
0.964491
0.240008
0.219109
-1.609842
1.469474
-2.491456
1.878751
-0.572855
-0.429735
1.127580
0.389223
-1.180969
-0.302622
-0.625791
1.470642
0.804134
-0.076735
1.283384
3.145106
2.334635
-0.780980
-0.649044
2.218703
0.923841
0.089970
-0.138884
-0.215363
0.717270
1.086534
0.101868
1.080760
1.389189
-0.980644
1.162412
-0.108205
-0.006876
1.229148
-0.189483
0.370680
-0.028537
2.228233
0.437652
1.129992
0.518310
-0.469755
1.428452
0.948924
-0.698185
0.996154
0.525849
-0.098784
1.148684
-0.761987
-0.266343
-1.775208
1.845416
-0.722458
-1.443551
-0.126095
-0.489746
-0.039072
-0.689304
0.587915
-0.678904
-1.488156
-0.240162
-0.197772
-0.526198
-0.284200
-0.275539
-1.141172
1.249610
0.218806
-0.407579
1.514834
0.057774
-0.668891
-0.724836
0.317516
-0.628352
0.411844
0.562111
-1.286596
0.870107
-0.644213
-0.148763
0.031118
0.422847
-0.168958
-1.526669
0.590470
-1.820527
-1.667130
-0.634367
-1.510754
-1.875847
-2.373033
-3.142458
-1.460425
-2.763176
-1.399315
0.083524
0.661241
1.868192
1.271643
1.029519
0.656426
1.337013
2.492880
2.872836
1.263576
1.195314
1.171508
-0.097361
0.953597
-0.437331
2.094721
2.196823
-0.217470
0.273596
1.589939
1.813912
0.039764
1.799167
1.816683
0.720469
-0.902425
0.831915
-1.211111
-0.786236
-0.541189
-0.296361
-0.543507
-1.139460
-0.581394
0.824879
-0.788557
2.096993
-0.284788
1.449327
1.639244
0.966158
0.443897
1.650797
0.772105
1.698661
0.780979
0.462529
0.100458
0.033340
1.591889
1.441533
-0.211038
0.326345
1.788874
0.091402
1.204591
-0.117837
1.148742
0.988665
0.238012
0.338516
0.427542
0.822937
0.622488
0.032307
1.407140
1.608447
0.790296
0.756688
1.240029
0.119820
1.167758
-0.926148
2.370270
1.240842
-0.412919
-0.262313
0.914672
0.307395
0.395403
0.656518
1.701461
0.151088
-0.752416
1.210246
0.262736
-0.601309
-0.075270
0.048080
0.945207
0.043945
-0.338244
-0.297056
-1.364508
1.709202
-0.373426
-1.230063
0.474297
0.022603
1.659075
-0.564858
0.029907
-0.230895
-0.107307
1.379967
-0.758135
0.696788
1.022786
1.501956
1.487993
-0.664538
1.556726
0.262093
-1.007323
0.114360
-0.804212
0.538127
0.083054
-0.668940
-0.731616
-2.391479
-1.338828
-2.248979
-3.363999
-4.145589
-3.715769
1.154024
1.740498
-2.150155
0.566342
0.195427
0.534193
1.427943
1.466845
1.094455
1.008198
0.462869
0.304203
0.058393
1.119322
0.415519
0.672388
1.496844
-0.458661
0.551066
1.449426
-0.062537
-0.007054
-1.048306
-1.175547
1.621431
-0.540616
0.932874
0.136875
-1.132340
0.682934
-0.009161
0.491636
1.366323
-1.101756
1.461773
-1.202842
-1.620934
-0.185948
0.512058
1.920910
1.594113
-0.579133
-0.342304
0.024916
-0.325016
-0.166252
-0.166759
-0.796591
0.979018
0.363790
1.510741
0.884501
-0.344721
-0.564604
1.317204
1.849247
1.050669
0.238414
0.585424
0.939004
1.954083
1.593315
-0.435847
0.532846
2.016499
1.310216
-0.101830
0.207837
0.868874
0.241678
-0.360126
0.094739
0.555050
-1.281651
-1.245556
0.634294
1.993777
-0.352145
0.376243
0.465443
0.671717
0.233083
-2.115422
-0.480172
-0.365420
0.132478
0.530550
-0.407766
-1.049384
-1.129773
-0.423656
-1.326833
0.345398
-1.574552
0.900228
1.203656
-0.836024
-1.377025
-0.683883
-1.769756
-2.236037
0.036345
-0.581559
-2.536168
-0.543826
-0.240985
1.894338
-0.058778
-0.723277
-0.904453
-0.512524
-0.927722
-0.902801
-0.705910
-0.603848
-0.109490
-0.524626
-0.609358
-1.074674
0.323845
-0.522542
0.931500
-2.594729
-0.139204
-0.315520
-1.852958
-0.986348
-1.559994
-0.722422
2.489278
2.123260
-0.356957
2.286996
0.272719
2.434042
0.928185
1.287904
2.196459
-0.386516
1.697258
0.774895
0.914972
1.333486
0.536622
0.773841
1.628621
0.327234
2.173764
0.832679
0.174499
1.007879
-2.136159
-0.488935
-0.084736
-2.455036
-0.307577
0.139028
-0.106136
-0.642362
-1.183887
-0.333646
-0.213176
1.148469
2.124116
-0.033790
0.539303
1.255556
0.494713
-0.871014
1.511557
0.150964
1.375232
-0.145187
-0.096211
0.378530
-0.748883
0.540608
0.787812
0.334321
2.429708
0.131487
1.077005
1.580194
2.363391
-0.116374
2.469330
0.840359
0.704578
0.637514
3.212179
0.468284
1.383462
2.067817
0.992818
1.104358
-0.284024
-0.196783
0.061109
0.473424
-0.213924
0.676606
-0.879757
-1.913606
2.448775
1.157405
-1.838812
0.145527
0.529815
0.384650
0.005303
0.817527
-0.744121
0.906460
0.249828
0.271508
-0.552288
-0.575777
0.312103
-0.183494
0.012638
-0.375035
1.117665
-0.893216
1.140684
-0.165588
-1.764360
0.705084
0.576446
1.627155
0.106512
-2.258099
0.090494
-0.064932
-0.767001
1.096592
-0.657534
-1.049939
0.591412
0.465590
2.628498
-0.116489
0.866285
0.782848
2.104428
-0.593542
0.349978
-1.646436
-0.203526
-1.141003
-1.949574
0.086232
-0.785921
-1.087341
0.163856
-0.446235
0.233638
0.167334
1.447507
1.517200
1.991724
2.219642
0.743857
2.780703
1.457631
1.560908
0.778665
1.279903
1.190817
-1.581199
2.006696
1.664124
-0.399468
2.286291
-0.581218
0.661180
0.329442
-0.230853
2.163936
-0.486298
-1.643436
-0.229380
0.098602
-0.199592
1.210305
2.132120
1.077494
1.334668
0.895033
1.067824
-0.635766
1.094209
1.335353
-0.129602
1.628648
1.926694
-0.090507
1.384482
0.354159
0.087420
1.030808
1.524112
0.566503
-0.633847
0.542553
0.846743
-2.108485
0.499712
-0.789479
2.221147
0.902248
2.776805
0.407010
0.032133
-0.551568
-0.641745
1.857739
1.270855
0.357784
1.069809
1.423269
1.219683
1.689907
0.500762
0.716747
0.572047
0.444395
2.278334
0.767300
-0.851213
0.520846
1.020402
1.189152
1.374003
-0.611358
-2.256027
-1.303067
-0.181807
2.387099
1.749912
0.139118
0.041124
0.672081
1.168351
-0.222297
0.587905
1.381297
0.549426
0.477259
0.166019
-0.138066
0.836545
-0.458815
-0.865209
1.058818
0.647385
0.958251
-0.115836
-0.898293
-0.152545
0.353767
0.673008
-0.188889
0.893960
0.805917
1.242613
0.739542
-0.826724
-0.165511
-0.488677
-1.354288
0.008401
-2.312487
0.796369
0.498762
0.236390
-1.311430
-0.871804
-0.420516
-2.143274
0.022139
-0.975968
-0.376678
-1.070860
-0.687538
1.661874
2.358629
2.500979
1.627408
1.389842
0.797810
1.737583
0.868642
2.158889
1.510992
0.994267
1.166431
1.378843
0.424988
1.445876
1.561718
1.906468
1.038438
0.858558
2.637658
0.449434
0.188031
0.221545
0.036875
-0.675114
-0.269577
0.069892
0.766875
-0.606392
-0.052213
1.654536
0.277738
2.145047
0.576530
0.482418
0.972424
-0.443480
-0.415155
0.220999
0.041589
1.985730
0.768538
-1.560472
0.380820
-0.751214
0.305209
2.238580
1.201093
0.004287
-0.532432
1.418914
0.477168
2.295710
0.369717
0.549553
0.538508
-0.115965
0.024430
1.578838
-0.583859
-0.082631
1.693622
1.938950
-0.765581
0.479728
0.737313
0.940609
1.619772
-0.550603
-1.241355
-0.976252
0.787096
-1.049443
-1.293158
1.855592
0.344610
-0.882554
2.570654
1.454759
0.695124
1.767916
-1.446236
-0.595290
-0.108378
0.973813
-1.133661
-1.152838
0.936845
-0.727726
-0.013521
-0.043082
-0.565702
-0.746453
-0.115434
-1.453308
-1.204293
1.455965
-0.991234
0.124543
-0.990373
-0.064958
-0.104262
-0.423774
-0.583352
1.185672
1.609676
1.380974
1.177560
1.579921
-1.409920
0.294444
-1.207882
-1.510836
-0.188391
-1.344386
-1.254197
0.303611
1.273202
0.994647
-0.626054
0.688786
0.183223
-1.774326
1.884566
1.228992
-0.973238
0.963133
0.661931
1.162017
2.738033
2.088911
1.433881
1.792011
1.501130
1.053947
1.270779
0.369951
2.263781
3.266626
1.005095
1.814083
0.897728
2.530936
0.318888
1.331982
2.150983
0.796752
2.516936
2.023637
0.502809
1.238226
0.359871
0.295612
-0.709273
1.451231
1.252776
0.706004
-0.411058
-1.307394
1.115284
0.547070
0.209360
1.389231
-0.457121
1.102732
1.014930
-0.133601
1.239661
1.471327
0.658170
-0.494109
0.958548
0.215632
-0.724543
1.777540
1.004959
0.854697
0.412540
1.706513
1.608843
1.370000
3.705454
1.208564
0.839532
1.838177
1.089799
-1.465751
1.384501
1.336503
0.018768
-0.468190
1.051437
1.664995
-0.833722
0.980337
1.284385
0.055721
-0.638011
1.864271
-0.636502
0.952082
-0.421784
-0.051923
1.134723
0.116370
1.196606
0.234928
1.855815
-0.305226
2.238527
2.436512
1.798528
0.632418
0.262111
1.889173
1.838287
-0.385110
-0.324351
1.302998
-0.432218
0.952684
0.075061
0.133494
-0.875553
-0.389186
-0.870518
-0.945218
-0.416592
-1.396888
-0.107082
0.571592
-1.839108
-0.150572
0.640867
0.103808
1.093341
-0.434181
0.061022
0.213894
-0.597178
0.210821
-1.906189
-1.827637
0.803725
-0.766750
1.099575
-0.642273
-1.565659
-1.787857
-2.213978
0.716588
-1.554749
-0.864891
-0.068297
-0.345718
1.262255
-0.166046
0.894280
-1.244206
1.307134
2.602019
1.024622
0.299391
0.007533
2.298055
5.203937
1.654410
2.000785
-0.755402
1.284184
-0.933513
1.958454
1.723433
-0.598635
0.232421
1.174539
-0.697406
-0.010531
2.152005
0.343419
-1.056540
1.238751
-0.665205
1.072181
1.908821
-0.993787
-0.608599
0.113989
1.734948
2.098927
0.885774
-0.536930
0.658806
0.234964
0.867448
2.128200
0.819891
0.774638
-0.521302
0.700863
-0.578289
1.281662
2.233356
0.728782
2.628990
0.887702
-0.192683
0.428713
2.319137
1.600180
1.905700
1.024815
0.937564
2.389540
-0.346635
-0.067964
1.764627
-1.309725
0.752944
-0.335638
0.681672
1.125088
0.499258
-0.500582
2.258310
-0.413349
0.679745
-0.483830
0.193762
-0.362784
0.342699
-1.680835
-0.656374
0.229754
1.244261
0.266763
1.003041
-0.381366
0.025582
0.253786
0.320433
0.127159
1.134211
-0.861670
0.401638
-1.101556
-1.530908
-0.191600
-0.757864
-0.742954
0.779761
-1.179972
-0.526387
-1.645148
-0.589248
-0.741136
-2.170542
-0.812596
0.378817
0.484368
-1.390059
0.259344
-0.977842
0.967552
1.213679
-1.791409
-0.747414
0.293078
0.318272
-0.768810
-2.555651
-1.765015
-2.149720
1.353862
-0.238938
0.475759
0.121275
-1.094715
0.480560
-0.478884
0.065295
-0.270089
0.269381
2.013630
1.488357
2.279466
0.885999
3.056596
0.676685
0.262604
1.061475
0.427271
2.510549
1.929572
0.333094
1.609001
1.731221
1.083568
0.149865
-1.240728
0.674908
0.716777
1.240998
0.861182
0.937590
0.480402
1.931685
-0.010277
1.105106
0.590427
2.176438
1.232090
0.161680
1.202643
0.050922
2.053546
0.878910
1.083202
2.273338
0.284436
0.734094
-0.253535
-0.846426
-0.931804
1.197696
1.525051
-0.137616
1.497955
0.104594
0.877692
0.358355
1.308077
-1.377728
1.517726
-1.513495
1.327659
0.036613
2.337829
2.530971
-0.060169
1.108428
0.774020
-0.279983
2.119794
-0.549047
0.948993
-0.066442
0.994903
1.761291
0.362662
-0.015436
-0.632698
1.428306
0.897417
1.340370
0.034465
0.060958
-0.402011
0.792686
-0.855179
-0.302911
2.137250
-1.243270
0.117291
2.560878
0.630131
-0.502034
0.736572
1.190722
0.764978
-1.143446
-0.266916
0.206556
1.353239
-0.198957
0.626913
-0.283910
-1.204358
1.018364
-0.559483
-0.617376
1.864794
0.646429
2.152867
0.531912
-0.985892
-0.072174
-0.425650
-1.451200
1.781506
0.314976
-1.065113
0.110270
2.065016
0.825778
-0.157157
1.336590
-0.201177
-0.359107
0.369005
0.467695
0.548807
-1.518953
-1.904420
-0.240858
-0.635228
-0.928250
1.265129
-0.365165
1.871900
0.922035
1.365297
1.331209
1.368748
-0.421375
1.952777
1.445091
-0.377182
-0.624291
1.453287
0.450678
2.266180
1.448036
2.320893
-0.156989
1.438180
2.866306
1.913047
-0.758597
-0.441484
0.193729
0.383314
0.159772
0.126298
-1.698271
0.727168
2.242243
0.046013
1.527200
-0.903832
-0.702817
1.530769
1.023018
0.648002
1.124425
-1.117421
0.585143
-1.014170
-2.555794
0.719825
0.998701
-0.227419
-0.054563
-0.256708
1.157226
0.835968
1.505795
-0.243765
0.867741
1.850813
1.092307
-0.379619
-0.448613
1.579523
1.776612
2.092401
-1.932101
2.683576
0.584641
0.297827
1.513077
1.141196
0.614015
2.403183
-0.084402
2.425939
1.368040
2.589934
2.715483
0.236345
2.951932
0.732184
1.796364
-0.314647
0.478410
-0.736093
-0.154240
3.059539
-0.903488
-0.211767
0.008770
2.266594
-0.123918
1.631429
0.142349
-0.050953
0.366054
-0.255992
-0.147074
0.056550
0.327514
0.821754
-0.357064
-1.011374
-0.651544
-0.124146
0.034066
-0.036615
-1.201801
0.687705
-0.034966
0.445128
-0.945431
0.121338
-1.345447
-0.379357
-0.426997
-0.971349
0.684951
0.209296
-1.351081
-0.278026
-0.587219
0.185881
0.411266
-1.252147
-1.972603
-1.470442
-1.597777
-2.089131
-1.280609
1.495536
-0.587486
0.527591
0.529289
-2.686304
-0.517943
0.830542
2.249734
1.538912
0.889612
3.041522
0.436146
1.418638
1.290250
0.931823
1.191158
1.906517
1.198336
1.670710
0.445848
0.417629
1.366560
0.781077
0.157833
0.292135
-1.053630
1.228439
-0.951382
-0.378463
1.335224
1.547165
0.543067
0.458879
1.349044
0.778806
0.589989
1.636859
0.465265
0.839505
1.556638
2.495597
-0.211109
0.073264
0.486421
-0.171530
1.076009
0.244032
1.050531
2.503418
1.020463
1.376252
3.092036
0.343175
2.005186
0.653741
0.397158
1.280072
0.287127
1.793853
0.239606
0.736146
1.634041
2.487145
0.445737
0.706323
2.494151
0.263511
0.409259
-0.292554
1.176408
1.876652
-0.156177
3.029983
2.621872
2.295667
0.744828
0.658688
0.757409
1.610960
0.476544
2.445003
1.242038
1.430448
2.148713
-0.360074
1.489517
-0.262928
0.884344
1.717258
0.287048
2.169173
-0.378300
1.204054
-0.095894
-1.447734
-0.013584
0.237951
0.412244
0.947656
-0.041373
0.978875
1.518123
-0.197614
-0.573269
0.427370
1.370138
0.903758
-3.116740
-1.716353
-0.427634
-0.672980
0.299926
-1.702622
-1.331413
0.459399
-2.013475
0.095034
-2.122431
0.310062
-2.654149
1.621702
-1.089622
-0.155386
-2.624279
-0.209617
-0.967510
-0.473465
1.823593
-0.911775
-0.083405
0.683070
1.149819
0.839339
0.011320
0.314390
1.043620
1.564657
1.713759
1.333259
1.813465
2.805130
1.555344
0.230498
1.333389
1.119442
4.383622
1.644001
1.317696
0.795924
3.101806
0.116529
1.582529
1.437992
0.414247
1.244593
0.823380
0.998550
-0.541077
-0.567981
0.495883
0.089796
-0.430541
-0.323021
1.264845
1.334926
-0.292831
1.057872
1.293203
0.522078
0.728360
-1.421935
0.251060
0.720161
-0.642640
0.741948
1.336295
1.230221
0.240257
-0.407233
0.634180
-1.118457
1.285395
0.095773
2.154159
1.862545
0.495886
3.807313
2.305871
2.419895
0.593876
1.458860
2.418440
1.197613
-0.569653
-0.148374
0.180165
0.471158
1.023970
0.908159
1.898861
0.175262
1.281661
-1.237745
0.601237
1.136720
2.045503
1.397490
0.622054
1.961346
1.392134
0.668383
0.948847
0.517882
0.622973
0.034345
0.641665
1.354471
0.245515
-0.316280
3.017653
-2.330609
0.654564
-0.888612
-1.020360
1.254209
0.492105
0.421355
0.450364
-0.094301
-1.280318
0.499134
-0.447982
1.177196
-0.508162
-1.152093
-0.105558
-1.660453
-0.048760
-2.040079
-0.748570
-2.468530
-1.126259
-1.985992
0.735622
-0.847103
0.453796
-0.332539
-1.018191
-3.385975
-0.715846
0.087982
-0.707588
-1.267198
-2.412669
0.479799
-2.182866
-1.662095
-0.928729
-0.656932
-0.255462
-1.272987
0.993176
0.089587
1.509200
1.087312
1.785693
0.091274
2.138497
-0.731163
2.277165
0.535272
1.359856
0.463324
-0.476714
1.762852
1.666652
2.364999
2.355429
0.914262
2.285024
1.125378
2.009313
2.094003
0.781337
0.309868
-0.700185
1.862145
0.056875
0.968050
-1.626208
-0.542646
-1.026147
-0.779906
1.686183
0.717077
-0.695789
1.052014
1.829475
-0.247710
0.486822
0.888460
1.569048
-0.489740
0.809645
-1.508519
0.676446
0.138404
1.775834
0.989256
0.732595
1.809538
1.392365
1.697072
1.931141
0.282851
0.445242
-0.678390
0.692013
1.163887
0.067389
-0.486131
0.802695
0.647791
0.716231
1.067307
-0.262196
1.229271
-2.114550
0.741395
1.834969
0.182979
1.057994
1.309138
1.330299
2.324117
0.967037
1.097032
0.323333
-1.372072
0.897328
-0.970230
1.013652
1.435473
-0.535093
1.700624
0.078322
1.282556
0.240686
0.834080
-0.383877
0.189471
0.600501
-0.470082
0.965659
0.743245
-1.100200
-1.016065
-0.485945
-0.958287
-3.334360
-0.528412
-0.980131
0.119116
-1.102067
-1.170365
-0.217020
-1.076491
0.101565
-0.290325
-1.587609
0.392913
-2.028370
-0.092515
-2.094377
0.963755
0.432753
-2.201184
-0.910236
-2.659480
-1.380214
0.386432
-0.240496
-1.312191
-3.159662
-1.556810
-0.850429
-0.779622
0.266513
1.883646
-2.705970
1.209637
3.030298
0.948905
-0.079796
1.390788
0.710542
2.128213
1.418429
1.896361
0.579837
0.774533
0.728276
0.818221
1.627599
1.358646
-0.360899
1.456870
1.975851
0.522514
-1.516759
0.779754
0.637932
-0.437469
0.798426
0.490724
0.908734
-1.523377
1.523008
-1.164245
0.315126
-0.567899
-0.264234
0.391911
0.184219
-0.170156
2.227837
-0.570699
0.394898
-1.458533
-0.679870
1.376657
0.122855
1.626942
2.223735
0.129902
1.441944
3.686867
0.251058
1.693077
2.062394
0.505667
0.594055
2.720293
2.329203
1.413168
2.083233
1.102243
0.168941
0.783732
1.779323
1.176897
-0.033851
0.458112
0.066924
0.049319
0.818690
-0.731655
-1.215583
-0.181658
0.951927
1.222987
1.397808
1.814884
2.293122
1.161396
2.852016
1.027982
0.209600
1.167362
-1.194706
-0.160999
-0.326310
1.096655
1.486418
1.291321
0.261383
0.050324
1.534712
-0.498555
-2.137759
-0.675303
0.163124
-0.733216
-0.350927
-1.965677
1.010605
0.035609
-1.462289
0.702723
0.138834
-0.207683
0.918152
-0.088307
2.119065
-1.331207
-0.739478
-1.197785
-1.050715
-1.374901
-1.378948
-1.139355
-1.465542
0.963473
-0.282911
-1.621997
-0.747455
-1.415496
-1.017722
-0.879146
0.554605
-1.482764
-1.016448
-0.364241
-0.884759
-1.367793
-1.940906
1.431468
-1.802264
1.636761
3.305182
0.759583
0.283989
0.568295
2.421031
1.017082
2.244382
0.970831
1.483661
2.166039
1.057916
1.062674
1.226712
1.821555
-0.978309
0.494395
1.263644
-0.970797
1.348606
-0.281012
0.357268
0.721240
0.508262
-1.842761
-2.047821
0.198224
1.399363
0.128810
0.306886
0.992412
2.787115
-2.165509
0.859210
-1.136453
1.931769
0.815128
0.720141
0.686316
0.661785
1.140214
2.171303
0.864497
0.793810
1.832903
-1.302199
1.737306
0.547208
0.098319
0.868383
-0.080994
1.744239
0.302035
0.692987
1.370962
3.930206
1.552447
2.686750
-1.311850
2.119059
-0.187659
1.861622
0.759253
-1.597005
1.373137
1.953850
0.096502
1.220689
1.235143
-0.021734
1.447543
1.345302
1.410562
1.234137
0.825142
0.566614
1.539116
0.234697
-0.628763
1.245667
1.139013
2.431389
1.712472
0.430081
0.200687
-0.159854
-0.478990
0.889318
1.601486
2.212591
-0.110191
-0.558802
-1.073563
0.697829
0.784365
-0.301515
-0.286087
0.188361
0.467558
-0.108343
-0.685656
-1.813899
0.463352
-0.693184
0.587409
-0.522456
-1.487796
0.010415
-0.597796
0.215870
-1.880100
0.399290
-1.205698
-1.287695
-2.151326
-1.297891
-0.501476
-1.633259
-0.324692
3.213605
-1.650935
-0.666869
0.780206
-0.038228
0.943885
-2.123744
-0.622578
-1.639730
1.931520
-0.050196
0.947567
-0.920507
-0.706450
1.390353
0.775439
0.290949
0.083750
1.006047
0.774628
3.057130
1.583420
1.121419
1.752509
1.361097
-1.738361
1.145189
1.378966
0.531411
-1.843442
-0.920904
-0.480021
0.064202
1.782745
0.568553
0.336549
-0.927136
-0.579420
1.391691
-0.135317
-0.549970
0.419601
-0.303084
1.981994
1.766909
-0.975395
0.247721
1.892101
-0.680881
-0.935247
1.852419
2.289909
-0.146158
0.766110
-0.507483
0.688249
-0.015410
1.211053
1.830708
0.592325
0.189036
-1.386637
0.872833
-0.843330
0.153355
-0.394114
0.461665
2.170727
-0.571463
0.747490
0.548587
1.487550
0.805847
1.189705
-0.390027
-0.692924
0.505532
1.354577
-0.359641
-0.350184
-0.463821
0.652836
-0.404792
0.997245
1.151574
0.342762
0.026977
0.748238
1.948705
2.791223
1.252604
2.296532
-0.040903
-1.072775
1.090746
0.301811
0.086459
0.029731
0.039436
0.802752
0.581793
-0.467911
1.240282
-0.168198
0.931370
-0.297914
-1.788321
-1.283771
0.116219
-0.971413
0.249779
0.660949
-1.690920
1.779521
0.291524
0.149558
0.416184
0.133441
0.990285
-0.983357
-0.804137
0.458207
0.101317
-2.170944
0.009243
-0.176365
-0.991056
-0.381252
-0.846729
-0.427809
-1.735781
-0.572344
-2.497430
-0.018000
-2.668071
1.056313
-0.416122
-1.184561
0.278091
1.827685
0.964525
2.058537
1.676840
0.374194
0.024053
0.514934
2.775668
-0.008829
1.731084
0.160152
1.811883
0.097709
0.335244
3.143680
-1.415385
3.239989
1.571082
-1.386926
1.854011
1.843256
1.619340
-0.142211
0.958674
-0.059389
0.463875
0.364560
-0.122121
1.334454
-1.916073
1.153183
-0.408588
2.405824
2.542417
0.900772
2.271463
-1.811865
0.651953
-0.298818
-0.140306
-0.148576
0.794978
1.269080
-2.120275
1.388676
0.994527
0.116717
0.334968
1.698664
0.057667
0.599384
1.148367
1.670874
2.594470
0.342864
2.502800
0.826838
1.597551
0.066868
1.106186
1.192546
-0.353026
-0.521988
-0.147307
0.241568
0.773236
0.509948
1.741185
-0.327237
1.745289
1.230280
-0.586589
0.691480
0.813045
0.971131
1.313151
2.917546
1.044841
-0.121650
1.112033
1.302494
-0.408151
-0.277404
-1.801879
0.171572
1.236343
-0.706525
1.098111
-0.658793
-0.527303
-1.321879
-0.019696
0.706235
1.298444
1.361950
-0.000371
-0.399873
1.132839
1.443273
1.154402
1.283540
2.619157
0.412489
-0.902073
-0.189785
-0.696035
-0.661853
0.537859
0.030418
-0.982048
-0.460895
-0.260225
0.610179
-0.933134
-0.673182
-0.252597
0.769861
0.059600
-1.952376
-0.350929
-0.913499
-0.433146
0.460350
1.173246
-1.311453
-0.252738
0.920546
1.413167
-0.114048
0.045811
-0.201653
0.745583
0.842182
1.728771
2.240646
0.477306
1.085259
0.325305
0.871646
1.048044
0.206434
0.215590
-0.199783
0.548451
0.532768
0.774592
0.198723
-0.169884
1.126281
0.417140
1.237675
-0.717905
1.320492
-1.435563
0.444813
-0.118177
0.051703
-0.221180
1.019331
0.809892
0.081606
0.117387
-0.145244
0.885353
-0.265687
1.789971
0.587989
0.764701
1.045437
0.194533
-0.537525
1.668458
-0.864220
0.596886
1.695781
0.852385
1.290249
1.017151
0.776543
1.465361
-1.526836
-0.272095
1.126148
0.165830
1.954059
0.537564
0.822958
-0.216763
1.679073
0.511057
0.793802
0.011061
2.303720
0.306182
0.224792
2.242307
-1.051365
0.460448
0.485296
-0.038381
0.287123
0.580212
1.594613
1.476718
2.460298
1.951023
2.436749
0.761530
-0.820895
-1.111046
0.735975
0.527288
0.620591
-1.155894
0.857639
-0.270394
-0.229194
1.974843
0.814274
0.060821
-2.205536
-1.572484
-0.301745
0.454534
-1.502761
-1.268366
1.015822
0.186876
-2.772582
-0.508552
1.423283
-2.645236
-0.555914
-0.553941
0.052158
-2.384229
0.421684
-0.969279
2.037305
-0.271617
0.151060
-0.364578
-1.587648
-1.806634
-0.277655
-0.679814
-1.357875
-2.409897
-0.616685
-0.741251
-0.438012
-0.433905
1.557772
-1.220257
1.790996
0.514618
1.958030
1.149598
0.327580
0.147765
1.305946
-0.435688
0.930653
1.292200
0.835293
2.025874
1.764213
0.442704
-0.046741
-0.610405
1.637815
1.196058
-2.383979
-0.362980
0.979169
-0.715192
0.277767
0.386349
0.273705
0.299613
-1.686715
-0.230424
0.322386
1.688473
0.529015
0.426834
0.359780
2.275952
0.250146
0.191474
0.926895
0.282698
0.190640
0.783093
0.784885
-0.295857
-0.853064
1.310975
0.714165
0.500544
0.034466
0.566254
1.734656
0.086711
0.988174
0.532262
-1.422136
-0.189566
0.673054
1.667442
0.197381
-0.229779
-0.484724
1.521337
1.486944
-0.315507
0.268625
1.240248
0.662502
1.721160
0.407183
0.733617
0.118802
1.173564
0.034272
1.860205
-0.517378
0.629123
1.040915
1.590245
0.502637
1.949253
1.107190
0.337848
-0.183050
-0.719976
1.988537
1.084355
1.066897
0.745341
-1.769824
-0.731437
-0.706663
0.866370
0.577650
2.039868
-2.091282
-1.482018
1.736255
0.426436
-0.344103
-0.542979
1.522596
-0.227578
0.139152
0.511231
-0.065231
-0.996896
-0.468723
1.074678
0.645686
0.227068
-0.881336
-0.148206
-1.689762
0.371777
0.915018
-1.261712
-0.215404
2.356863
0.702197
-0.465169
-1.397516
-1.626698
-1.228462
-0.075243
-1.243124
-0.489223
-1.892010
0.234304
0.385845
1.119449
-0.536768
-0.341029
2.070161
0.716959
-1.202635
-0.417131
1.394593
-0.162347
-0.199153
-1.158438
0.138509
0.075323
1.866933
0.373050
-0.631199
-1.237023
-0.074916
-0.139383
-0.576061
2.038028
1.334777
0.745661
-0.498242
0.158174
-0.582345
-0.625329
1.374267
-0.078348
-1.663332
0.153408
1.406741
0.605085
1.155473
0.801715
1.821340
2.556426
0.371150
1.853763
1.710682
1.981602
1.921118
0.200356
0.568719
-2.093407
0.465053
0.303700
-0.028631
0.703401
-2.006597
0.339348
-0.152373
0.440095
1.461673
1.860283
1.699453
1.078149
0.187487
1.903544
0.170992
2.576314
0.627076
0.805860
0.405973
0.459975
0.028533
-0.141006
-0.733531
1.088011
2.356446
2.802934
0.299758
-0.134259
2.497503
0.180339
0.462510
-0.553467
2.065545
1.059116
3.196176
0.383554
-0.397513
0.504093
1.580033
-0.261298
2.726632
-0.250418
-0.257815
-0.497688
1.264590
1.786004
-0.828260
-0.780720
-0.012527
-0.332853
0.075470
-0.145363
-0.198685
0.868879
2.796647
0.111248
-1.295303
1.595271
-2.541739
-0.380300
0.683898
-0.802304
0.241832
-0.628568
-0.626618
-1.285137
-0.973387
-0.263393
1.284192
-0.546565
0.405286
-0.085503
-0.169772
-2.647379
0.063930
-1.414362
0.362411
-0.256927
0.525802
0.352008
0.844832
-1.005902
-0.486221
-1.714386
1.008572
0.215826
-0.297219
1.224920
-0.666458
0.679413
0.782716
0.555408
1.236573
0.438410
0.536221
0.343375
0.811086
-0.736801
1.744688
1.197656
-0.471804
1.038095
-1.768773
-0.723380
-0.409425
0.067121
1.540371
0.133405
0.007336
-0.858863
0.315116
-1.040193
-0.918939
1.665829
0.811440
0.578441
2.343506
1.517822
1.274276
-0.859277
-0.405546
-0.533721
-0.709317
0.910216
0.056559
-0.546682
-1.627623
-0.760883
1.849997
1.740055
-0.776990
-1.091492
-2.337666
0.216204
-1.433422
-0.787115
-0.416957
2.421180
0.647232
1.867806
0.309447
-0.408008
-0.085123
0.930418
-1.368432
1.122980
0.734180
0.852066
-0.643752
0.413045
0.711437
2.142702
1.174147
0.389214
0.115166
-1.347099
2.420493
2.184005
2.252208
0.231570
0.002954
1.673087
1.407762
1.870951
1.668555
-0.334589
1.121894
0.155995
2.340695
2.333619
0.529109
0.860616
0.520274
0.471071
-0.941368
-0.348561
1.250320
-1.046372
0.399466
1.064109
1.235770
2.066975
-0.831273
0.198662
-0.657375
-1.868276
-0.729361
-0.677911
1.377311
-0.697167
-1.127478
-0.393581
-0.137497
-0.385477
0.963412
-1.550972
0.348062
-0.459394
-1.712753
-1.334286
1.141359
0.677402
-0.296676
-0.400891
-2.046672
0.261019
-0.843006
0.198615
1.379963
-0.335323
-0.079541
3.361748
2.270674
1.860163
0.356984
-0.850584
1.677704
0.591279
1.172966
-0.663114
1.686131
1.287785
0.938659
0.025694
1.201505
-0.336205
-0.975731
0.757660
1.390231
-0.796232
-0.084518
-1.204443
0.165864
1.214653
-0.842960
0.885167
-0.346347
1.988969
0.183756
1.142662
0.267581
-0.666751
1.029548
0.139734
0.711299
0.372675
-0.239025
-0.993425
1.344240
-0.430904
-0.024262
-1.576206
0.120259
0.658014
0.487074
0.700837
-0.052625
0.457964
-0.267646
0.784030
0.154171
-0.571561
1.023066
-0.162698
0.949458
0.781046
1.749214
2.192053
0.021428
1.219449
1.918157
-0.105757
1.083522
0.518509
-2.242508
1.201956
0.153136
1.346895
2.841091
2.597559
-0.855731
0.110068
0.016115
-0.374669
-0.791695
2.976743
0.138284
-0.740606
0.847210
1.265461
1.622224
2.045823
0.971422
0.447594
0.926401
0.228426
1.438910
-0.594726
0.089338
-1.125014
-1.393985
0.935865
1.037600
1.112216
1.052391
-2.844007
0.676753
-2.607234
1.559354
0.008413
1.601539
0.797153
-0.674590
-1.857779
1.437420
0.618867
-1.063791
0.155470
0.984112
-1.703359
-1.608658
1.187437
0.540603
-1.654019
-0.530236
-1.135470
-1.504409
-0.068541
0.460120
-1.856173
1.093400
-1.335676
-0.855929
0.357163
-1.001144
0.015882
0.351273
0.535992
3.966671
-0.114769
1.704742
2.555861
2.001626
1.214305
0.561555
1.084671
0.938482
0.599455
-0.537026
0.898255
0.407449
-0.144254
1.168647
0.024853
-1.299542
0.466570
-0.671014
-1.385771
-0.029695
0.012102
-0.179312
-0.994104
0.417756
-0.194566
1.016136
-0.075835
-0.847135
0.527250
-0.418980
0.841793
-1.189473
0.939450
0.398200
-0.203241
0.367751
1.322383
0.224778
0.364113
1.187589
-0.514177
1.150609
1.505053
-1.726546
-1.231156
2.049038
-1.906103
0.721274
1.342480
1.506171
0.428305
-0.271306
0.992297
-0.211624
-0.993746
3.032358
1.455971
0.741067
-0.686324
0.755441
-0.022117
0.985559
2.333743
-0.542632
2.070448
2.084105
3.265665
-0.011653
-0.991965
-0.584525
0.286254
0.468832
0.091886
-0.142523
-0.164227
1.119603
0.163711
1.066678
2.619286
0.895242
0.800141
0.059213
0.109197
-0.571535
0.201900
0.854074
0.691570
-0.134007
-1.937883
-0.476363
0.943320
1.119930
-0.118828
0.244967
-1.226687
1.854231
-0.265970
0.330455
-0.198226
-0.174053
2.134888
-0.519242
-0.926494
1.540769
-0.664513
1.173857
0.546228
-1.536589
-0.561055
-0.354987
0.548576
-1.674083
-2.785778
0.008707
-0.888769
0.194513
-0.682904
-0.151138
-0.198998
0.940421
0.224135
-0.508205
1.804506
2.638880
-0.239190
0.010056
1.148566
0.716991
-0.373834
0.240311
0.299802
1.339255
0.689951
0.666453
0.366065
0.790692
0.164603
0.169220
0.305163
-0.765831
-0.171762
0.114728
0.053512
-0.475856
1.462608
-0.818040
-0.926284
-0.039294
-1.719726
1.867828
-0.969401
-0.920796
0.966899
0.200032
-1.124723
0.120366
-0.489096
1.543699
-0.443721
1.116522
0.324000
0.242737
-0.155384
1.735844
2.428831
-0.133079
1.344340
0.014538
-0.235921
0.382254
-0.982779
-1.893808
1.100110
0.251269
-1.135209
1.161360
0.277985
1.254686
0.999166
1.370362
1.619054
1.372332
2.157016
-0.482698
0.160029
-1.149188
0.403686
0.536743
2.734653
0.462269
1.625105
0.573230
1.575486
-0.378393
1.742866
-0.310773
-0.867391
2.444333
2.771136
0.973294
-0.011778
0.446457
2.802100
-1.643949
0.775103
0.835688
-0.196029
1.399770
-1.608147
-0.174441
0.512154
0.130781
-0.553659
0.318484
-0.105671
-0.613732
2.137160
-0.082315
-0.831059
0.836753
-0.369116
0.597709
0.229497
1.268664
-0.965616
1.551812
-0.617876
-0.082060
1.988102
0.411954
1.366337
0.947978
0.221992
-0.696601
-0.834644
1.403558
1.040768
-2.132304
-1.362697
-0.230530
-2.385324
-0.557920
-1.881557
0.729330
-0.620693
-0.061571
-0.058099
1.268969
2.391872
0.750758
1.615630
-0.017698
0.236095
2.438329
-1.171798
0.620016
1.840801
1.053868
0.625466
4.222668
1.701123
-1.326282
0.454161
1.021640
0.371686
-0.321295
-0.005601
-0.983869
-0.642776
1.540945
-0.795119
-0.469825
1.168934
-0.266540
1.299745
-1.152877
-0.586476
-0.146757
-0.302574
-0.154755
-1.413859
0.369682
1.620185
0.654286
1.746096
-0.212057
-0.109954
0.719243
-1.991647
-0.578805
0.862483
2.244626
0.873731
0.042700
1.415290
-0.937493
0.009786
-0.121530
-1.088835
-0.029343
-0.337016
1.388681
0.610763
-0.739069
-0.939962
0.075188
1.380894
0.011141
-0.585583
1.618109
2.529911
0.222093
0.420313
-0.563413
1.104175
-0.225488
0.465254
0.468916
0.696100
-0.032362
1.441464
0.695035
2.729449
-1.525346
0.752670
-0.374018
0.407284
0.875228
-0.783451
0.530993
1.052703
0.113344
1.467157
-0.215028
-0.710341
-0.169895
-0.644916
0.187231
1.140098
0.206843
0.348810
-0.012643
0.951890
-0.256150
0.713900
-0.396544
1.499061
0.300562
-0.529730
0.060389
0.118592
2.764644
0.571981
1.947391
0.324734
-0.385295
0.545863
0.307107
-0.349058
0.944487
0.920501
1.302696
-0.515753
0.110139
-0.291330
3.337679
1.352227
-0.499541
1.067646
0.848053
-0.748732
1.724719
0.869373
-0.053453
0.637778
0.641903
2.359504
0.854147
-1.144576
-0.363821
2.101463
0.508868
0.807236
0.524991
3.867882
0.481682
0.762026
1.118598
2.568818
0.113396
1.398267
0.706357
0.103201
2.089978
0.166531
1.170156
-0.714935
0.425691
-0.595905
0.640954
-2.100596
3.618366
0.441408
0.916726
1.026149
1.501973
-0.235363
0.554218
-1.057934
1.225997
-1.297626
-0.092807
0.938794
-0.983528
0.588109
-0.404702
0.227382
-0.411255
2.626483
0.752018
-0.700210
0.480794
-0.144303
-2.132062
0.882723
0.277467
-1.564998
0.743457
-1.252432
-0.299609
0.289153
0.031014
-0.552641
0.392994
-1.236272
-0.124038
-1.170330
-0.830249
-0.821143
0.076516
1.617417
-0.798312
1.627398
0.258352
-0.867636
-0.118725
1.441431
-0.004344
1.125612
0.649840
-1.193124
0.940773
1.983056
1.921390
0.685581
1.165848
1.340058
1.289639
2.330859
0.288149
-0.594173
0.615791
-1.382331
-0.973402
1.618981
0.753785
0.549957
0.296287
-0.806106
-0.588029
-2.151391
-0.165548
1.014487
0.838792
-0.404384
-0.354957
0.143385
0.349626
1.894262
0.970279
2.374461
-0.120734
0.929104
-0.615827
0.954723
0.467208
1.489149
-0.973294
-0.059586
-0.341634
-0.113034
1.032437
-1.623619
1.194756
-0.332078
-0.021571
0.011348
1.099079
-0.012268
2.011856
1.055670
0.268021
-1.260897
-0.574920
1.961004
-0.306377
1.416723
0.053392
1.549189
-0.959318
0.820612
0.755912
-0.352239
-0.553312
0.913717
-0.014379
-0.104207
0.472229
-0.909432
0.357885
1.016962
-0.772915
0.270552
-1.980972
0.514246
-0.912413
0.890921
0.076593
0.424398
1.308213
0.754827
1.791231
0.016440
0.186924
2.047431
1.495282
0.129466
-0.250884
-0.428519
1.245868
0.694153
-1.294042
0.365696
0.112133
-0.949261
1.194418
1.343699
-1.096991
-0.409007
-0.096379
-0.663030
0.206857
-0.527567
0.020821
-0.262649
-2.223695
-0.972231
1.191517
0.492375
-0.170490
-1.448410
-0.575898
0.015277
2.020321
0.349117
1.648818
0.556938
1.644932
0.189302
0.936982
-0.476340
-0.789224
1.291777
0.659670
3.474645
-1.062225
1.531369
0.178578
1.678994
-0.437530
-0.532062
-1.167652
0.543440
0.813038
2.594468
-0.451853
1.196362
1.493970
0.487525
-0.358755
-0.123756
0.848083
-0.734805
0.571610
-0.574749
0.150920
-0.429924
-0.516221
-1.252984
0.078068
1.286238
0.546377
1.608780
1.670019
-0.010781
1.906163
-0.729772
-0.420580
-1.406677
1.607098
1.179219
1.512064
0.150208
0.564824
0.129963
0.346678
2.031794
-0.164228
-0.847069
0.139099
-1.158711
0.365060
0.990722
2.505844
0.243258
-1.216936
-1.051812
0.089975
-0.293959
-0.060711
-0.532074
-0.319915
-0.132286
0.301610
1.291425
1.159703
0.823068
1.506744
-0.957014
-0.142558
1.816943
-0.890503
-2.512795
0.270971
0.931734
1.050430
-0.552592
-1.052480
-0.070018
0.966361
0.385597
2.600524
1.685909
0.460421
0.402673
1.484360
1.110848
1.153621
1.495726
3.349853
0.829779
0.004510
0.269515
-0.040317
0.647710
-0.203166
-0.664398
1.234528
0.492304
1.980646
-0.705669
-2.092778
-0.669035
0.615442
-0.873215
-0.166179
1.427158
-1.274263
0.245585
-0.966445
0.840572
-0.635202
0.276539
-0.719376
0.234383
0.615186
0.814335
0.716504
0.370094
-0.758054
0.006710
0.119527
1.047909
-0.712455
1.520171
-1.288621
-0.294059
0.551761
0.430234
0.495636
0.434047
-1.173650
-0.398851
0.591641
0.566082
1.672250
-0.808432
-1.098833
0.615489
-0.572484
-1.366103
-0.310779
0.502824
0.634978
0.438654
-0.445495
0.930208
1.272968
-0.334155
0.386917
-0.421517
0.867521
0.665531
0.075454
-0.122818
-0.971216
1.505935
0.170146
0.431062
-1.318247
1.042107
2.159840
-1.596368
0.281405
0.661784
0.583651
1.521961
-0.393757
1.306338
0.473557
1.481272
0.922424
1.750286
0.394804
0.526877
1.144783
-0.480509
2.151069
1.496573
-0.024049
1.818681
-0.215562
0.500074
1.131173
1.363379
-1.319680
1.507080
0.008979
1.208566
-0.121748
1.229524
0.457171
-0.090020
0.383447
-2.016344
-0.154761
0.271249
0.075550
1.251090
-1.983157
-1.005726
-0.232501
0.770450
-0.213121
-1.322980
1.090727
-0.217513
0.389093
1.200756
0.386842
1.401569
0.051263
-0.093793
-0.156629
-1.166950
1.416724
0.783617
-0.651614
-0.829299
1.287551
-0.111667
0.047434
0.479483
-0.323380
-0.321187
0.504433
-0.931128
-0.488069
-0.131234
-0.918428
0.936028
-0.439036
1.405549
0.647991
0.196785
1.085118
2.264107
-0.256918
0.622250
-0.558051
-1.388907
0.162283
0.022213
1.350580
0.504783
2.469640
1.295166
0.783339
0.167897
-0.390519
-0.471448
0.957423
0.150528
2.803066
-0.125124
0.275523
0.691512
1.554549
0.183065
0.331313
-0.245920
1.126945
-1.236039
0.827768
0.133690
-1.452954
0.912115
-0.083176
-2.689590
0.269144
1.126447
-1.698959
-0.429891
1.091027
-0.403456
1.592383
1.336313
3.738410
1.065930
0.079595
-0.556723
0.546025
2.209449
1.736224
0.418836
0.634500
-0.168730
0.335787
0.210537
-2.106329
1.388217
-0.099677
0.081431
0.029769
0.790013
0.317087
0.126216
0.593256
0.858555
0.638958
1.327118
1.651765
0.913982
1.426948
0.900638
0.530813
0.114036
-0.790423
0.869513
-0.593816
0.233441
-0.590309
-0.435629
-0.482921
0.283586
1.125398
-1.950182
1.460780
0.759812
0.711845
0.222502
1.119755
0.128787
0.380397
-0.294585
1.727540
-0.444990
-1.791234
-0.856903
0.577957
0.785510
-0.088062
-0.897641
-1.293697
1.496731
-0.546389
1.616446
-0.235336
1.492924
0.543258
1.023748
-0.968639
-1.289461
0.856021
1.269542
1.002912
0.420657
0.835894
-0.808683
-1.012861
-0.430893
-0.412294
-0.856837
-0.097180
1.214968
1.628846
-1.230930
-0.808119
-1.063476
0.450039
1.131983
-0.530598
0.901152
-1.541557
-0.939028
0.153400
-0.891385
0.059269
0.385441
1.193244
1.069530
1.294240
2.650532
-1.145537
0.475726
0.552836
0.476773
-1.120640
-0.011043
0.056029
1.235722
0.822573
1.801187
0.810928
-0.351004
2.372837
0.546460
0.172391
1.322195
-0.744543
-0.462478
0.177183
-0.261958
-0.945681
1.632934
-0.233114
0.573274
0.471934
0.970286
1.156641
0.244908
-0.222083
1.441836
0.627399
0.917553
0.192682
-1.139864
-0.389064
-1.434404
-0.563243
-0.813297
-0.286898
-0.395487
0.538050
1.984017
0.193007
0.242480
0.409580
-1.689245
0.650834
-0.139033
-0.367752
1.245843
0.706155
-2.223156
-1.516503
-0.364231
0.556112
1.197492
-2.052833
1.875156
1.729993
-0.041025
0.305167
-1.087125
0.375298
0.458346
-0.950177
-0.102037
0.114721
1.089412
1.940684
-0.120010
0.222057
1.589563
1.942637
1.207106
2.056550
-0.758129
0.773432
-0.525987
-1.597938
1.068879
0.153874
-0.329646
0.913332
-0.334066
0.669459
-0.048113
-0.114872
0.023358
-0.733907
0.746064
-0.157116
1.160360
0.412200
-0.678765
1.538446
-1.231448
0.292329
0.997357
1.057894
-0.501239
0.171843
0.477520
-0.292271
-1.405551
0.851544
0.047609
-0.580019
-0.216345
0.408096
0.823626
0.373533
1.010072
-0.490036
-0.280376
0.328367
0.934397
0.154835
0.638806
0.838777
0.434160
-0.770137
-0.426243
0.935294
-1.518471
-0.500193
-0.602407
0.736025
1.097228
0.608962
1.111098
1.084031
1.647672
0.184144
0.122967
-0.015108
0.669081
0.686265
-0.576330
1.062718
3.424334
-0.064131
1.127853
1.648264
0.366342
0.726884
1.033817
1.405076
0.603200
0.631549
-0.586433
-0.309332
-1.828977
-0.487277
-1.545805
-0.193941
-0.225107
1.270302
0.738589
0.906722
-0.679377
-0.487482
0.943277
0.574442
1.453924
1.299181
-0.405032
-0.093591
0.171930
1.171188
0.636938
1.011921
0.289629
-0.732621
1.060716
0.905162
-0.473797
-0.784598
-0.741659
0.235289
0.717658
-1.213748
0.340331
2.295107
0.924512
2.590252
-0.308878
0.008942
1.242276
-0.998542
-0.020193
1.405062
1.083702
-0.909274
1.120704
2.031965
0.026552
-0.470906
0.113291
-0.276902
-0.387261
0.787283
1.522481
0.711902
2.683368
0.898325
1.963748
1.225177
1.746131
-0.455637
0.084632
-0.969103
-0.441017
0.431381
-0.368268
0.470179
1.656658
0.518697
-0.021924
0.360665
-0.256831
-0.116110
0.337532
1.164508
0.881992
1.985125
-1.312391
0.071165
-1.241185
-0.891809
0.263627
-1.069163
-0.009966
-0.307496
0.047599
1.109791
0.481715
-0.012173
0.661953
1.389436
0.744247
0.804811
-0.714423
1.326621
1.510858
0.321127
0.052184
1.737490
2.082085
-2.323313
0.155336
-0.818911
-0.404498
0.839856
1.203886
-0.258751
-0.656602
2.005748
-0.278441
-0.690435
-0.730090
1.150550
1.294403
0.628496
0.012117
1.375927
-0.295143
0.186314
1.660433
0.071948
1.027846
2.288730
-0.004061
0.081384
0.989864
0.735307
1.647698
-0.602165
-0.613668
-0.640715
-1.292059
-0.954183
0.065626
1.765090
1.761022
0.272121
0.565964
0.023621
-0.488186
1.344482
0.185485
-0.743584
1.005224
1.870757
0.406851
0.702899
-0.878348
0.966051
1.043050
0.239936
0.827050
1.924002
-0.165741
0.700175
-0.958787
-0.638430
1.715550
0.717135
0.908529
3.507740
2.113651
0.302116
0.297902
2.116295
0.683077
1.168235
2.571481
0.051412
-0.991980
1.480787
-0.315037
-1.891997
-0.375103
3.692968
-0.688455
1.033477
1.352154
0.712659
1.703267
1.287947
1.476023
0.492572
-0.637719
-0.254483
0.108574
-0.258106
0.852304
-0.314426
-0.920854
0.929957
0.225409
1.142478
-0.646500
0.637289
0.413933
-0.133875
1.141682
-0.027025
1.344282
1.382400
0.986643
-0.132906
1.604452
0.316033
-1.588690
0.379590
-0.768759
-0.430267
-1.211889
1.081242
1.149213
1.691036
0.561073
-0.594121
0.171511
0.707874
0.287939
-0.384181
0.463825
1.404160
2.792069
-0.509898
-1.141933
-0.039122
0.589537
-0.252746
1.594044
0.418101
0.279532
1.386883
0.334875
-0.936590
1.565775
-0.309986
0.834035
0.770476
-0.274641
-1.266320
1.022183
1.069797
3.974165
2.178519
0.497421
2.498823
1.741044
0.671619
1.549563
0.572073
-1.126780
0.382743
1.556299
-1.486063
-2.219980
0.484798
0.403420
-0.714293
0.457862
-0.974998
0.013144
-0.249604
-0.045887
1.319010
2.119571
1.940583
0.921172
0.349520
1.190680
-1.185700
0.571991
0.579634
1.996338
-0.202871
-1.924574
-1.202744
0.149515
1.235304
1.098960
-0.002505
-0.320898
0.377569
0.907049
-0.140193
-0.692822
1.353422
-1.713155
2.527435
1.980970
1.396461
-0.265290
0.788596
1.690751
2.404883
-0.933392
0.894894
2.562893
0.586859
-1.240891
1.786753
1.998615
0.590006
0.467500
-0.375630
-0.957617
1.700302
0.704994
1.713689
-1.115061
-1.320037
0.620589
0.141194
-0.358305
0.557192
1.274664
0.811609
0.833607
0.998167
0.076375
-0.592337
-0.044919
0.057844
-1.327555
-0.045455
0.908741
1.238583
0.838506
-1.258276
-1.073577
1.000790
0.037160
0.126857
2.349074
1.670745
-0.192620
-1.242498
-0.276368
-2.053111
0.337235
-0.737614
2.203469
0.380556
-2.022581
-0.004831
2.677515
-0.020473
1.149157
0.595104
-0.134037
-0.162538
0.242608
-0.506642
-0.563466
-0.599808
3.131470
0.607974
-1.251181
-0.457996
1.216529
0.644412
-1.162933
0.886187
0.503104
1.190711
1.322430
0.359639
1.414867
0.071686
0.077478
1.487203
0.328656
1.620281
0.771751
2.974366
0.153656
0.775295
1.595643
1.282402
0.062046
1.906053
0.604227
1.271799
-0.786959
0.295416
-0.809999
2.980784
0.480987
0.104107
1.544009
0.092660
-1.586921
1.753484
-0.429066
-2.477669
0.514111
-0.258652
-0.216669
-0.828011
1.922641
-0.526608
-0.431444
-0.636271
-0.621927
-0.400188
-1.300010
-0.233602
-0.633640
-2.091749
0.911605
0.695783
1.640554
-0.650320
1.227126
1.118065
2.564566
0.988386
0.518189
-0.518341
0.879448
2.229327
-0.083580
0.158458
1.920260
0.830440
3.536574
0.182715
0.229544
0.244659
0.910606
0.206511
-0.705163
1.319146
-0.432992
0.522866
-1.070036
-0.768318
0.564930
0.764743
0.227390
0.810208
0.564202
-0.174095
0.266518
-0.559351
0.433559
-2.781374
-2.099630
-0.193375
-0.570094
-1.122443
0.876644
-2.253836
0.307532
-0.256891
-0.580087
-0.261289
0.828579
1.205505
-0.284749
0.615621
0.938226
-0.054703
0.056762
0.342813
0.186793
-0.691840
0.465353
0.648236
0.945509
-0.155806
0.540648
1.185105
-1.213527
1.296515
-1.069651
-0.232355
-0.844260
1.511507
-0.946566
1.016721
0.562886
0.224315
0.780034
-1.341081
0.773498
-0.308552
1.596558
2.328021
1.397378
1.727298
1.422028
0.485096
1.917579
2.036504
0.083369
0.589330
-0.528883
0.161671
3.093093
0.818327
0.976892
-0.069057
1.347087
-0.041694
0.949446
2.659730
1.736033
0.280751
0.355646
1.083437
-0.986179
-0.487723
2.136564
-0.081008
1.579977
0.090615
0.351490
0.466574
2.768425
0.651552
1.116769
0.831302
0.265427
-0.782192
-0.831748
0.773907
1.791141
-0.106136
-1.557310
1.074405
0.375814
0.722838
-0.523156
-0.211322
0.268084
0.470052
1.097054
0.279335
1.532009
1.429349
-0.996731
0.079075
0.771654
0.997623
1.526668
0.091119
0.442088
-0.785582
1.970529
1.512225
1.334570
1.048107
-0.032312
1.000843
-0.593087
-0.191046
-0.174166
1.641866
1.122204
0.118577
1.356462
0.545817
0.652277
1.709882
0.083568
-0.280622
0.174526
0.272325
1.024756
-0.879272
-0.311653
1.033462
-2.094934
-3.144451
-1.767019
-1.984941
0.583377
0.475788
0.007792
-2.432124
0.606867
0.487770
-0.390535
1.104631
1.301335
-0.240810
1.107655
0.950546
0.980558
0.690541
-1.133228
0.926531
0.590779
1.276476
1.112210
-0.567655
-0.293372
-0.160655
1.061386
-1.942177
1.988261
0.682149
0.671504
2.073151
1.906193
1.600739
0.947616
0.947618
2.003717
-1.074576
3.481874
-0.193149
1.539913
2.018708
1.034967
1.743481
-0.962875
1.371420
-1.245021
1.634451
0.267086
1.857292
2.807958
1.814096
0.636006
1.089026
0.659145
0.607795
-0.107744
-0.876031
1.291675
1.318406
2.703123
1.006405
0.075357
-0.642613
0.397057
0.697915
1.556458
-0.503343
-0.079107
1.545455
1.355862
0.451461
1.888965
1.640901
1.556639
0.343163
0.837760
0.127931
-0.774750
0.490446
-0.124158
1.271239
1.267306
1.273117
1.949497
0.384877
-0.162137
-0.365398
-0.445462
-1.990306
1.534025
-0.706366
-0.577661
-2.018290
0.669460
0.990685
1.374870
0.338226
1.119090
1.419357
1.245101
1.155788
-0.380167
0.601649
0.646260
2.171509
2.045275
0.611757
1.104749
-0.882509
-1.265694
0.878422
1.173256
-0.212891
-0.705642
1.047065
-0.099852
0.602715
0.711846
1.271163
-0.022609
-0.877435
1.437994
0.301589
0.835711
-0.957190
-2.558118
1.156310
-1.956790
-1.582447
-4.333295
-1.572325
1.333386
-1.083989
0.192064
-0.636657
-0.098060
-0.328846
-0.537347
0.130481
0.140164
0.129952
0.284782
0.582855
1.844945
-0.794640
1.558390
0.357827
0.077696
0.717223
1.777645
-1.015847
0.241404
1.827332
-0.142938
-1.565337
0.372478
0.747615
0.846183
1.181353
2.028278
1.633579
1.578784
0.806188
-0.769166
1.259681
-0.421681
1.674837
0.399787
2.368814
0.984655
1.334429
1.014895
0.928702
1.530159
1.201414
2.581587
1.882682
1.095200
1.475738
-0.584085
1.982708
0.659894
0.363070
0.226960
-0.560134
0.297133
0.924506
-0.799591
1.989923
2.073498
-0.335828
1.279821
1.675347
0.531538
1.222520
2.904669
1.487308
1.141507
1.354298
0.542229
1.317030
1.711288
0.612427
-1.224918
-0.779099
0.893737
-2.470894
-1.207687
-0.307339
-0.437078
0.386896
0.129369
0.783224
0.150993
-1.747590
-0.108737
-0.594167
1.177649
0.562018
1.821988
-1.112619
1.995045
-0.252025
2.984476
-1.220900
-1.191331
-1.161083
0.940045
0.062881
1.592736
2.735189
0.586581
1.945315
0.921067
1.557934
-0.259519
2.285818
0.731469
0.628051
0.263699
-0.178285
1.377673
1.074471
-1.189974
0.569088
1.789828
1.809190
-0.589159
1.509897
0.460793
0.897088
0.107566
0.901592
0.557784
-2.440260
-2.342929
-2.763642
-4.512717
-0.934255
-0.356580
-0.240392
-2.142533
1.089190
0.365120
0.360960
0.917877
0.192238
-2.259198
-0.057468
0.242567
0.530995
-0.394304
0.713078
0.386330
-1.634034
0.504653
-0.524589
-0.210948
1.308512
-0.125920
0.606770
0.852497
0.761705
0.978694
-0.747197
-0.124912
0.843834
1.380453
-0.492307
3.700098
0.415421
0.219025
-0.789267
-1.906518
-0.339624
1.888767
1.380155
2.726112
-0.425785
0.814669
2.231906
