-4.581506
-3.440665
-1.593023
-4.773889
-4.907355
-4.255428
-4.308207
-6.140358
-3.273929
-2.928563
-5.048185
-4.268471
-4.521973
-5.444948
-4.458052
-5.787230
-5.206017
-4.774775
-3.566359
-4.308251
-5.336330
-5.276942
-5.298516
-5.771915
-4.812366
-4.803426
-3.688500
-5.507660
-4.892479
-3.192285
-3.216379
-4.276099
-4.351024
-4.388258
-2.498652
-2.672807
-2.959413
-2.524124
-1.267713
-1.165940
-1.084493
-2.800964
-1.346015
-1.954447
-0.507502
-1.815074
-0.154522
-1.815188
-1.211253
-1.936602
-0.533352
-0.734344
-1.335523
-0.998887
0.236219
-0.707270
0.127270
1.628386
1.001696
0.337284
0.240237
0.329836
0.419281
-1.857264
-0.775607
-0.946203
1.255364
0.459354
0.053023
1.025658
-0.029751
1.269721
1.442160
-0.544301
1.045092
0.275490
0.259915
-0.692815
1.486396
1.134869
1.563673
-1.617969
-0.677087
-2.354956
-1.767970
-2.053848
-0.616227
-2.221139
-3.405377
-2.944632
-3.806287
-2.372597
-4.199091
-2.980402
-4.445654
-3.840010
-4.868385
-5.106594
-5.398795
-3.794030
-5.375061
-6.618026
-4.208221
-4.175989
-4.403139
-4.619270
-3.367082
-3.234777
-4.586211
-3.121384
-6.697719
-4.390522
-4.746785
-4.881692
-3.985016
-6.180848
-3.383433
-5.102261
-3.946825
-4.630147
-6.337846
-4.753584
-5.023144
-4.206167
-5.096411
-3.918838
-4.627878
-5.112515
-3.502660
-4.212484
-4.133392
-3.689552
-4.442921
-4.653150
-4.730223
-5.086456
-5.128819
-6.728138
-4.725949
-6.213565
-2.471787
-5.626607
-6.131631
-5.333956
-2.993110
-4.911153
-4.151970
-4.604198
-4.158761
-3.623838
-4.377331
-5.112457
-5.236658
-3.735862
-4.865519
-4.194677
-2.215729
-3.935093
-2.042703
-3.974637
-1.644176
-0.450862
-3.368809
-0.004948
-2.206020
-4.590525
-1.525310
0.372353
-2.524962
-1.974225
-0.722182
0.063690
-1.834128
1.026022
-0.920671
0.122322
-1.054978
-0.081306
-0.289056
0.255426
-0.721577
0.615709
0.525272
-0.356852
-0.061049
-0.052176
0.188329
0.870744
-0.302626
0.945679
-1.259638
0.458265
0.527611
1.654034
1.712687
0.558661
0.014547
-0.155972
-1.138426
0.340402
0.710543
-0.224893
1.630121
0.086244
2.670788
0.474624
-0.130570
0.336134
0.002680
0.972242
0.994525
-1.105820
-1.053812
-0.953194
-0.872806
-1.700149
-4.931713
-2.933409
-4.036016
-3.886430
-2.806145
-4.389802
-2.199934
-3.118494
-4.937335
-5.785544
-5.391328
-3.367458
-4.437953
-4.827263
-2.907772
-5.939474
-3.215762
-4.212244
-4.273341
-4.875086
-4.525634
-3.616269
-5.309942
-5.795620
-2.854809
-5.420061
-3.099162
-5.818241
-5.486849
-4.765088
-3.395892
-5.260101
-4.886433
-5.908595
-2.387515
-4.546103
-4.411191
-4.771524
-4.479429
-6.476631
-3.390603
-5.044057
-5.024733
-4.580025
-5.558608
-5.626196
-5.469096
-5.780008
-5.142704
-7.036378
-3.946928
-3.557437
-3.772933
-5.052047
-1.775836
-4.386597
-4.975507
-3.950166
-5.418788
-5.118985
-7.254759
-4.095784
-6.676066
-4.440727
-4.436385
-3.252002
-4.939836
-2.728063
-1.574956
-2.833197
-3.284797
-3.895415
-4.647452
-3.671060
-2.260900
-2.104966
-1.625424
-2.540317
-2.378038
-1.683256
-0.961186
-2.964307
-0.426925
-1.036343
-2.301279
-0.614932
-0.525672
-0.678323
-0.410039
-1.086950
-0.432084
-2.064221
1.269056
-2.121979
-1.475444
-1.639462
-0.566809
0.977526
0.475000
-0.532961
-0.072316
-0.900299
-0.087511
-1.422757
-0.424046
1.285445
-0.503607
0.215013
0.842082
-0.240179
1.873740
-0.978748
0.512544
0.949382
0.335971
0.618353
-0.145468
1.070323
0.974948
0.639492
0.789685
-2.911160
0.511189
0.162372
-1.482107
0.293845
-1.204508
-1.587742
-0.243046
-1.334764
-2.911669
-2.245066
-0.960487
-3.217930
-2.880685
-1.426531
-3.586664
-4.470064
-4.515942
-4.175338
-4.915677
-4.736734
-4.355991
-4.932476
-2.346310
-5.300236
-3.883965
-4.404890
-4.881080
-6.459659
-5.548616
-4.499100
-4.766881
-5.916522
-4.422670
-7.140113
-4.953823
-6.078804
-4.435603
-4.923693
-5.678423
-3.831092
-6.266328
-5.012551
-5.101719
-4.982100
-3.773017
-5.133779
-2.605907
-5.709719
-3.009748
-4.786509
-5.764645
-4.482424
-4.787257
-4.995364
-3.722061
-4.608649
-4.663436
-5.614069
-4.549711
-4.766904
-4.896687
-4.840368
-5.838990
-4.827432
-2.077823
-4.819951
-5.465846
-2.452558
-3.278783
-4.018367
-4.509745
-2.762739
-5.101840
-4.029248
-2.286010
-2.820798
-2.172059
-3.953411
-2.919056
-3.220689
-2.225235
-0.747398
-3.204256
-1.345121
-1.841325
-3.662329
-2.243838
0.164159
-3.650541
-1.587855
0.174210
-1.329832
-2.306831
0.096593
0.619272
-0.923199
-0.738149
-2.197495
0.415094
0.135940
-1.024935
1.134727
1.773137
-1.020000
0.890427
1.832466
0.054248
1.522735
1.236410
-0.125128
-1.186345
0.271631
0.847934
1.031859
0.152290
-0.229140
1.290752
0.973042
0.600530
0.516129
0.933751
0.985796
1.203222
0.565950
0.714961
0.565417
1.286250
1.482556
0.053606
0.186786
-0.739763
-0.682656
-0.918312
0.123169
-0.680067
-1.705673
-2.389940
-0.925114
-1.485027
-2.323702
-4.041879
-1.831337
-3.506798
-2.019896
-4.329241
-1.875536
-2.652223
-4.723791
-4.086289
-4.966046
-5.809365
-5.366014
-4.498932
-4.226643
-4.434188
-4.756112
-5.420008
-4.165575
-2.981652
-3.466049
-4.073327
-5.701342
-4.760688
-4.900181
-3.143336
-3.163677
-3.965947
-5.188888
-4.648208
-3.794856
-5.458201
-5.174460
-5.722231
-4.217776
-5.011309
-4.249411
-4.769119
-5.626058
-6.826864
-5.990934
-4.943423
-4.288584
-5.438897
-7.020133
-4.467756
-5.065300
-5.100400
-5.899833
-5.052498
-5.046461
-4.389062
-3.905668
-5.031582
-3.240772
-4.722180
-3.964665
-5.922695
-4.567577
-3.801564
-3.574416
-3.451673
-3.047295
-3.870929
-1.896728
-2.063558
-2.603992
-2.468668
-1.525439
-1.967625
-1.405773
-2.286200
-1.878326
-0.576948
-1.412273
-1.113811
-1.075571
-0.448911
-0.919797
-0.428236
0.313620
-1.324692
-0.510255
1.330769
0.833467
-0.453576
-0.603943
0.360738
0.900667
-0.580889
0.013442
-1.096774
0.166258
-1.074529
0.090595
-0.423398
0.905855
-0.047705
-1.931899
0.803201
-0.317877
0.426495
-0.431663
-0.042669
-0.563284
0.470196
-0.864711
1.349705
0.654684
0.751367
-0.233452
1.360147
1.576627
-1.697043
2.004407
-0.693377
-1.337789
-1.458193
-1.291471
-1.691697
1.007455
1.607251
0.492147
0.254103
-0.921722
-0.712607
-4.418012
-1.699501
-1.585782
-2.462548
-1.664449
-2.913215
-3.730309
-3.300854
-2.445632
-3.731575
-2.005143
-3.325216
-3.469089
-3.748182
-4.761713
-3.206052
-5.695226
-4.443275
-5.898873
-4.368879
-3.978628
-4.117748
-3.814298
-5.150487
-4.563064
-5.277342
-5.787209
-4.287357
-4.970240
-3.779236
-5.188154
-2.218860
-3.191271
-6.185297
-6.653446
-3.698049
-5.409735
-5.867244
-6.446452
-3.885780
-4.707391
-3.800983
-4.521410
-6.201500
-3.482840
-3.312278
-3.986957
-4.327762
-5.400766
-4.119791
-6.086202
-4.344368
-4.767850
-4.838626
-4.716720
-2.129577
-4.703536
-5.473441
-4.466865
-4.495104
-5.594086
-3.429672
-5.582439
-3.428212
-3.719134
-4.617104
-1.828609
-4.304645
-3.829772
-1.027988
-3.672376
-3.699471
-1.668957
-1.449655
-2.216358
-1.683255
-4.241214
-0.807377
-0.670430
-1.837993
-0.853824
-1.606000
-1.206496
-0.157450
-0.579027
0.784356
-0.402090
-0.431898
-1.786667
0.337250
-1.669714
-1.190400
0.485903
0.605563
0.205612
-0.841645
-0.110013
1.372366
0.874350
-0.119444
-0.601019
-0.305568
2.793092
1.916968
1.279302
0.479018
-1.000834
-0.722059
-0.905363
-1.537517
-0.315928
-0.492299
-0.992511
0.063877
1.023167
0.336463
0.747886
1.472261
0.086964
-0.323440
-0.611436
1.642309
-1.357912
-2.040604
-1.266233
-1.887707
-1.222441
0.515850
-2.281971
-0.565463
0.506717
-2.498200
-0.833868
-1.221747
-3.438055
-2.709801
-1.598692
-1.889291
-1.835940
-3.025858
-1.715879
-3.753482
-4.257727
-4.049120
-4.757194
-4.833948
-3.118126
-3.469756
-5.484372
-3.798762
-2.434836
-3.241747
-3.894044
-4.965175
-4.095794
-3.386062
-3.829971
-3.845825
-4.552079
-4.096900
-4.465915
-5.674003
-4.781578
-4.597375
-4.561486
-4.785870
-4.161575
-5.460948
-4.476965
-5.162100
-4.631930
-5.216540
-4.771293
-5.711813
-4.799527
-4.855747
-5.021520
-2.811250
-3.831986
-3.808894
-4.349882
-4.401027
-3.591058
-4.432838
-5.087448
-3.177046
-3.710983
-3.539913
-5.118759
-5.834956
-5.068756
-4.447150
-4.206202
-4.741682
-2.323005
-3.880980
-3.290112
-2.221089
-3.072358
-3.300138
-1.109987
-0.186492
-2.483504
-1.957868
-1.032211
-0.162732
-2.000185
-1.207825
-0.523902
0.846707
-0.936360
0.728897
1.075331
1.265321
0.554164
0.413080
0.870758
1.495511
0.444389
1.180938
1.049503
1.942355
0.716829
0.359967
-0.132077
0.993746
-0.396486
0.933814
0.867453
-1.597793
-0.597824
-0.806863
0.821634
0.708748
-1.258370
0.125139
-0.842413
0.097262
-0.144205
1.001073
0.030900
0.330478
0.960466
-0.888033
3.310817
-0.878103
2.342533
2.041726
1.605020
-0.295701
-1.080965
0.147170
0.175773
-0.194100
-1.587092
-0.650291
0.581310
-0.777990
-1.251454
-0.129319
-1.847166
0.624634
-1.562267
-3.519088
-2.970832
-1.221213
-1.934117
-3.773237
-1.708735
-2.911829
-2.598587
-2.149894
-5.014909
-3.481365
-3.546106
-5.685144
-2.663157
-4.046651
-3.912547
-6.116434
-3.555237
-5.052739
-2.168102
-4.842062
-5.679922
-3.650944
-2.654732
-3.640133
-5.641151
-5.204634
-5.743752
-4.586414
-4.617742
-2.990980
-3.778483
-4.007862
-4.601241
-4.979777
-2.975580
-5.175884
-5.862190
-3.806872
-5.122273
-5.056970
-4.880286
-4.282152
-3.849863
-4.836232
-3.838667
-3.257598
-4.629320
-4.992279
-4.084280
-4.425206
-1.961515
-4.827734
-1.912950
-4.493419
-4.859617
-3.708176
-3.897588
-2.328655
-4.933817
-2.287832
-3.013714
-4.321789
-2.365101
-1.740537
-0.318831
-2.548073
-1.816959
-1.321088
-2.207819
-1.318986
-0.517551
-1.334494
-0.508550
-0.885314
0.029596
-0.801878
0.610200
-1.189138
0.507206
0.903135
1.343174
-1.925066
2.029370
1.492216
-0.005443
-0.559129
1.393736
0.788825
0.826849
1.043752
-0.460293
1.360763
0.621082
-1.002628
-0.051865
0.827001
-0.980167
-0.261989
2.779683
-0.049120
0.898922
-0.570507
0.773326
0.222275
0.930702
-1.857249
1.552821
-0.984337
0.832277
1.770232
-0.028225
-0.269244
0.110238
2.239976
-0.508573
-1.210667
1.024604
-0.277405
-0.106692
-0.116822
-1.458748
0.255102
-1.556145
-0.221621
0.107543
-1.209851
-1.547722
-1.642322
-1.784459
-0.605579
-2.984351
-3.322873
-1.558277
-2.796382
-1.848921
-2.836442
-2.588980
-3.903279
-0.707519
-5.425968
-3.116466
-2.994758
-3.687391
-3.183395
-3.387591
-5.078224
-3.626352
-4.349902
-4.106545
-5.596796
-5.360300
-5.397783
-3.891523
-5.487951
-3.504545
-4.745845
-6.074333
-4.617075
-3.918757
-3.649640
-4.975423
-2.949774
-4.734041
-4.191403
-2.778451
-3.313246
-5.172233
-3.758309
-3.902416
-5.320409
-5.244076
-4.396111
-4.089341
-6.501372
-2.253433
-4.522331
-3.642543
-3.525924
-2.912828
-1.623253
-6.388062
-4.330152
-3.278907
-2.969561
-3.701445
-3.566177
-0.288732
-1.916590
-2.415582
-2.516258
-2.034742
-1.102410
0.083925
-1.695083
-1.655592
-1.148741
-2.925892
-1.358139
-2.408484
-2.469538
-2.425585
-0.400304
0.206456
2.425848
0.370626
-0.432635
1.044815
-0.019816
0.147915
0.501896
1.281494
-0.555507
-0.492257
0.646949
0.588806
0.737402
0.188165
-0.110468
0.565622
-0.098613
1.336481
-1.216923
0.320116
-0.522956
0.224235
0.074866
-0.274702
1.319601
-0.660331
-0.777289
0.722902
1.070587
0.412022
1.813647
-0.851509
-0.476241
1.550173
0.239972
-0.945450
-0.035983
0.571914
-0.287458
0.488695
0.117707
1.114886
0.883027
-1.355230
1.708829
0.891068
-0.728239
-1.056763
-0.868576
-0.802720
-1.467193
-0.030050
0.228941
-0.862088
-1.468658
-1.654745
-2.366912
0.657489
-1.735161
-1.882091
-1.361840
-3.546665
-2.659891
-3.095486
-2.589979
-3.882336
-2.435307
-3.041284
-3.940029
-5.297423
-1.795758
-2.122437
-3.573166
-3.453323
-2.939241
-4.636185
-4.289174
-5.730488
-3.622706
-2.505846
-5.941526
-3.818734
-5.450267
-3.821512
-3.999360
-4.480018
-5.819570
-4.855457
-7.026249
-3.231652
-3.809711
-5.635055
-4.588437
-6.702823
-3.956261
-4.084331
-4.908135
-3.630375
-2.981051
-5.542684
-3.957333
-2.456347
-4.097709
-2.641045
-3.976998
-3.491121
-2.980789
-2.459217
-4.594352
-2.959010
-1.562696
-1.588647
-1.812946
-1.734381
-3.180976
-2.870130
-0.023854
-2.729627
0.345564
-1.501188
0.094091
-2.305080
-0.137913
0.174260
2.072564
0.802357
0.713908
-1.391128
1.179079
-0.946612
-0.173100
-0.146516
-1.375517
1.287405
1.114462
-0.269438
0.143642
-0.247595
-1.188375
-0.039276
-0.512203
-0.654212
0.565223
-0.038887
-0.227780
-0.223917
-0.865546
2.005255
0.087466
0.582183
0.860641
-0.926835
-0.630404
-0.441079
0.079675
-0.486981
0.099610
-1.502459
0.315797
0.371802
0.206466
-0.655117
1.358144
-0.497897
1.149335
1.521679
-0.355142
-0.168110
1.843872
0.362185
-0.113068
2.050443
2.074264
-0.332419
-0.119304
0.526297
0.317599
-0.006567
-0.654211
-1.251244
0.462048
2.448253
-1.419263
0.763978
-0.872285
-0.587925
-2.684238
-1.400283
-2.189794
-1.975953
-3.243385
-2.973190
-2.012233
-4.031801
-4.275943
-3.254698
-2.062342
-2.428817
-2.933793
-2.935440
-4.822789
-4.296844
-4.676767
-4.488090
-3.549357
-4.117450
-5.421607
-5.437897
-2.987022
-4.216654
-3.547367
-6.739254
-3.161946
-5.124456
-2.327727
-4.640305
-5.464740
-3.503210
-3.882786
-4.496673
-2.889194
-5.059354
-2.863245
-3.543748
-5.292055
-4.016706
-2.213341
-3.359158
-4.896195
-4.227680
-4.282476
-4.035604
-4.167051
-2.760313
-4.106894
-2.775781
-2.732382
-1.169375
-1.512081
-1.670292
-1.484989
-2.872423
-3.297144
0.749052
-1.588926
-3.001704
0.170142
-1.833787
-0.208875
-2.923400
0.757083
-1.529584
1.514713
-0.153186
0.326095
1.049771
0.859829
0.262065
0.234435
-0.786623
-0.682912
0.438864
0.772537
-0.501080
0.944211
1.757257
0.249909
2.343753
0.223375
0.576386
0.224449
1.062508
0.349833
-0.034425
-0.146308
1.067100
-0.223332
0.078307
0.674763
0.083325
1.098922
0.641295
0.937225
0.008891
0.398483
-0.588145
-0.479207
0.174416
2.538570
0.362690
-0.923797
0.069286
-0.615988
-0.139882
0.650781
-0.055985
0.901316
-0.797931
0.403366
0.767124
0.161543
1.341652
0.767124
-1.015564
0.555300
-0.822429
0.574484
1.297577
0.560338
1.140715
-2.831987
-0.499708
0.382400
-0.974477
-2.257750
-0.960362
-0.879900
0.972599
-4.508717
-2.887065
-1.257414
-1.259516
-3.710079
-2.091699
-3.602125
-2.175292
-3.297066
-2.680666
-2.254350
-3.400550
-2.283362
-3.536833
-4.334207
-4.295351
-4.658493
-4.178292
-2.751521
-5.202470
-4.985042
-4.445738
-5.112761
-5.963351
-4.869578
-4.726685
-4.747953
-4.470979
-2.586512
-6.082815
-4.705676
-3.250139
-5.094084
-3.841669
-3.800274
-2.798552
-3.622834
-3.478977
-5.632829
-4.053620
-4.183487
-3.416047
-2.364929
-3.444383
-4.386043
-2.976882
-4.432865
-3.999159
-1.579005
-1.299869
-2.193830
-2.299712
-1.830911
-0.717841
1.269938
-3.620843
-1.191065
-2.362329
-2.391234
-0.999277
-2.083009
-1.286734
-1.458621
0.008849
1.410801
1.973886
-0.328276
0.371668
1.075656
-0.903153
-0.021058
0.839777
0.113067
0.575085
-1.408635
0.945315
0.573560
-0.123205
-0.302237
0.534458
1.866106
0.721052
-0.550082
0.763042
-0.109722
0.719972
-0.120066
0.436019
0.014223
0.788468
-0.560292
-1.039869
-0.686368
-0.181635
-0.996725
0.524273
-0.967393
0.768824
-0.210290
0.626981
0.511199
1.346021
0.177352
0.264193
1.557795
0.561804
0.181637
-0.879575
1.521559
0.137145
1.694683
-2.006250
-0.385698
1.922622
-0.581950
-0.200335
-0.482267
0.485529
0.082283
0.119244
-0.924980
-1.158738
-0.595574
-0.867476
-1.086908
-0.940213
0.014306
0.716330
0.319505
-0.390931
-0.221060
-2.171855
-1.239491
-2.359871
-1.626083
-2.591730
-0.447104
-1.001502
-3.589877
-2.314652
-2.063647
-4.477662
-4.370307
-2.424692
-4.388231
-4.019780
-4.637019
-3.281261
-5.858656
-4.156228
-3.968695
-4.613066
-4.551478
-4.541815
-5.202443
-4.634257
-4.642096
-4.329191
-2.936800
-4.516355
-2.867221
-1.738528
-4.566631
-3.439887
-3.760805
-4.042464
-3.446543
-3.783204
-4.026017
-3.759478
-2.961811
-2.435994
-3.449419
-3.012534
-2.938052
-2.971111
-1.484787
-2.433806
-2.515435
-1.960938
-3.283571
-1.003686
-1.542945
-0.319684
-0.943484
-0.066377
0.504000
0.091942
0.137357
-0.062460
-1.391823
2.986107
-0.450536
1.586943
-0.202904
0.545040
0.147873
0.433081
0.338590
0.725283
1.217428
1.001371
0.724492
1.121711
0.719633
-0.227897
-0.574426
1.131057
-0.924668
0.262306
1.352921
-0.491148
-0.617968
0.950630
1.157961
2.319524
1.953086
-0.034523
0.296450
-1.234783
-1.130646
0.908732
-0.050825
0.588118
1.000574
2.991632
-0.323303
-0.582315
-1.326539
1.728720
-0.523084
0.567001
-0.532571
1.277415
-0.250529
1.387270
0.247896
2.863874
-0.113157
2.494586
-0.245769
0.119313
0.059598
0.866910
-0.285037
-0.969161
0.535887
-1.303302
1.332053
-0.544613
-0.526569
-1.132303
-1.600081
-1.688864
-2.659665
-0.477139
-1.023430
-0.885227
-2.290880
-1.603712
-0.349660
-1.641694
-1.052285
-1.640178
-4.387663
-3.839840
-2.365791
-3.860933
-1.537201
-4.403858
-1.811104
-2.979615
-3.490462
-3.122260
-3.583051
-4.597107
-5.132154
-5.531147
-5.804114
-4.798212
-4.368880
-5.378999
-4.064455
-4.642588
-4.325821
-5.397547
-3.429811
-3.285902
-4.916887
-3.673513
-3.729515
-2.964103
-3.330373
-4.321433
-2.830075
-4.966746
-3.827395
-4.333434
-3.926252
-4.828194
-2.031245
-2.544567
-3.248065
-1.205129
-2.611146
-1.746012
-0.947158
-2.404809
-1.191031
-0.649214
-1.297089
-0.414086
-1.230769
-2.252324
-1.404379
0.038300
-2.425819
-0.255366
1.565093
1.380584
0.395294
0.196871
-0.013226
0.093249
1.431482
-1.358875
-1.566809
0.330694
0.159283
1.089450
2.374576
-0.189001
-0.884026
-0.356230
1.199502
-0.425473
-0.399487
-0.077250
-0.269576
0.488719
0.013554
0.520663
1.980698
0.442272
-0.533542
0.318855
-0.949669
0.777942
0.873559
-0.079118
0.755793
1.908303
0.440383
-1.719009
0.354418
1.573410
1.085269
-0.368733
1.840603
0.558503
1.469598
0.796082
0.080491
0.561877
0.440088
1.261538
0.177311
2.104792
-0.588324
1.210746
1.940011
1.795846
-0.728597
-0.864459
-0.046426
0.239623
-0.881057
-0.097954
-1.585573
-0.212280
-0.571246
0.254393
0.823475
0.399388
0.401020
-0.094100
0.104066
-1.056215
-0.632763
-2.084600
-1.427981
-1.355218
-2.418719
-1.472616
-2.649574
-2.872027
-2.676843
-3.524440
-1.509344
-2.613735
-3.226750
-3.416174
-3.135323
-2.335005
-4.754934
-5.377458
-5.055426
-3.735028
-3.745977
-2.969594
-4.482102
-7.227036
-4.559095
-3.014173
-4.762954
-4.411633
-2.941750
-1.955159
-4.466033
-4.710483
-4.691855
-2.373242
-3.871101
-5.137654
-3.009941
-5.205614
-3.197361
-4.281559
-4.352328
-1.683682
-1.952675
-2.209061
-2.729787
-2.429374
-1.286778
-1.437723
-2.129180
-1.708797
-1.866646
-3.781260
-0.976764
-0.037066
-1.253717
1.189737
0.761517
0.973538
0.094107
0.828898
0.994742
0.045829
1.545257
1.180649
-0.348017
0.278119
0.593583
1.093183
-0.088887
-1.020443
0.633421
1.408151
-1.149870
0.127017
-0.830482
0.515002
-0.700807
-0.059261
-0.314101
0.179051
0.956842
-0.083099
-0.407871
-0.788980
1.931532
-0.085107
0.588142
-0.255144
0.102174
2.565017
-0.127033
0.351772
-1.591465
0.101546
0.557326
0.782173
0.325904
0.027750
-0.105790
1.181100
-0.930236
0.850539
1.756394
2.161777
1.242367
-0.070515
0.289240
-0.746822
2.996832
0.380797
-0.564054
0.548608
0.544955
1.645693
-1.556017
-0.764931
-1.266052
-2.271235
1.143589
-0.968470
-1.092249
-1.057642
-1.317238
-0.946735
0.756208
-2.684118
-1.352032
-1.723643
-1.081416
0.954619
-2.777183
-1.042288
0.010462
-4.072967
-2.202464
-3.569535
-2.705780
-2.695235
-3.288622
-2.271868
-2.243688
-2.521280
-2.402881
-3.776580
-3.648452
-5.460579
-4.606796
-5.302290
-5.447440
-7.072288
-5.771723
-1.948648
-3.394867
-3.476692
-3.857965
-4.118443
-2.792916
-3.292494
-3.483397
-3.848797
-3.283608
-2.037906
-4.933673
-3.873115
-3.673605
-3.155519
-3.693670
-3.908110
-3.102015
-3.322654
-1.109507
-2.007475
-2.919157
-1.383561
-2.697223
-0.395884
-3.223154
-1.719973
-2.243635
-0.013044
0.832191
0.000440
0.004999
1.397012
0.181389
-2.466425
0.032439
-0.449627
2.740247
0.475775
1.819260
-0.961427
0.624490
1.193334
0.227461
1.427193
1.461436
-0.378548
2.738506
-0.739020
-2.137591
0.228016
1.161179
1.869853
2.248007
-0.258947
-0.281994
-2.383002
-0.404306
1.015091
-1.173504
0.117237
-0.695966
0.718769
0.451024
0.479159
-0.303070
-0.029229
1.519741
1.235232
0.656401
0.946344
-1.321555
1.102694
0.544601
0.058919
1.638552
0.664346
0.649552
1.904952
-0.266277
-0.798820
0.410747
2.115745
2.315824
1.114449
0.765002
1.177519
0.621799
1.238813
1.830426
0.207507
0.872582
0.801291
-0.988496
-0.198096
-3.342689
-2.030929
-1.091393
-0.114479
0.337772
0.005794
-0.218853
1.242469
-0.748978
-0.432276
-2.118363
0.446260
-0.748850
-0.718473
-1.681855
-1.642445
-2.766567
-3.167390
-1.115979
-2.364376
-1.809875
-1.569188
-2.177177
-3.876402
-4.186651
-3.271220
-4.154230
-3.103306
-4.323253
-3.935794
-6.535067
-3.167136
-2.796345
-6.117634
-5.504064
-4.840463
-4.080617
-3.533402
-4.746569
-4.996795
-3.797780
-4.690403
-3.061200
-3.460006
-4.006855
-3.868220
-2.592245
-2.949392
-4.045924
-3.454625
-2.400180
-0.745421
-3.247182
-1.365512
-3.380798
-0.741411
-1.603882
-2.078240
-2.382415
1.138425
-1.164259
-0.362688
-1.313371
0.449783
-0.046858
0.354962
0.745835
1.340073
0.172480
-1.570517
1.951157
2.090737
0.031032
0.880407
-0.240250
1.388249
0.275259
0.772333
0.502066
-0.598969
0.347694
0.609342
1.939696
1.870013
0.574501
-0.654935
0.720335
-1.500589
-1.786399
0.255840
0.786600
-0.269403
-1.232464
-0.156846
-0.523062
-0.727721
-0.931080
2.376940
0.421341
0.517031
-0.965607
0.442999
2.679743
-0.049462
0.999343
3.052498
1.315997
1.871212
1.683822
0.157102
1.097316
0.126316
0.354587
-0.007838
-0.899488
1.128517
1.458860
2.322074
1.507807
-0.342952
-1.131438
-1.112313
0.457719
-0.834121
-0.025973
-0.177692
-0.701883
-0.713877
0.580605
0.159766
0.337491
-0.535957
0.315141
0.148090
-0.427099
-2.225407
-0.517084
0.794540
-1.801190
-0.999266
-3.015322
-0.019534
-2.960016
-1.754066
-1.041282
-2.160253
-1.714130
-1.149443
-2.253946
-2.916225
-2.765036
-1.841052
-2.462463
-3.473600
-3.134774
-5.364719
-5.262308
-4.646105
-4.359214
-4.504573
-3.898356
-4.166991
-6.664417
-3.820544
-5.641722
-3.045500
-3.375909
-7.044425
-4.067180
-2.500700
-2.479342
-4.123889
-5.219141
-1.052152
-4.102640
-3.956281
-2.928940
-0.978850
-0.942743
-1.122927
-3.167057
-1.579940
-3.136851
-0.352858
-1.492857
-2.249220
-2.117058
0.417732
0.389245
0.202340
-1.863337
0.373121
-0.162673
-0.599937
0.451995
-1.047288
0.658706
0.619504
-0.188480
-0.500919
0.280800
1.234763
0.637478
-0.754336
1.815065
-1.145822
-0.828961
1.543855
1.328051
0.956842
0.966629
-2.227215
0.011891
0.221842
0.486009
0.791484
-0.277517
-0.860610
-0.398668
-0.932288
2.087338
-0.098557
-2.056339
-0.663593
-0.869169
-1.057284
1.181338
1.226559
-0.693548
-2.228619
1.261538
0.389923
1.707232
0.101009
0.237945
1.683210
0.496345
2.339339
0.428214
1.924205
-0.684900
0.047505
-0.582571
-0.600903
0.703796
0.558097
-0.068546
2.283719
-0.243915
1.426389
0.906127
0.970133
0.612184
-0.648646
1.424444
1.554145
0.504589
-0.191540
-1.097628
-0.989790
0.654282
-0.846117
-1.634207
-0.091508
0.976302
-0.568889
-0.846955
-0.064328
-0.770111
-0.431204
0.076901
-0.668247
-2.136914
0.376085
-0.577787
-1.379316
-1.076831
-2.206457
-1.888968
-2.337253
-2.857870
-2.021337
-1.713927
-4.027533
-5.403116
-4.896739
-3.208816
-2.518214
-5.589977
-4.258008
-4.756263
-3.457276
-4.953191
-4.979558
-5.412604
-3.303627
-3.288218
-2.860274
-3.517851
-3.592544
-2.450385
-4.136379
-3.208430
-2.584630
-1.917490
-3.653815
-1.592403
-2.538894
-0.921743
-2.748472
-2.753018
-0.063902
-1.767082
-0.504330
-1.613022
-1.170034
-1.094643
-0.733193
-1.361020
0.072768
-0.318059
0.228783
1.330753
0.181036
-0.853518
-0.083134
1.324621
-0.102713
-1.640651
1.614684
2.265831
-0.851029
0.993835
-0.055509
0.612046
0.519147
1.567582
-1.435700
-0.936345
-0.618620
-0.378765
0.502774
0.045402
0.010028
-0.579013
-0.065574
-1.205633
1.083599
0.474496
-0.096045
0.357520
0.857565
0.754303
0.422268
0.911619
0.564589
2.080401
-1.259600
2.557293
0.978822
1.054217
1.053794
-1.136395
-0.574683
4.327663
-0.491439
1.605712
0.827681
-0.492874
0.079785
1.063816
0.928198
0.621742
-0.271917
1.650253
1.250237
0.045982
1.380563
-0.205567
1.098900
0.143281
0.002417
0.621551
-0.016369
-1.845507
0.738566
1.401696
-1.151361
-0.342828
-1.238871
0.103414
1.751596
1.116714
2.965140
-0.814376
0.453561
-1.404792
-1.229230
-0.035320
-0.905055
-1.535697
-0.665960
-1.156582
-2.722506
-2.120517
-2.054326
-0.067490
-1.661612
-1.810738
-0.950496
-4.685674
-4.182381
-3.951173
-3.740445
-6.182050
-3.322717
-4.408617
-3.993680
-4.566983
-4.804845
-6.313629
-5.366384
-5.147364
-2.960176
-5.033673
-2.807306
-3.364187
-2.882796
-4.209821
-4.263164
-1.724371
-2.943697
-1.663084
-3.373545
-2.225750
-0.284613
-2.279690
-4.222943
-2.676088
-0.934173
-0.359893
-1.539532
0.243150
0.607999
-1.380204
0.208383
0.258802
1.030581
-0.195662
-0.463637
0.833502
-1.085341
-0.599002
-0.112800
-0.616946
-0.763683
2.033112
-1.301655
1.758248
1.635178
-1.241345
-0.213524
0.506398
-0.883144
0.138366
0.939931
-0.705894
0.493597
-1.292948
-0.120129
0.205240
-1.141029
-1.038244
0.599023
0.129496
-0.076812
0.732068
0.247377
-0.943021
0.100660
0.495101
-0.682266
0.743240
1.207678
0.278433
-0.307825
-0.169777
2.339675
0.185337
0.716177
2.016330
0.871454
0.815371
-0.703258
2.023242
1.078300
1.006630
1.784644
1.213045
-1.172422
-0.562945
1.767483
1.491018
2.109505
1.285015
1.753027
0.384435
-1.310163
0.807144
0.010503
-0.543107
0.857819
0.460082
-0.010131
1.032668
0.825975
0.554034
-0.377916
-1.661785
-0.066637
-1.000283
-1.070136
0.900858
1.415118
1.274200
-0.051401
-2.829856
0.336458
-2.079569
0.028153
-3.609580
-0.983213
-2.451863
-0.730004
-2.459190
0.345510
0.453753
-1.033618
-3.926354
-4.585190
-5.490063
-4.262304
-3.272681
-4.956113
-4.963830
-3.349813
-4.675250
-5.521032
-2.907914
-3.208782
-4.662139
-2.233027
-5.070655
-4.489374
-4.354058
-3.438657
-3.732928
-3.382214
-1.526187
-2.776647
-2.182879
-2.294090
-3.087570
-2.750942
-1.838793
-0.060978
-1.852799
0.874721
-1.138596
0.996357
-0.728246
-1.875626
0.774829
0.355833
1.294447
0.515739
-0.187143
-0.139967
0.019829
0.428538
0.260383
0.007294
-0.734126
0.197971
0.105549
0.205212
1.528948
0.328541
0.293305
1.921191
-0.316433
1.030164
-0.425563
0.428748
-0.352154
-1.178211
0.113323
0.364366
-0.271355
0.450704
2.020792
1.691340
0.409120
0.145017
0.578685
0.073530
1.226804
-0.124629
-0.204706
-1.667214
-0.671158
0.174457
2.276511
0.917836
0.967326
1.562751
2.841586
-0.299295
0.358989
1.359499
1.207417
1.352738
2.162819
0.490170
1.151148
0.980420
0.923026
1.162143
-0.672426
0.753627
-0.106876
1.803985
1.350346
2.681856
2.138381
0.375832
1.151471
0.427637
-0.049352
-0.415095
0.038335
-1.127600
-2.240465
-0.576627
0.201228
-1.388541
-1.437932
0.067326
1.396305
0.970486
-0.332416
-1.302767
-1.450916
-0.541011
-0.579016
-1.686123
-0.030562
-0.536141
-1.933106
-1.302760
-0.073374
-2.390330
-2.988528
-1.622636
-1.612807
-3.123256
-3.395826
-4.840756
-5.719598
-5.793007
-3.647027
-6.347665
-5.099756
-3.088558
-2.997701
-2.232733
-3.313499
-3.729365
-4.694827
-3.813462
-3.694313
-4.536198
-3.753993
-2.709966
-3.372953
-3.644624
-1.167679
-1.904980
-1.859047
-3.192504
-0.488322
-1.296204
-2.978789
-2.451658
0.622885
-1.234448
-1.213520
-0.776356
0.801847
-0.598562
0.177397
-0.861324
0.900844
-0.058502
0.947511
2.214771
1.490211
0.267713
1.252019
3.386486
1.093309
0.013619
0.437036
1.112102
-0.040649
-0.930854
-0.429431
-0.197540
-1.247356
1.732016
1.751890
0.057591
0.985509
-1.024082
0.146087
-1.191710
0.428847
1.504779
1.867690
1.545678
2.356178
1.265531
-1.823774
-0.373224
0.523073
-0.758180
-0.985320
-0.482797
1.813762
1.392038
1.841865
1.250041
0.968120
1.550084
1.201688
-0.115071
1.564349
-0.382270
0.676665
0.045796
1.707806
2.694599
1.035629
0.387255
0.455022
1.303049
0.795452
3.898660
-0.222054
1.531732
1.096481
0.314676
-0.291150
-1.920641
1.180569
2.200569
1.533644
-0.779160
-0.140295
0.504501
-0.337733
-0.573536
-0.689958
0.051967
-2.996240
0.114639
-2.660112
0.974466
-0.347342
0.558041
-0.008163
0.159184
1.624977
-0.900668
-2.077783
-0.857783
-0.137973
-2.384663
-1.178970
-0.130396
-3.194731
-1.673672
-2.354311
-2.090600
-4.470078
-5.724951
-4.290020
-4.107068
-3.751797
-3.385765
-2.788527
-5.861570
-2.991728
-4.066197
-3.857927
-3.759983
-2.956019
-5.230928
-4.384741
-2.800075
-3.672135
-2.245543
-2.237937
-4.954992
-0.950112
-2.892581
-2.709829
-1.153256
-2.937214
-0.698769
-0.968668
-0.730512
-0.226127
-1.037866
-1.137347
-2.973535
-0.024542
0.904049
-0.087093
0.932933
1.053604
1.362311
0.564337
-1.097251
0.718846
0.641441
1.474267
1.744742
-0.007283
-0.201557
-0.735409
-1.008388
-1.042060
0.099397
0.585734
0.610969
1.419393
1.072800
0.680660
-0.146492
-0.563036
-1.298194
1.076540
-0.785014
0.239070
0.398830
1.421838
-0.675472
0.321137
0.441546
0.314049
0.104286
0.213892
-0.142095
-0.684109
0.758507
1.083832
-2.277817
-0.442125
0.652159
1.233594
1.573240
0.774665
-0.970370
0.199735
-1.171312
1.074955
-0.010480
2.621170
1.156047
-0.573129
0.948471
1.680769
-1.046570
0.602526
1.883459
2.029996
-0.044437
-0.493761
0.572653
0.678910
0.407635
1.263314
1.142130
0.209554
0.616735
-2.208124
0.112642
-0.859011
1.036368
-0.268534
-1.711534
0.032661
0.999500
1.326456
1.422416
-0.344974
-0.460358
-0.192786
-0.732284
-0.744689
-0.862158
-0.009747
-1.708869
-0.260302
-1.329315
-2.275061
-0.462784
-1.014070
-0.665383
0.139403
-1.020519
-4.995188
-3.763310
-4.476982
-6.618243
-4.727300
-4.360003
-4.592901
-5.226225
-2.942048
-4.870542
-2.963330
-2.805222
-3.672032
-5.056309
-4.960515
-4.325430
-3.755761
-3.304879
-1.537227
-1.420974
-1.613437
-1.474680
-2.066693
-0.754927
-0.355934
0.189323
-1.296318
1.001714
-0.033869
0.172570
-0.901401
-0.330076
0.208490
0.115201
-1.087223
-0.864864
-1.096095
0.562197
0.155265
-0.004131
-0.381728
1.808842
1.818419
-0.745259
-0.353612
-0.498367
-1.173695
-0.079486
0.797011
0.273229
0.362866
1.196286
0.797965
0.866569
-0.267214
0.458252
-0.598849
-0.862163
0.053065
0.862169
0.593001
-0.758677
1.071639
1.468362
2.237186
1.895923
0.709763
0.187159
-1.499344
-0.642166
-0.242706
-0.328268
2.338869
1.454577
1.454702
0.243105
0.339920
1.731352
-0.035609
1.427457
0.194397
-0.162064
0.228454
0.229945
1.270783
0.428579
-0.161095
0.566668
1.102216
0.535298
1.391046
1.777991
0.501814
0.020082
0.350393
0.788750
1.679262
1.687104
0.658083
0.432363
-0.343392
2.654819
0.209281
-0.383038
0.553115
-0.484526
-0.395362
-0.108582
-0.886182
0.110345
0.534551
-2.204718
-1.662565
-0.927624
-0.152803
-0.169126
0.291548
0.523266
0.131721
-0.902679
-0.147828
-0.869997
-1.678215
-0.489550
0.948053
-1.064848
-0.223014
-0.737975
-4.588835
-4.574622
-3.900258
-4.541319
-3.750800
-4.995803
-5.673350
-3.986105
-3.641551
-2.949667
-4.577814
-3.912833
-2.912599
-3.449918
-4.900148
-3.147446
-2.404908
-4.464832
-1.891726
-3.351154
-2.908464
-2.558437
-2.768356
0.501266
-1.961370
-1.496050
-1.347250
-0.454041
0.536069
0.369873
0.134804
-1.154377
-0.498329
-0.786484
0.731759
-0.233925
0.639617
0.826081
-0.188198
-0.498828
0.713749
-0.843915
-0.214559
0.470017
-0.532325
0.119513
0.441704
-2.140252
1.307940
-0.810556
1.274436
0.372747
-0.787129
0.520347
1.126724
-1.994423
-0.124771
-1.245197
0.134468
-0.353813
0.555458
1.049384
-0.950331
1.417014
0.684023
1.310240
0.817935
0.759132
0.073038
-1.846187
0.441375
-0.224969
1.690172
-0.343525
0.037241
-0.392323
-0.899875
0.839701
1.140422
0.132831
0.262979
1.010045
0.286683
3.122197
1.465909
1.379674
2.118759
2.719925
1.089169
1.143716
3.307766
0.014225
1.631192
1.441958
0.875822
-0.982862
-0.512357
-0.195065
-1.094133
1.694114
-1.072653
-0.198283
0.995210
0.525613
-0.347960
-1.413866
-0.768487
1.807340
-1.822152
0.944135
-2.427270
-0.578988
-0.551051
0.330086
-0.653448
-0.554286
-1.103982
2.446187
1.758694
-1.699876
0.607837
0.836387
-0.566005
-0.816090
-0.397966
-0.995380
-0.110655
-1.384102
-2.810821
-4.598392
-3.893417
-4.913629
-4.296608
-3.143275
-3.095428
-4.945310
-3.685993
-3.454257
-4.526860
-2.933605
-4.189357
-4.388731
-3.024712
-3.019362
-5.143541
-3.269832
-2.978553
-2.797400
-2.332847
-3.113786
-1.869415
-0.352346
-2.076383
0.397959
-2.805474
1.544718
1.010593
1.715996
-1.319604
-1.090919
-0.436482
-0.544693
-0.169157
-0.364902
0.379033
1.656852
-0.773525
0.514656
1.196467
1.353323
1.666500
0.893838
-1.201186
0.418216
1.675688
-1.613216
1.416411
0.693866
0.625421
-0.396986
0.133365
1.038832
-0.137820
0.797157
0.045257
0.583698
1.185979
1.393368
0.848428
-0.426730
0.099270
-1.115163
0.937121
1.461145
-0.053769
1.504552
-0.059099
0.372726
0.766053
0.057189
-0.122992
1.017100
0.209066
0.139733
1.110755
-1.175862
1.333862
0.125224
-1.078115
3.912133
-0.240672
-1.194715
1.033649
-1.171795
1.033982
0.748962
0.190520
0.633856
0.960912
0.697755
2.230602
1.115719
-1.530932
0.376070
-0.356486
-0.768811
-0.551377
1.554290
0.983222
0.609658
-0.691973
0.270437
-0.568353
1.667767
-0.467328
-1.825591
1.449496
-1.092220
0.325272
0.410000
-0.955140
0.729003
-0.536741
-0.192587
-0.391697
-0.143680
0.420429
-1.025907
-0.486456
-1.603666
1.008630
1.145271
-0.960852
2.001961
1.142680
-0.578489
-6.220091
-3.875295
-4.539331
-4.199992
-3.848210
-4.605082
-2.960767
-2.633639
-3.883579
-3.756023
-3.758434
-3.206641
-4.675448
-3.109329
-2.795779
-2.585454
-3.679395
-2.602364
-1.654730
-2.493022
0.547072
-2.852850
0.662846
0.407661
-0.173613
0.992899
-1.026312
0.333401
0.264791
1.176963
0.538235
-0.056403
0.879201
0.398086
1.119963
-0.777136
0.203849
-1.275607
1.337033
1.013739
0.097313
1.139059
-0.981692
-1.886666
1.039047
1.118767
1.109828
-0.033140
0.162777
2.705464
-0.073400
2.937855
0.348357
-0.112185
1.356126
1.023804
-2.441949
-1.503565
-0.018866
-0.515669
-1.251758
2.026679
0.325953
-0.179064
-0.013554
-0.222889
0.388113
-0.984077
0.754256
1.123939
0.707906
0.095453
-0.142907
1.121273
0.290878
1.432954
1.830099
0.165424
1.216936
0.041419
-0.173825
0.594934
0.778227
1.262297
-0.336187
-0.786620
0.376081
1.410645
-0.501981
1.188845
1.296357
-0.931988
1.342839
-0.428142
2.650048
-0.636250
0.574745
0.032138
1.400782
0.615322
1.324234
1.607265
1.733145
0.444955
0.175340
2.833060
0.569802
-1.424311
2.227431
0.374298
0.123159
1.386748
0.467283
-0.447257
1.907012
0.608173
-2.465573
-0.393130
-0.736452
1.824429
-1.748373
0.444256
-1.331688
-0.381567
0.021265
-0.258830
-0.806413
-0.185823
-4.759338
-3.367664
-4.656667
-4.596234
-3.003842
-4.513343
-3.120572
-2.676654
-3.484805
-3.459374
-3.201456
-2.159496
-2.723913
-2.046240
-4.642084
-2.724582
-3.453649
-2.460749
-3.202143
-0.911718
0.993206
-2.838940
-1.713989
1.529823
-0.475980
0.359200
-0.605629
-0.525562
-0.514734
0.613647
-1.034754
0.557394
-1.704572
1.241514
-0.063424
-0.047901
2.519438
1.065683
1.153879
-0.096858
1.457392
1.360932
-0.049260
0.167262
0.109733
-0.270657
0.262422
0.000812
0.924675
-1.126152
0.738444
-0.794097
-1.588672
0.308358
0.495329
2.545251
0.378731
1.364742
0.860464
-0.335168
0.816721
0.577517
0.279690
0.600888
0.507837
0.938873
1.502122
0.919614
1.619918
-0.627384
-0.491729
0.350111
0.303203
-0.168991
-0.921162
0.982744
1.714757
1.991547
0.203063
2.028162
0.400399
1.208161
1.419590
-0.046704
0.589834
0.668301
1.212929
2.034650
3.620911
0.142995
0.047609
0.492792
2.219273
1.430996
0.071957
2.116569
-0.177954
-0.519783
0.716976
1.567440
-0.726245
0.375036
2.044045
-0.876203
-0.882621
0.433206
0.497324
-0.402349
0.458298
-0.797392
-0.870689
-0.152250
-0.386929
-1.242752
0.127127
-0.380433
-0.388405
-0.963231
-1.562038
-0.352923
-0.944302
1.318866
-1.115232
0.848113
-2.059695
0.097694
-0.655421
-3.118015
-5.269134
-5.135142
-2.795532
-4.340283
-5.334641
-4.332358
-3.863060
-4.294512
-2.956515
-4.946493
-5.550819
-3.131965
-5.680662
-4.416162
-2.656962
-3.179887
-2.776673
-2.562110
-2.744065
-2.541566
-0.994051
0.346039
-0.167884
-0.195160
2.059939
0.642343
0.177121
1.232049
0.011985
0.339804
-0.536698
0.881244
0.134525
0.434572
0.156022
2.446121
1.241483
0.484880
0.313669
-0.298448
1.062886
0.335519
0.774457
1.000327
0.812497
1.364017
0.001697
-0.180433
0.258418
1.305481
0.035686
0.068994
1.865704
-0.011313
1.167507
2.948253
0.965118
-0.336304
0.319641
-1.135426
0.968288
1.615984
-1.180389
0.820072
-0.023555
0.960465
0.715210
0.224861
1.583108
-1.210180
0.247604
-0.573091
-0.806449
0.571764
0.840404
0.213157
-0.764021
1.554200
-0.495719
0.554779
0.976776
0.940819
-0.415210
0.002553
-0.804007
1.639922
-0.325983
0.644026
-0.912333
-0.157543
1.722117
0.530110
1.705440
1.374717
1.841256
-0.364048
-1.159933
-0.039150
0.499892
-0.402171
0.414963
0.445854
-0.117019
-0.210688
0.379197
0.744301
-0.891869
1.156281
0.018372
-0.736868
-0.740707
-1.447702
-1.316837
0.389695
-0.933453
-1.755801
-0.035991
0.813685
-0.238473
0.318502
-1.136496
-1.986785
-0.393133
-0.656133
-0.777752
-0.413091
0.228795
-2.470399
-4.125864
-3.685428
-4.282582
-2.729585
-3.741543
-4.421293
-3.996099
-4.561348
-5.527758
-4.102048
-4.987486
-3.758159
-3.988874
-2.725309
-4.346288
-5.078273
-1.469658
-0.999712
-1.048591
-0.149336
-0.354873
-0.380290
-1.539569
1.832930
0.024180
0.250657
0.021397
1.179185
-0.871553
1.616682
-0.412140
1.316757
0.844960
0.618537
0.133316
-0.832572
0.054331
0.939208
1.548363
-0.923695
0.480614
0.653653
1.231060
0.774854
1.897797
1.866631
-0.248487
0.177454
2.009604
1.123972
2.133785
1.184811
-0.225927
0.602098
-2.276086
1.745715
-0.001878
0.832827
0.591602
3.037905
0.338328
0.730190
0.078589
0.198975
1.213812
-0.087618
0.652676
2.160558
0.508577
0.326056
0.679481
0.850244
-1.101088
-0.769743
1.001636
0.590563
-0.545100
-0.071006
0.588948
0.490018
1.303578
1.236420
0.155066
3.333233
0.016110
1.318890
-0.616197
1.084935
1.221739
1.857214
1.839949
0.029627
-0.908681
3.198597
0.328215
-0.560013
1.396849
1.776930
-0.731838
0.730246
-0.445886
1.605020
0.648216
0.383347
0.704871
0.156323
-0.371085
0.219816
-0.828606
2.248572
-1.256003
0.848578
-0.088584
0.770855
-0.627333
0.621540
0.063428
-0.081289
0.855230
-1.305662
0.241229
0.154500
-0.840994
-0.367709
-0.085645
0.295902
-0.931745
-1.975956
-2.280487
-5.474779
-4.316826
-3.446504
-3.869876
-3.240778
-4.624164
-2.217061
-3.012337
-5.277111
-3.894766
-2.851415
-2.674176
-1.485257
-4.053983
-1.499384
-0.653569
-2.829718
-0.801428
-0.602248
1.429625
-0.489698
-1.115956
0.060169
0.928941
2.810736
0.883187
-1.191654
-0.201332
0.108859
-1.793957
0.134463
1.838457
1.840769
1.123160
0.288110
1.446845
0.827410
-0.014272
0.778154
1.565074
0.633762
0.649447
-0.945562
1.031641
1.675417
0.768539
0.270793
-0.723255
-0.604607
-0.674029
2.048648
1.205458
1.349654
0.301813
0.453692
0.338688
-0.191247
-0.233586
-2.386292
0.339050
0.411936
0.021110
-1.226835
0.689234
-0.108057
-0.545540
0.730459
-0.238863
-0.612643
1.714906
1.201783
0.249823
-0.308013
0.629388
-1.797119
-0.402186
0.459995
0.104258
0.235796
1.210881
0.576153
-0.906541
-0.609691
0.098193
1.206249
1.769659
-0.251228
1.477257
-0.243088
0.247665
-0.786543
1.711155
3.060160
-0.209206
1.257724
-0.646720
1.276066
-0.836065
1.118692
0.069723
1.286129
1.548584
0.439192
-0.480069
-1.411536
0.372962
0.889155
1.615158
-1.932842
0.237323
-0.216833
0.858389
-1.224403
-1.191605
0.338225
0.298513
0.475472
-0.313865
-0.401869
1.404048
0.055204
-1.347692
0.199076
-0.790106
-2.570197
-1.380869
-0.968093
-5.339907
-3.921460
-5.216656
-2.493394
-4.570634
-3.332134
-2.723357
-4.346046
-3.131200
-3.149190
-3.286010
-2.845316
-1.708369
-2.975925
-1.503460
-1.474740
-0.549429
-0.777637
0.456155
-1.292938
0.455763
-1.369727
0.879383
3.013342
-0.068683
1.169432
-0.567199
1.391048
1.047653
-0.062820
1.354721
1.667284
1.051175
1.511901
-0.726142
0.734121
1.620164
-0.906631
0.665617
0.692424
1.241077
2.750989
0.723098
2.704248
2.202884
0.681046
2.134764
-0.525322
-0.246807
0.485983
1.358522
3.555089
-0.149202
0.823233
0.999907
-1.100232
-0.657883
-2.256868
1.170128
1.528986
-1.316328
0.711067
0.428032
1.749684
1.011769
0.374129
1.742367
0.230757
0.526325
0.430632
2.203199
-1.059976
0.041075
0.308082
1.652526
0.385181
-1.576506
1.061173
0.710978
-0.226808
0.173084
1.126781
-1.888289
-0.398706
0.681229
1.721586
1.813758
-0.325911
0.453789
1.475918
2.924615
1.634247
0.773262
1.136245
-0.889245
0.223938
0.849538
-1.202352
1.095465
-0.788986
2.329448
0.127153
-1.670375
2.378692
0.442185
-0.547001
-0.189723
0.859221
1.742501
0.085841
1.993986
1.366039
0.574360
-1.882743
0.611183
-0.766305
-0.261788
-1.219440
-1.871538
-0.362826
-0.083916
0.149392
-0.274737
-1.391543
-0.408540
-0.532546
-1.204259
-0.795681
-3.821215
-3.375054
-6.187867
-4.772795
-2.057078
-2.768791
-4.550418
-4.453530
-2.001226
-2.088647
-2.688233
-2.224382
-3.478489
-1.713412
-1.368998
-2.085369
-0.527329
0.389074
-1.345184
-1.244592
-0.387825
-1.973079
-0.258542
1.797004
0.049395
0.177198
1.654523
0.784662
1.028197
-0.179483
2.374325
-0.176497
-0.257899
-0.025075
1.866449
2.950357
1.684059
-0.401761
0.310059
1.450734
1.136654
1.796652
1.065248
1.824972
0.797309
-0.202598
1.725985
0.970387
-1.005418
0.237374
-0.295917
-1.540666
-0.262794
-1.169479
-0.272978
-0.221680
0.428559
0.945383
1.398412
1.051073
2.331642
1.045737
2.311949
-0.234420
0.591405
0.598610
1.411213
-0.039144
0.096472
-1.126577
1.226134
0.175803
1.887957
-1.273763
-0.276995
0.800449
-0.424440
-0.487786
3.297320
1.900077
-0.635311
0.595359
0.038289
0.723349
0.584092
2.365877
-1.102146
1.784896
-1.342756
0.724271
2.863074
1.226268
0.894283
2.669601
1.294209
-0.449323
0.113098
-0.377730
-0.634253
1.202504
-1.248264
0.963029
0.292627
-0.981503
0.844409
0.514914
1.353713
-0.586487
0.035751
-2.980836
-2.571617
0.873122
-1.368528
1.579036
1.733102
0.023631
1.457968
-0.943008
0.636124
0.759561
0.515075
-0.692885
-1.157229
-2.985457
-0.017603
-0.933921
-0.390543
-0.128605
-3.831348
-3.628116
-4.982859
-2.477783
-2.425157
-4.375768
-4.168991
-5.091482
-3.071757
-2.527769
-1.594307
-0.760196
-3.398629
-1.816872
-0.109062
-1.634508
-1.270175
0.940182
-1.344891
2.669558
1.059713
1.784592
0.320311
0.599482
1.116344
0.230276
-0.134920
0.862275
2.491251
1.949315
0.542360
1.562489
2.433525
1.722057
-0.966822
1.855734
0.157123
0.788966
-0.788687
0.908960
0.869861
-0.239042
1.652764
1.266469
2.379321
0.247860
0.422305
1.665071
2.150754
0.703629
0.536511
-0.033264
0.049772
0.247373
-0.122744
0.333522
2.507639
-0.715211
0.486263
0.512807
2.378130
-1.106437
1.377880
3.212048
-0.290976
1.002547
2.250639
0.189899
0.013175
0.790044
0.671503
0.080942
1.751104
1.552905
-0.933480
-0.047405
0.456912
-0.445615
0.933234
0.701327
-0.163449
0.457763
0.307271
0.634494
1.068339
-0.601491
0.884793
1.305737
-0.015819
-1.415777
0.727239
0.157147
0.907629
0.894547
1.658946
0.108740
0.791334
-1.650540
1.262338
-0.061229
0.996033
-0.178520
-1.531113
1.377791
0.082659
2.046080
-0.573104
0.701499
0.235821
-0.380037
-0.881536
-0.342250
1.015484
0.502819
2.454803
0.281365
-0.362571
-0.524931
0.488988
-0.671129
-1.110166
-1.115875
-1.334458
-1.126587
0.304740
-0.637734
-0.029241
0.673600
-2.912911
-4.806378
-4.010855
-1.729877
-2.927997
-1.223947
-3.843206
-3.704324
-2.205816
-2.727031
-3.723235
-1.124156
-3.795035
-2.040202
-0.404961
-0.655473
0.152159
-0.408380
0.750944
-0.459015
0.539961
1.451837
2.566256
2.064462
-0.405427
1.628339
0.677325
-0.551021
-0.420672
-1.329229
0.917595
1.312766
2.686909
-0.102377
0.973304
0.954473
3.987042
1.071512
-0.260628
0.503893
1.284722
1.720753
2.326308
1.280811
1.470949
0.567329
-0.228970
1.067712
0.090271
0.910902
0.714038
1.989083
0.377133
0.057194
0.461314
1.419149
-0.351403
1.904948
0.618878
0.927984
0.438545
-0.846595
0.329534
-0.109130
1.327379
2.529332
0.912105
1.672624
1.075167
0.268106
0.382507
1.025152
0.992291
0.854098
0.160903
-0.595941
1.571953
-0.474013
-1.033693
0.538931
1.098145
-0.782821
1.542150
0.605557
0.860862
-0.935458
-1.158386
-0.585750
-1.669411
0.379713
-0.693032
-0.296905
0.807809
1.226285
0.865317
-0.235969
-0.556913
1.654663
0.320528
-1.564455
-0.400427
0.818947
0.972239
-1.609721
1.910340
-0.815038
0.068944
0.858495
-1.413027
0.988233
0.934531
0.749406
1.373505
0.331367
-1.461928
0.354204
0.107237
0.611075
0.423933
-0.507630
0.048654
-1.044838
-1.056855
-0.309787
0.455945
-1.063529
-0.147651
-0.833418
-3.203152
-4.593390
-4.525840
-4.616166
-3.143126
-2.866049
-3.951830
-2.122452
-2.458146
-2.035877
-1.447239
-0.108798
-3.515349
-2.557764
-0.571933
-2.079457
1.686281
0.103696
1.159402
-0.007722
2.849711
0.963416
0.550260
0.689402
1.206848
2.150667
1.577537
1.580555
-0.463289
2.049422
0.779455
1.901031
0.057857
-0.226467
0.229191
0.933446
0.088213
-0.177086
2.763094
0.883243
2.421118
3.149524
0.604657
2.625261
2.995691
0.871113
-0.181930
1.234968
0.961508
1.628462
-0.084611
0.012632
0.116694
2.716407
0.957433
0.101997
0.069575
1.601595
-0.734865
0.878059
-0.484108
1.807134
0.208377
1.941837
2.851492
2.032267
0.979330
0.512685
-0.485746
0.376238
0.667913
-1.730473
0.975687
0.540663
1.366307
-1.638533
-1.862301
-1.574100
0.179172
-0.167996
-0.202928
-0.158650
1.880373
-0.419608
-0.055926
-1.266237
0.502652
0.093456
1.584909
0.828819
-0.190261
0.408721
0.601569
1.086167
-0.607953
-0.242379
-0.888683
0.334406
-1.243841
-0.416642
0.070894
-0.630663
0.417969
1.827742
-0.045653
0.946951
0.817097
-0.371287
0.079671
0.595111
-0.691543
-0.136767
1.653310
0.603670
-0.771447
0.146438
0.729058
1.425733
0.874662
-0.330060
0.958806
-0.546062
-1.635189
0.138296
-1.031648
-1.920603
-0.845216
-1.956666
-3.370696
-3.437313
-3.267511
-1.543311
-3.776531
-2.978722
-3.255029
-2.375760
-3.483925
-2.988357
-1.006252
0.640268
-1.364556
-0.312820
-1.072923
1.442547
2.338635
0.150895
-0.886727
1.266944
0.367086
0.730508
0.940610
0.784391
1.190422
-0.246725
1.248123
-0.819413
2.353945
1.733972
0.380458
-0.187578
0.498479
-0.783479
0.765998
0.707458
0.434552
0.230736
1.610202
0.565225
-0.006798
-0.676152
-0.659997
0.294465
-0.222063
-1.013072
0.650099
-0.787679
1.041408
-0.015095
1.093205
-0.262772
-0.755102
0.320571
-0.437423
-0.456032
-0.058044
0.913859
0.692876
0.146793
0.968698
0.398108
2.985776
1.594334
0.170350
0.474424
-0.135697
2.399974
-1.280113
0.660951
0.237862
0.089727
1.754038
-1.421041
0.583671
1.375974
0.861756
-0.012392
0.244593
-0.173909
0.652731
-0.692226
-0.221249
-0.846580
1.055268
-0.648335
0.348071
1.446595
-0.240278
-0.686570
0.277396
0.695952
0.782988
0.782051
1.028922
0.358583
-0.736939
-0.137614
0.213809
1.418509
-0.052951
-0.747325
1.371550
-0.243254
0.355213
0.597926
-0.021695
0.581933
2.302290
-0.072573
1.375180
1.122175
2.012238
-0.039559
-0.996805
2.291610
0.352072
0.552993
0.875212
0.744549
-0.088017
0.646629
-1.914493
-0.592215
-1.725408
-0.493974
0.854672
-2.954962
-2.628712
-4.566732
-0.943696
-3.926350
-3.121024
-4.557444
-2.814868
-3.469224
-3.590845
-0.874107
-0.227757
1.399248
-0.807694
-0.549748
-0.643523
-0.006158
0.539166
0.839089
2.862642
-0.718876
2.744849
-0.598729
-0.402356
0.225552
-0.291064
0.096296
-0.149506
1.661125
-0.448637
-0.592710
1.309699
1.733658
2.439809
-0.445303
0.720648
0.211223
1.063940
1.805253
3.341058
2.858446
0.623581
0.412260
1.792457
-0.295854
-0.750332
0.935100
1.532721
0.785957
-1.808910
0.464515
-0.201086
-0.786198
0.197913
-0.655261
0.174424
0.295311
0.648606
0.141942
1.061437
-0.506606
-0.844642
0.344017
0.806809
1.374649
0.488107
1.027431
1.961796
-0.283215
0.663926
0.558509
2.102592
-0.457960
0.697542
0.136052
2.087059
0.476977
-1.064513
1.613845
0.067235
1.504537
0.665718
1.877005
0.296251
0.391119
1.057582
0.337362
-0.990507
0.203687
-0.427577
-0.155140
-0.063658
-0.033531
0.749685
1.258723
0.769944
0.130756
-0.701847
-1.316877
0.823483
-0.218099
0.144903
0.940068
1.463079
0.992875
1.387088
0.368728
0.744423
-0.146738
2.826325
0.144242
0.102618
-0.333840
-0.740747
0.008072
-0.237929
2.395501
0.535074
-0.287724
-1.295463
-0.256961
0.461902
0.571006
-0.863356
-0.803986
-0.659246
-1.056843
-2.220598
-1.672062
-4.408960
-3.100018
-3.732337
-3.304636
-4.499523
-3.523115
-2.621443
-3.157609
-3.656003
-1.561949
-2.360836
0.354353
0.247867
0.683336
1.040543
-1.052304
0.827605
0.857098
2.838712
0.811743
-0.418310
0.407179
0.839877
0.117445
0.125427
-0.275355
1.631034
-1.048998
0.708781
1.391391
-0.545524
-0.663485
0.692475
0.691163
0.619317
1.722453
2.721126
1.482214
0.073248
1.143215
1.988271
1.449358
2.002628
1.052035
1.189382
0.455489
-0.052556
-0.745026
0.654680
1.087891
-2.175914
-1.338816
1.978244
-0.012359
1.544079
-0.901368
-1.115276
-0.324820
-0.073518
0.281663
0.982781
2.583343
-0.212772
0.762319
0.873763
-0.023000
1.273546
0.747082
0.586505
-0.619791
0.122090
-1.417013
-0.126228
0.525661
0.278299
0.969793
1.689278
0.693576
2.429747
0.811886
1.210338
0.142633
0.516958
0.840400
0.202025
2.043972
1.602111
-1.219968
0.923880
-0.505143
0.111015
0.671980
0.269248
0.301225
-1.310515
-0.650131
-0.626579
1.465936
-0.225578
1.315806
0.152652
0.267381
1.394853
2.082978
2.629443
0.863866
1.778061
0.007025
-0.058989
-0.427775
-1.577851
-0.258351
1.260346
-0.047835
0.469781
2.035455
1.439748
-0.530831
0.893781
-0.551114
0.157129
0.092664
-0.375520
1.059950
-0.019701
-0.916798
-0.714524
-2.853041
-3.517427
-3.865935
-3.037929
-2.850366
-2.494220
-1.794208
-0.953786
-1.800592
-0.723644
-1.585413
-2.144390
-1.489258
0.990409
1.786709
-0.293204
-1.122898
-0.589633
0.180729
-0.162227
1.828956
0.014771
1.252001
2.106635
-0.008774
0.438859
2.068294
-0.360253
0.418677
0.740933
-0.997725
0.914292
0.959460
1.233581
2.925824
1.614872
1.859076
-0.240961
0.113549
0.569580
0.989142
2.395576
1.736733
2.206549
-0.015562
-0.921422
-0.893212
0.635983
-1.489783
-0.592496
-1.006992
0.531611
-0.165488
0.337432
1.255715
0.239790
-0.233614
1.923784
0.056702
0.209295
0.618964
2.453138
1.543867
-0.989267
0.018369
0.038543
-0.963819
-0.645176
1.494736
0.865853
2.391213
0.339169
1.718325
-0.227589
0.043941
1.110896
-0.333472
-0.446119
0.714200
0.289944
1.746901
1.098641
-0.249842
0.195946
-0.262923
0.295465
0.447648
0.643227
0.715971
-0.899423
-0.123145
-0.013659
0.026990
-1.082619
-0.060875
-0.107072
-0.951773
0.656007
0.023012
1.297878
0.979080
0.636358
-0.159175
1.236612
2.229871
0.649757
0.975544
2.255155
-0.404461
1.169400
0.407293
-0.020364
-0.070167
0.310396
1.247215
-1.061074
0.059011
-0.811943
-0.561999
-0.672186
-0.624461
0.123754
1.268233
0.601259
-0.447155
-1.075897
-0.267790
-0.507577
0.117246
-3.989177
-1.667396
-2.573073
-5.122224
-3.011339
-4.710469
-2.494786
0.134332
-0.817920
-0.645789
-0.935777
-0.314257
-0.667238
-0.171918
1.123371
2.634031
-0.417539
0.482048
1.808590
2.649817
1.333450
0.280895
1.497692
2.012708
1.464257
-0.541436
-0.739625
0.521926
0.886346
0.179034
-0.568802
0.692713
0.503359
0.164180
-0.302300
-1.570718
1.011314
-0.163578
0.035474
0.916800
1.003388
-0.945099
-1.067183
-0.002384
-0.123009
-2.082092
-0.340652
0.589973
-0.362878
0.796763
-0.471242
-0.028761
1.969915
1.086838
2.195670
0.622120
-0.681388
-0.902430
-0.697512
1.068810
1.458502
0.490205
-0.084619
1.010757
1.106597
1.604575
2.337695
1.316987
1.439348
2.010528
-0.040314
3.040616
2.860516
1.467766
0.661292
0.555623
0.812881
1.236831
2.619713
1.704821
-0.795213
1.446863
1.104193
0.615386
1.434936
-1.214577
0.118625
0.450533
0.512722
1.271090
-0.583164
0.642181
0.001046
-0.045873
0.811461
-0.551386
1.512834
-0.984137
1.814315
0.542751
0.547439
1.196611
2.374030
-0.775664
0.301995
-0.519983
-0.415454
1.684279
0.692318
-1.174192
0.960894
0.200951
-1.162252
-0.531293
-0.884393
-1.406121
0.046421
0.219911
-0.560608
0.015104
-1.794988
0.726725
-2.438469
-2.207975
-0.492188
0.436679
-0.301525
-2.791118
-3.932066
-3.923195
-2.323842
-3.508651
-3.656906
-2.802503
-2.325718
-1.008961
-0.548826
0.353824
-1.481840
0.104388
-0.332958
-0.375773
-0.007090
0.969321
2.364546
2.242919
1.373615
1.732734
0.167392
-0.410585
0.605676
0.323923
-0.876922
0.113760
0.102866
1.539842
1.942081
1.341217
1.626667
1.151075
-1.459250
1.010645
1.945418
-1.095904
1.827921
0.201921
2.152398
0.514136
0.223030
-0.733379
-1.118518
-0.239301
-0.493131
-2.669194
-2.180610
-1.722868
0.879959
0.664450
0.011682
0.780290
1.281484
1.337765
-0.329808
1.384299
-0.739503
0.339503
1.916535
0.373429
0.068044
1.289099
-0.398400
0.946508
0.189695
0.771805
-0.485773
1.381929
0.637948
-0.015959
1.320496
0.717654
-0.877768
0.944811
-1.162411
1.321402
1.876144
3.157949
1.361887
-1.088543
0.477576
-0.295292
-1.142346
2.509193
0.276866
-0.017112
-0.218033
2.322542
-0.121667
-0.785939
1.254450
0.966613
1.222603
0.788685
0.310743
2.103382
-0.498980
1.249330
-0.760761
0.223236
-0.099984
0.441912
1.370681
0.879443
0.400777
0.569396
2.791627
-1.801940
-1.323360
-1.213005
-0.429252
0.872533
0.018492
1.381646
-1.784282
0.571693
0.949438
-0.587289
1.197201
-1.171485
0.107397
-2.721128
-0.635050
-1.817897
-1.875183
-0.893418
-1.462244
0.831324
-2.219041
-4.852434
-3.223834
-3.104582
-2.827520
-1.415813
-3.834101
0.114124
-0.853579
0.179626
2.184265
2.096422
0.632042
-1.704542
0.506484
1.822071
0.267125
-0.605622
2.368763
-0.747047
0.540315
-0.038107
1.060629
0.595328
-0.458327
0.430158
0.675862
2.415657
0.613491
1.284714
-0.072581
1.937026
1.049364
-1.095052
-1.197477
0.632940
1.279273
-0.354950
0.422800
0.095808
-0.341222
-0.020478
-0.157346
-0.713517
0.016193
0.350905
0.722458
-0.785970
-0.772390
0.501377
-1.002260
-0.082763
1.036481
-0.460176
0.870609
1.502078
-2.830935
-1.179563
-1.295694
1.056341
0.763973
1.467705
1.927548
0.432628
1.226499
0.841808
-0.138443
-1.533969
2.665137
-1.118485
0.968013
1.390601
0.057943
-0.571843
1.930521
0.706967
0.247697
-0.537633
1.020452
2.564530
0.878929
0.033938
0.525797
0.138122
-0.181312
1.339468
-0.966782
-0.026768
1.229097
-1.372429
1.621278
-0.462337
-2.683522
-0.772008
0.016144
-0.175806
-0.065219
0.620833
-0.539856
0.312348
-0.429387
0.454804
1.482107
-1.291835
-0.458795
0.307182
-0.375396
-0.307675
-1.167644
-0.141587
-0.103109
0.512105
0.420565
-0.172316
-1.950194
-1.932836
-0.625643
-0.091186
2.097739
-0.272725
-0.190248
-0.570365
-1.088853
-1.718616
-1.515389
-1.176374
-1.392336
-1.981052
-3.749541
-3.206893
-3.133842
-2.296156
-0.241418
-1.623363
-1.018672
0.594061
0.567588
0.095069
-0.367657
-0.075923
2.277595
1.565416
0.936063
1.574268
0.086507
0.852647
-1.839374
0.675001
0.149459
1.547481
-0.347721
0.975146
-0.686832
0.152662
1.166186
-1.113202
0.234802
0.693613
0.634546
0.556282
-0.470523
1.874093
0.865287
2.103778
0.547277
1.199794
-0.671466
0.178740
-0.050070
2.381624
-1.252805
1.630628
-0.522956
-0.844533
-1.398832
-0.670987
0.052615
-0.909385
0.015058
-1.604413
0.403037
1.402085
2.124510
1.592756
0.976135
0.716358
0.036166
0.444221
0.464556
1.478415
-0.454069
0.331026
0.982397
1.061755
1.961361
0.789903
0.362886
1.910922
0.330559
-0.269119
2.874948
-0.275475
1.928457
0.975321
0.421193
0.396898
-0.075785
0.741151
2.447068
0.932784
0.637462
-0.980390
1.575590
-1.632989
1.186223
1.294579
-0.008654
0.168985
-0.547931
1.209323
0.056249
-0.862385
-0.075594
0.565241
1.870896
-1.137055
-0.632676
1.465866
1.065969
1.281337
3.014757
-0.229418
-0.135210
-1.294894
0.969321
-0.129504
-0.039255
0.099649
1.594454
-1.492075
-1.181613
-0.064695
-1.260099
-0.647756
-1.409159
0.960611
-0.902245
-0.897883
-0.718020
-1.002349
-0.921537
-0.868974
-2.203591
-1.843202
-0.126954
-1.370335
-2.408030
-3.231542
-3.406034
-1.275398
-0.868418
0.297357
-0.648527
-1.459631
-0.900070
0.171253
0.285669
-0.157254
1.858506
1.192117
-0.038516
1.471794
1.288005
1.562060
1.420757
1.638510
1.948033
0.529238
0.843678
1.875773
-0.651587
0.948473
-0.437266
-1.718864
0.188656
-0.891230
0.848046
1.040709
1.323978
0.283152
0.687417
-2.334022
0.766905
-1.204235
0.234884
-0.257497
-0.398254
1.638163
0.633217
-0.270263
0.007906
-0.275507
-0.106468
0.719622
1.611724
-0.741310
1.113244
-0.158636
-0.563096
-1.277271
1.688840
-0.587573
1.215463
0.008892
0.758913
0.610108
0.368334
1.322595
-1.119172
-0.386551
1.966162
-0.304612
-0.070096
-0.102882
-0.300487
0.509149
1.381157
0.865145
1.489841
3.362236
3.056798
0.300488
0.735675
0.904356
0.800142
1.742627
0.428698
-1.373868
0.956892
-0.924224
1.191100
3.006047
0.327286
-0.348842
0.808910
-0.272987
0.875225
-1.220062
-0.710862
-2.029734
1.197876
-1.797920
-0.064339
1.721981
0.257976
-0.249277
-1.269961
0.239692
0.450180
0.419184
-0.658945
-0.014150
1.609200
0.346530
0.478526
0.369193
-0.824522
-0.444217
1.636147
-0.353085
0.474819
-0.417310
-1.527118
-2.248842
-2.537059
0.754835
-0.948043
-1.728972
0.282291
-1.118335
-2.044109
-0.476322
-1.916498
-0.966840
-1.844638
-2.123608
-1.152067
-1.965251
-1.703789
-0.242088
-0.908962
0.237881
0.412004
1.631208
0.995608
2.005406
2.266518
0.114259
0.910652
3.112123
1.675979
0.887280
1.475511
0.306384
0.927412
0.267594
1.533875
-0.733926
1.275404
-1.397307
-1.097771
-0.321015
2.615075
2.631708
0.794253
0.438097
-0.621786
1.199525
0.173079
0.348361
-0.221170
0.289947
0.027790
0.513214
-0.533447
0.369355
-1.313768
-0.119368
1.390365
0.803177
2.381871
1.200747
2.076955
0.604137
1.008542
0.833611
0.724327
0.419088
0.819608
-0.696384
1.113369
-0.268761
-0.309222
2.516635
-0.333192
1.351464
3.186786
-0.086300
2.263736
-0.605424
2.370791
1.556787
2.867225
1.665778
0.606243
0.005946
1.697602
0.924898
0.983242
0.999227
-0.828781
0.260470
0.456002
-0.658182
1.234121
0.462428
0.741875
0.508223
0.851664
0.832091
0.574045
0.269450
1.291142
-0.299435
0.179437
-0.288977
2.095116
0.633059
-0.298101
-0.901083
0.563642
1.248001
-0.153992
0.183278
-0.105023
0.239367
-0.796077
-0.910358
0.064524
-1.275259
-0.493454
1.804276
0.906676
-2.296993
1.756440
0.141644
2.196707
-1.419036
-1.645308
-0.726483
0.846467
-2.643094
-0.100591
-0.634419
0.611123
0.464461
0.195886
2.442168
-1.732522
0.364505
-0.462646
0.564079
-3.935757
-1.043778
-0.088484
0.221371
-0.045464
-2.241823
-0.579885
0.222748
-0.523424
1.244982
-0.155683
0.361968
2.772491
2.716282
2.920583
1.198881
1.816941
0.465398
1.033472
0.163063
1.920926
1.713952
2.665116
1.362455
0.923672
0.105883
-0.118401
-1.116126
1.476958
1.164897
0.057220
-0.222621
-0.437169
0.649177
-1.920117
0.559178
1.724212
0.073077
0.487827
1.587880
0.078133
-1.268703
0.689346
0.605579
0.020354
-1.047135
1.224407
1.210714
1.105134
-0.449405
0.842433
-0.027704
0.391979
-0.162548
-0.225835
-0.030745
0.300893
0.843792
0.637191
2.123011
-0.890566
0.538284
1.809117
1.163724
1.778612
-0.693522
0.755437
-0.006598
0.748134
-0.910433
0.028068
1.967484
-0.003380
0.148688
1.525172
1.149484
1.020099
-0.074192
2.028522
0.091396
0.185313
2.020292
-0.396626
-0.278734
2.035738
-0.396953
-1.267958
-0.300453
1.354477
1.075338
0.402680
-0.306411
-0.636518
-2.554119
2.006566
-0.704486
0.705689
-2.296530
-0.294537
-0.176262
0.210458
0.811700
-0.170066
-1.074724
-0.260992
-0.383713
1.193758
-0.866060
-0.455685
-0.286606
-0.138057
-2.082505
0.238669
-0.114281
0.099865
-0.408709
0.621904
-0.889915
-0.252690
1.161690
-1.115195
0.395877
0.852884
-1.951085
-0.802510
-1.254620
-0.659982
-0.596148
-2.297448
-2.600080
-0.664369
-2.438543
-0.643470
-0.695055
-0.644482
0.413271
0.691762
1.012233
0.839758
1.862201
1.556451
0.192296
0.664229
1.138845
0.669559
1.184843
2.582620
0.242775
-0.347814
1.880955
1.362857
0.856306
-0.394243
0.159375
0.980924
-0.391103
-0.256603
0.744123
1.759926
-0.210648
0.633752
-0.486924
1.808939
0.823972
1.146938
0.283114
-0.956571
-1.229478
-0.596769
1.363654
-0.260906
0.896125
0.037363
-0.393857
0.705754
-0.158428
-0.575137
-1.710602
-0.229538
-0.396876
1.685007
0.526423
0.794402
1.412812
1.121609
0.194847
1.949771
-0.061655
0.744773
0.932137
1.499232
1.732070
0.424215
1.291001
0.676964
2.325940
1.332800
0.147012
2.170970
1.492710
-0.529468
3.271829
3.322387
-0.613223
1.780901
1.250745
1.359539
0.866857
-0.361908
0.469119
-1.619491
0.453178
0.696755
-0.111234
1.360709
0.374713
1.861300
1.857592
-0.222653
-1.376593
-0.065612
-0.293917
-0.606505
0.279668
0.405710
-0.308756
0.453044
-0.054607
-1.082286
-1.639903
-0.736855
-0.666400
-1.250621
-1.331216
-0.851153
-1.194956
0.665322
-1.423193
-0.353242
-0.089430
0.458311
1.553377
-1.025153
-0.325699
0.443433
-1.504728
0.226706
-0.443567
0.104288
-2.053065
0.794365
-1.261497
1.234783
0.217527
0.052580
-1.582125
-3.735196
0.269959
0.169601
0.692548
0.485194
1.689986
1.579891
0.873736
0.476127
1.878172
1.089743
2.376970
2.145289
0.372045
0.561096
0.102747
0.225406
0.369787
0.638091
2.265784
0.346284
-0.254098
0.953873
0.761043
-1.895029
1.239420
-1.807880
0.107897
1.155073
-1.913518
1.435474
-0.275463
1.244040
0.614640
0.229525
0.993635
-0.384763
1.747678
-0.725603
-0.160620
-1.676109
-0.162703
-1.000754
0.118262
-1.324081
0.963868
-0.888622
1.241152
1.753418
1.073413
0.496744
1.974781
1.822887
-2.269486
2.332657
1.301453
-0.187010
-0.583710
1.872391
1.126002
1.357720
-0.323930
0.188246
2.741425
1.045888
2.537195
2.038833
2.113407
-0.482253
1.595516
0.115408
0.058243
0.789740
1.630486
-0.071754
2.147370
-0.371492
-0.369883
0.991625
2.008741
-0.684269
0.576051
0.560165
1.276683
-0.243921
0.876186
-0.488033
0.869316
-0.303876
1.291639
-0.388596
-1.595355
-1.369838
1.953188
0.532372
2.432974
1.144052
-1.133536
-2.163531
-2.190331
-1.849848
1.362222
-0.085035
1.359784
-0.881688
0.733735
0.200439
0.016491
0.078373
-0.653115
1.039862
0.307372
-1.312676
0.342433
-1.454573
-0.622976
-1.412143
-1.639777
1.227352
0.148476
-0.382965
1.155781
-1.011270
-0.196278
-2.628827
-0.895637
-2.468698
-0.200661
-0.373936
-1.277589
-1.386814
1.853030
0.955067
0.556286
2.867601
0.311702
1.255308
-0.030779
0.105630
-0.704722
0.560510
0.297345
-0.612715
0.692257
-0.655715
0.109479
1.115493
-0.839462
-0.242903
-0.579552
1.397803
2.714829
0.451504
-0.041923
0.548630
-0.815029
0.300091
0.313720
-0.704819
-0.367496
-1.558553
0.201188
1.509454
-0.036341
1.007621
0.269785
1.369009
-0.149162
-0.819158
-0.637732
1.069419
-0.785418
0.173164
0.192653
-0.577376
1.816754
1.573125
0.527306
0.605114
0.150977
2.351748
-0.407334
-0.157745
0.677588
1.973606
1.337814
-0.339279
-0.971382
1.056569
0.921430
-0.285884
1.374294
0.697339
1.626185
-0.252132
-1.091120
1.014946
0.138088
0.360740
0.705087
2.009912
1.240605
1.815165
0.554055
0.249330
0.937776
1.226967
1.064405
2.355844
-0.500789
1.659953
0.738952
0.984552
0.193207
1.649030
-0.432351
2.375995
1.013761
-0.313648
0.628461
1.240242
-1.040137
0.321288
-1.563911
-1.125692
-2.004944
-0.125313
-0.142396
0.601239
-0.463129
-0.889432
-1.165237
-0.879327
-0.345364
-0.005393
-0.381085
-0.157086
1.492744
-0.186158
1.158654
-0.043501
0.370536
-0.262098
-1.133641
0.247923
-1.007037
-0.026392
-1.006826
1.296762
-1.046080
1.005225
-0.878882
-0.779380
-1.454546
0.421877
-1.303967
-0.524549
-0.677383
-0.388128
2.610894
1.535457
0.769515
1.815276
2.023527
-0.155648
2.500660
0.364585
2.059094
1.275705
0.885173
0.912498
-0.135097
0.419355
1.886498
-0.808459
0.752384
1.147423
-1.208727
0.736248
-0.195111
-0.566530
0.229258
0.253307
-1.596070
-0.248302
0.643528
0.488080
-1.235371
1.917505
-0.041620
1.411330
0.906735
-0.252059
-1.190738
-0.010397
2.990498
0.926645
-1.161883
0.728399
0.402357
-0.744985
0.205897
1.977706
-0.478815
2.162416
-0.699397
1.588543
0.959303
0.132390
1.883112
1.471204
-1.473460
2.077039
0.206602
0.795877
-0.062325
0.931127
1.421052
0.385882
1.334951
0.784822
1.903140
1.531767
1.856414
-1.073340
1.697675
1.423817
0.277481
1.558867
1.991747
0.414297
-0.283597
1.469495
-0.749061
0.930074
-1.157656
0.651667
-0.120910
-0.193390
-0.030401
0.838301
1.045409
-0.633311
-0.416520
-1.461135
1.659776
-0.095421
-0.583165
0.081632
1.493023
-1.317149
-2.948753
-0.616905
-1.675206
-2.737406
-2.998275
-0.764498
-0.631602
-0.825570
-0.758956
-0.035662
-0.896122
-0.924675
1.090562
0.620988
-0.528872
-1.369286
-0.528392
1.601937
0.423872
-0.819960
0.547298
-0.066599
-0.128132
-0.394675
0.229054
0.227726
-0.803412
-1.362988
0.663148
-1.763781
-0.985878
-0.838708
2.074523
1.647223
-0.249034
2.941467
0.259031
2.185094
0.979415
-0.249465
1.311728
1.726474
-0.109004
0.658063
1.033529
0.928262
1.790950
-1.160769
-0.030513
-0.796914
-1.744303
2.736840
0.826724
-1.142785
0.213583
1.171111
1.232642
1.885394
0.869328
1.588863
1.002550
-0.581341
-0.673133
0.876733
-1.459692
-0.066875
0.404095
0.762560
0.109667
1.780859
0.337277
0.910983
0.180374
1.083964
0.829277
1.723733
1.366812
1.785122
-1.605628
1.308018
-0.204932
0.145794
0.727695
0.232305
2.891172
0.067211
2.355538
1.869291
0.804627
2.824616
1.517632
-0.292578
1.761237
0.340828
3.381079
-1.757540
-0.401063
2.019928
3.015580
-0.650862
0.080299
-0.885566
-0.337170
-0.706868
0.313477
1.090193
1.107273
-1.001216
-2.809815
0.580663
0.536448
1.332391
0.635290
1.890243
0.503028
-0.312366
-0.434503
-1.413805
0.095871
-1.448008
0.294517
-1.320532
1.657517
0.239818
-0.830160
-0.787900
1.573658
0.848309
-0.760556
-1.050436
0.024571
0.476859
-0.585458
-0.693700
0.231721
0.892873
-0.372320
0.871029
1.035825
-0.619436
-1.272346
-0.861728
0.079112
-0.652075
-0.443935
0.050356
1.082849
0.718830
1.485851
-1.615327
-2.303131
-1.812267
-2.155839
-1.440015
0.571396
-2.257075
0.030486
-0.133845
0.986236
-1.045069
-0.793058
-0.198529
2.706426
0.653206
0.951866
0.720138
0.159346
0.870564
0.919023
0.794842
-0.234998
0.873005
2.334575
2.488727
1.179940
2.282365
2.704875
0.514619
1.449455
0.246913
1.025697
-1.626274
1.717313
1.612765
0.365271
0.011935
0.156062
-0.767204
-0.370196
-0.856337
1.289025
0.659976
0.817564
-1.304124
-0.051155
0.310973
0.453035
1.292710
0.352850
0.316652
-1.015942
-0.949162
-0.531609
1.430661
0.850652
-0.961471
-0.010962
0.745951
1.155339
1.200713
-0.823314
1.898176
2.779908
1.607144
0.039290
1.348398
3.604273
2.718193
0.461549
2.066569
0.762240
1.324441
1.662827
0.691402
1.034772
1.621281
0.856723
0.362248
1.565298
2.504627
-0.404374
-0.834964
-1.275819
1.100011
-1.234165
-0.134715
-0.999540
-0.349663
2.461416
0.954740
-0.501426
0.144013
0.598170
-0.847487
0.506529
0.080759
-1.789075
1.305920
-0.695075
0.067701
0.330484
0.791210
-2.155560
1.764200
-0.042172
0.238541
0.913056
0.351170
-0.613898
-1.264476
0.331400
-0.124553
-2.044447
1.156772
0.609928
-1.132756
-1.086798
-0.357096
0.143651
-1.178096
-0.557390
0.006475
-0.151829
0.774645
0.556142
-1.342861
-0.499023
-0.961306
0.020036
0.025591
-1.196138
-0.458269
-1.685450
-0.902705
-2.209094
0.345593
-1.919272
0.548281
-0.505668
2.480272
2.539410
1.611890
0.306477
1.858556
0.897780
2.951570
1.055031
1.727702
1.981036
1.528131
0.672588
0.255690
3.544969
-0.661563
0.092549
-0.569901
2.188468
-1.490853
2.383231
1.184429
-0.100625
-0.474356
-0.775120
0.578681
-0.855922
-0.282147
0.237983
1.647635
0.174605
1.102499
0.405775
1.125410
1.808569
-1.392563
1.075628
-0.245223
0.390468
0.620415
0.617250
1.085802
-0.321467
-1.050445
-0.013168
0.128385
1.228081
1.251937
-0.399077
0.819179
-1.276523
1.867686
2.856923
1.135307
0.581927
1.158315
3.508244
0.719235
0.132315
1.847566
-0.578449
-0.634975
1.430571
0.912245
-0.134535
0.732670
1.009781
0.560540
2.252635
-0.999625
-1.834495
-0.364353
2.645180
1.494009
0.558052
0.389863
1.145181
0.266033
1.454839
0.046726
1.722299
-0.621024
-0.786232
0.498046
0.654718
0.236035
-1.429093
-0.017305
0.895976
-0.478207
-1.805131
-2.006521
0.300061
0.262679
-1.634463
-0.280830
1.598200
-1.565478
0.273144
0.275580
-2.110346
0.262978
-1.703431
0.676970
-0.544427
0.643838
1.812413
-2.240680
-1.760602
1.645770
-0.260463
1.680759
1.223926
-0.041772
-0.124996
-0.218377
0.243102
-0.918963
-2.046491
-1.444332
0.943591
-0.674480
-1.200707
0.831523
-0.459390
-1.027958
0.250000
-1.622781
1.370294
1.712177
0.899950
0.792587
3.804141
4.045728
2.594087
2.421577
0.654734
0.117969
1.982829
3.507903
1.522559
1.618017
1.931980
1.538154
1.425564
0.266676
1.091270
-1.545754
1.715411
0.574547
1.312786
1.351788
-0.743250
2.269471
0.507718
2.845115
-0.201989
1.841053
0.478448
-0.314889
0.040312
0.574060
0.393950
0.674962
-1.007289
0.243646
0.820932
0.743232
0.795823
0.076277
-0.468936
1.848421
0.997786
0.713763
0.150304
0.448514
-1.224406
-0.046904
0.349739
1.704510
1.474276
0.943897
2.149888
1.146823
0.881022
1.546017
0.588292
-0.500021
-0.227370
1.594137
0.629190
0.650951
-0.215641
1.207382
-0.767925
1.428438
1.299093
2.122023
1.222110
-0.337631
1.338028
1.244004
2.126329
1.959273
1.597457
0.402637
1.319167
0.690828
0.491324
-0.520407
-0.133123
2.221465
3.336096
0.219944
2.096043
0.973931
0.497737
2.441345
1.887160
-0.165927
0.083301
0.591350
0.124367
0.539348
-0.800717
-0.917107
1.482022
0.526135
1.230809
0.776354
-0.174980
0.374346
-0.500754
0.354851
-1.341088
0.286832
0.245528
-1.486006
-1.958956
0.005082
-0.927225
-1.552571
1.492645
-0.574206
1.882121
-0.192629
-3.129880
-1.391686
-1.684295
-0.468231
0.016625
-0.525036
-1.023903
-0.907472
-1.108445
-0.523324
-0.506973
-0.073088
1.446788
0.742221
1.738840
1.851600
0.979860
2.620412
1.694956
1.509349
2.033137
1.844109
1.970229
2.466068
1.720016
-0.281220
0.876307
-1.079245
-0.814104
0.457789
-0.038955
-0.215239
0.763786
0.297379
-0.375063
-0.447025
-0.704128
0.739183
0.495998
1.116393
0.848211
1.092719
0.524266
-0.783084
2.021172
-0.333591
0.176711
0.360176
0.461844
-0.219722
1.139394
0.504459
0.972513
1.994610
-0.356587
-1.054484
2.359709
0.969046
0.750001
0.673728
1.522339
2.405109
1.004803
2.130764
2.585784
1.419314
1.536746
2.279521
0.862097
3.228988
-0.089738
0.270181
0.713278
2.115469
1.551341
0.579075
-0.303441
-0.303069
0.866561
0.873447
1.042306
1.732818
1.469571
1.870893
-0.538033
0.550257
-0.772881
-0.718816
2.112932
-0.815500
-1.238476
1.200882
-0.490650
0.315656
1.740157
0.295477
2.096409
0.646361
-0.049260
1.602795
-0.240519
2.148515
0.487139
-0.236401
-0.671063
-0.379291
0.121333
-0.252112
-0.172909
0.659509
-0.200137
-0.295548
-1.052604
-0.782961
0.680306
-0.768660
-1.237695
-1.128719
1.096829
-1.383704
-0.703227
-0.890932
0.480464
-0.667450
-1.092251
0.815304
-1.638220
1.080036
-0.500166
-1.866289
-0.318876
-2.485528
1.314446
1.140841
0.339576
-1.608625
-2.152784
-0.685555
-0.319380
3.115301
2.733109
2.362425
-0.046868
2.045241
0.057100
2.216657
-1.157504
0.347662
0.358888
0.755985
1.866155
1.360011
1.885417
1.938335
1.568807
1.449769
2.560262
0.775997
-1.467344
-1.708054
0.423811
-0.434084
0.239463
0.107683
-0.023666
-0.539264
0.341924
2.189080
-0.168264
-0.255489
0.327988
2.080554
-1.256441
3.342014
-0.634168
1.925647
1.074213
-1.121678
1.436563
2.155834
2.173101
1.537350
0.300872
-1.141603
-0.161157
0.698323
1.733503
-0.253941
1.294489
1.507403
-0.367152
1.607380
-0.651501
1.149314
1.771834
0.955197
0.690901
1.646998
1.816582
3.185624
-0.501298
0.491708
-0.456593
0.810480
2.210273
0.982420
0.377782
-0.855893
0.061254
0.386835
-0.215626
1.722601
0.964410
-1.343735
0.586038
-0.016606
0.730348
-0.909405
-0.208245
1.330189
-0.289561
1.109832
-0.809139
0.894652
0.744142
1.500200
-0.481567
0.268940
0.402094
-1.504407
-0.720197
0.799247
1.130302
-0.033390
0.555242
-0.182422
-1.294793
-2.369976
1.048428
-1.196109
-1.009083
1.331335
-0.735419
1.588833
-0.532608
-1.824437
-1.518869
-0.539190
-1.746922
-1.363491
-1.448320
0.639511
-0.618744
-1.383312
-0.197510
-0.036627
-1.822379
-1.309958
-0.447596
-1.232458
-0.228658
-0.632936
-0.008673
-1.116661
-0.091799
-1.563701
-1.793374
1.128194
1.899084
0.080777
-0.837237
-0.036535
0.943104
1.432648
0.433768
0.996618
1.137921
1.548594
0.254567
1.603686
1.647244
1.216441
0.482881
0.747610
0.764120
0.447906
0.901613
0.496187
-0.573719
1.399216
-1.489242
1.310048
-0.554326
0.514046
1.852994
0.752604
0.586714
0.310196
2.822925
-0.405975
0.397787
0.798491
0.629653
1.032607
-0.536018
-0.313844
0.737525
0.487691
0.537143
-1.627903
-1.652535
1.726616
1.767322
0.255524
0.843131
0.877999
0.265405
2.050048
-1.633439
0.606897
2.525587
0.844614
0.692967
1.620340
0.236949
1.543690
0.561726
0.785635
1.772684
-0.030973
0.444973
1.025233
-0.606920
0.313997
2.521397
-0.128171
2.376005
0.436935
1.344242
1.473431
0.408741
-0.289229
1.093265
1.243690
1.482468
0.772217
0.297869
1.039117
-0.363893
2.741711
0.372593
2.757178
1.993085
0.724648
1.598123
0.333890
1.873425
1.221722
0.006621
0.667273
-1.542316
-0.490330
-0.589521
-0.880666
-1.704373
0.599601
-0.751107
-0.254189
-1.107705
-0.627471
-0.234259
0.382830
1.633388
-0.247463
-1.586201
-1.415966
-0.970853
0.246836
-2.248720
-0.127435
-0.960418
-0.527243
-0.424268
-1.986323
-1.139722
-0.686192
-0.841182
-2.062786
-1.468773
0.482420
0.199031
-1.586361
-2.079481
-0.127830
-1.197384
0.793859
0.652481
1.318039
0.980129
1.748785
1.934863
-0.127931
1.389926
-0.257372
0.606325
0.898377
1.659165
0.469434
-1.121550
0.972921
-1.426850
2.325670
0.270053
-0.766903
0.924970
-0.948330
0.094504
0.324778
1.987044
1.743668
1.383280
-0.606704
0.362972
0.332150
-0.663713
0.577456
2.214831
0.275722
0.711243
0.539156
2.212818
-0.302316
-0.561764
-0.541949
1.031910
-0.834957
0.059739
2.344483
0.906576
3.035296
-0.761488
-0.078766
0.125094
1.099753
0.167125
1.360255
0.504887
1.669088
0.215564
1.256984
1.480330
0.423180
0.833010
0.200899
-0.154791
1.233513
1.259620
2.031538
1.278233
0.791115
2.137623
0.541450
0.203449
0.682671
1.728779
0.798589
1.328590
-0.372913
1.679820
-0.267287
-1.062428
-0.195562
0.410982
0.066291
1.059547
-0.369326
0.232182
-0.337306
1.386821
0.646071
0.830794
1.625510
1.219339
1.630828
-0.038690
-0.412600
1.296636
-0.185909
1.008330
-0.417745
0.996672
1.405768
-0.187426
1.515668
-0.363382
-0.564373
-0.073096
0.268636
-0.103743
-0.785413
-1.931550
-1.495925
-1.946200
-0.967184
0.504929
-0.494425
-1.985255
-0.976389
-0.667605
-0.680407
-1.386931
-0.566481
-1.693885
-0.229727
-0.925264
-1.079323
-1.683047
-1.474535
-1.787659
0.735143
-1.952114
-0.196250
-0.711429
0.957157
0.911305
0.642148
1.733252
1.004333
-1.462471
1.957086
1.479096
3.987033
1.063801
0.713763
-1.217055
1.197194
3.801044
-0.060739
-0.130694
2.237100
0.796639
-0.496669
1.061915
0.641370
1.956244
-1.602797
0.745948
0.103651
0.012966
1.173894
1.102008
0.297739
0.259432
-0.986364
-1.483339
0.371619
-1.368239
1.430454
1.025868
-0.084854
1.146413
2.138395
2.066447
1.667059
2.671895
-1.301557
0.900306
2.277936
1.662501
0.200214
0.535672
0.522207
1.723013
2.021935
2.644759
0.167215
2.236775
1.374884
0.864594
0.943359
1.298899
-0.252575
-0.846151
0.341280
0.737599
1.783666
0.305245
1.417816
0.802331
0.113338
1.326651
2.764690
3.354867
0.184867
0.908339
0.197441
0.691931
1.343793
1.811934
-0.041480
-0.151601
0.915267
0.591616
-0.204678
0.905428
1.966421
0.708021
-0.407144
2.527219
0.266082
1.473447
1.710318
0.669216
-0.217085
1.415647
0.281812
-1.413331
-0.961586
-1.193865
0.874571
-1.319753
0.273931
-0.743683
-0.150374
1.874266
-0.992041
-1.522416
-0.931037
-0.911095
-0.347987
0.074193
-0.548368
-1.767222
-2.056007
-0.441371
-1.028283
-2.927328
-0.774674
-0.263974
-0.411074
-0.308304
-0.007103
-1.050607
-0.579491
-0.894772
0.431096
1.143336
-2.364905
-1.093639
0.566696
1.060455
0.538355
1.609183
1.484675
-0.409911
0.443457
1.183385
1.540557
1.560708
2.148102
2.669432
0.384975
1.767828
-0.467441
0.472986
1.544667
0.169358
-0.836179
0.403967
0.867774
-0.223769
-1.001521
-0.073233
-0.271673
0.328768
1.159620
2.614373
-0.687463
0.146480
0.393220
0.117661
0.926734
1.335465
0.843253
1.093668
1.601061
1.693282
0.057647
-1.518904
-0.363049
-1.267592
1.619829
0.282748
0.349544
2.004903
-0.911579
0.317665
-1.465895
0.385201
1.454561
-0.861817
2.108867
-0.180963
0.681455
2.661378
-0.653719
0.625096
0.594516
-0.260595
1.443231
-0.524743
1.342870
1.942346
0.803761
2.444012
-0.693394
0.151149
0.693531
1.456201
0.461143
1.983667
0.482963
0.571715
-1.017397
1.412904
1.337693
-0.149028
1.936722
0.244567
1.625141
0.914728
1.557704
2.651442
1.607793
-0.803406
0.651341
2.689022
1.341237
1.054890
0.493498
-1.297128
-0.056301
-0.490091
-0.841836
-0.119221
1.568757
-0.278682
0.250390
-0.108301
0.422764
-0.158182
0.843170
1.866921
0.697243
0.366227
0.018594
-0.762825
-0.641381
-1.254987
-0.934611
-0.977961
-0.945381
-1.142099
-0.658141
-0.577290
-1.104088
-0.818443
-3.100661
-0.819450
-0.826402
-0.847014
-1.254093
-0.861877
-1.116154
-0.921796
-1.804064
-0.035694
1.451037
0.603911
-0.094862
2.015329
1.253699
0.688642
-0.445491
2.175938
-0.121648
1.104828
1.054579
0.660504
1.063915
1.280960
0.462330
0.607905
0.220679
-0.833798
-2.591543
-0.201331
-0.046949
0.509997
-1.653878
-0.383188
0.806046
2.263204
0.268023
0.650504
0.242627
0.785976
-0.686187
0.500206
0.705903
1.721982
0.223317
0.626888
0.420159
2.658727
0.400898
1.308316
-0.272733
0.502524
-0.095952
1.156301
2.466188
-0.210232
1.732955
0.131851
1.051094
1.394957
-1.103141
0.742124
1.136272
0.464048
0.531193
-0.315245
0.965732
-0.575968
0.037459
1.039249
-1.121630
-0.439287
-0.310771
2.784609
0.675091
0.246231
0.118694
-0.612515
1.499350
0.547622
0.480132
0.340749
0.692123
2.807597
2.150614
2.122549
0.818446
1.245054
2.130974
2.184509
0.663794
1.254602
1.286088
2.672522
1.861165
1.052804
-1.116769
0.041769
-1.150302
0.788213
1.084521
0.517524
0.703311
-0.380970
-0.062747
0.048830
-1.026341
0.393472
1.594612
1.279699
-1.197550
-0.222556
0.601517
0.348689
1.595918
-0.698639
-0.725332
-0.681115
1.491377
-1.768240
-0.939407
-1.213317
-0.691430
0.582247
-0.581641
-0.883315
-1.248886
-1.672080
0.646862
-1.356565
-0.999782
-1.068697
0.033449
-0.581704
-1.333369
-0.807985
-1.237153
-0.586783
0.276522
1.135353
1.072316
2.049840
1.709398
-0.562848
0.970391
-1.163797
-0.398340
-0.064516
0.244278
-0.334076
0.024673
-0.573235
0.466915
0.057582
0.879791
-0.947632
-0.155244
-0.282741
-0.699971
2.375926
-0.714355
0.407573
2.335162
0.354922
2.581751
-1.492624
-0.720036
-0.399071
0.684447
0.625698
0.518727
1.185674
2.660581
-0.374462
0.957777
0.486805
0.658270
0.526111
-0.597870
-1.533842
1.341722
1.578652
2.495232
-0.475602
1.248949
-0.037592
-1.030590
0.493700
1.731696
0.978234
0.581896
0.068036
-1.070489
0.941326
-0.183096
1.974842
-0.134099
0.349640
1.141991
1.881789
2.060492
0.145624
0.568810
-0.141361
0.156180
0.627873
0.065931
0.885986
0.243564
0.096862
0.809802
0.212763
2.410274
0.172350
2.839785
0.003070
1.146174
0.159624
1.751247
2.040168
1.650536
0.693654
0.391029
2.506803
-0.559236
2.213265
-0.712339
1.400464
-1.201450
1.002073
0.591653
-0.945310
-0.102409
-0.764138
-2.127645
1.926544
-0.011526
-1.272775
1.275435
-1.431499
1.770875
-0.553297
2.332530
1.230918
-0.284425
0.027473
-0.157251
-2.173860
-3.207148
-2.805599
-1.641637
1.223498
-0.306650
1.288123
-0.872299
-2.119434
-2.403922
-0.817956
-1.043393
0.292917
1.128770
-0.374434
-0.937787
0.747416
-0.480576
0.957665
1.362962
0.334589
-1.005201
1.879993
0.106186
0.505256
0.449910
0.659945
-0.954914
0.602813
2.342420
0.295110
0.223588
1.630187
1.330529
0.316025
1.003378
-2.213823
0.208557
-0.724938
-0.298375
1.176880
2.181877
1.513206
0.652665
1.271539
-1.016385
-0.266102
-0.796813
1.551974
-1.049380
1.419679
1.453518
1.147248
1.277463
1.188357
1.399546
0.443113
-1.192168
1.741393
2.189067
1.663351
-0.526604
1.722878
0.461774
0.767468
1.538847
-0.510025
0.712206
0.743510
-0.581181
2.008263
1.738357
1.096072
-0.638536
1.367770
0.041818
-0.428106
0.394034
1.442920
0.343376
1.064379
-1.429300
1.112703
2.127475
1.655560
0.970061
1.662958
0.687208
-0.246795
0.497760
-1.591978
0.281079
0.646134
0.478703
2.091825
2.294113
-0.123309
2.810887
1.511640
1.175624
0.932527
1.024666
0.297354
0.790197
0.478738
-0.761142
1.422584
-1.416307
1.238581
-0.222618
1.362905
0.737041
0.236491
1.107831
0.135606
-0.040640
-0.819831
-1.978057
0.077787
-0.215908
-1.271337
-0.136190
-0.272909
0.739956
-0.181402
-1.627704
1.235068
1.191987
-1.633697
-1.798897
-0.494037
-1.243587
-0.753533
0.084853
0.836719
-0.491448
0.983452
-0.539301
0.954532
-1.468921
-0.015945
-0.096550
-1.382946
-0.055857
-0.373998
0.010863
-1.180851
-0.292148
0.558845
0.029132
-1.333061
1.340664
-1.186832
1.026424
0.120345
-0.289415
-0.179771
-1.220270
0.134725
1.809573
0.008460
0.924121
-0.296533
-0.013947
-0.583873
1.063100
-0.000071
0.651195
0.240230
0.263185
0.091531
0.642847
3.009197
1.282444
-0.000881
0.761793
1.141572
0.881738
-0.483732
-0.686044
0.220535
2.151045
1.110993
1.139213
2.394794
-0.960124
1.272875
1.565496
2.169806
0.356174
0.174718
2.101374
2.612206
0.110426
0.171959
-0.035187
-0.811675
1.495428
1.555356
1.049508
0.239943
0.715810
-0.156829
1.486915
0.537604
0.393440
1.200543
1.567149
0.206374
1.740764
1.697808
0.180893
0.696863
1.627104
1.302363
0.122050
1.492677
1.185856
-0.508106
-0.467316
-0.428573
0.770807
-0.308102
1.779636
1.696644
1.834851
-0.173735
1.497244
1.336344
1.627737
0.469534
-0.582165
1.986270
-1.004274
0.190752
-1.271245
-0.008366
-0.253753
-0.952033
0.208821
1.019706
0.147028
0.500355
-0.788104
1.001641
0.629989
-1.023132
-0.179304
0.605270
0.409486
1.956628
-1.710521
-1.225347
-2.212370
-1.187710
1.014571
-2.189777
-1.414598
-1.520484
-0.961029
0.487776
-0.646613
-0.758837
1.004321
0.936478
-1.553355
-0.118872
-1.760240
-0.233516
-0.767589
-2.544410
0.174250
0.104718
1.436772
-2.299380
-0.134078
1.294570
-2.019447
0.654444
-2.093742
0.874887
-0.213494
0.168226
2.911646
-0.910433
0.929537
0.226847
0.852766
2.673993
1.383558
0.744045
0.359755
-0.797823
-0.621079
-0.621920
0.751436
0.584879
0.605391
1.979096
1.393332
-1.605574
1.429797
0.701372
2.355212
0.675761
-1.370218
0.926911
0.811045
-0.618710
1.988446
-0.359903
0.400255
0.520824
1.919454
-0.914408
-0.714655
-1.104623
0.832658
0.736832
0.118616
-1.153273
-0.728991
0.750987
0.655419
-1.733368
0.325495
0.500029
0.784572
-0.004664
0.428627
0.196569
2.068105
2.581437
1.689289
0.687706
-0.208672
1.417799
0.781296
0.151904
-1.967385
-0.690152
0.296918
0.400463
1.521876
4.032786
0.455375
0.294740
0.346876
0.452054
0.382894
0.274628
-0.678709
0.975104
1.288215
0.677614
1.521490
1.665010
0.372647
0.541814
1.027665
1.526702
-0.521703
-0.457299
0.236699
0.359012
-0.433939
-0.873831
1.227015
0.700152
-0.836511
-1.862511
0.633420
0.779861
1.850876
-1.591067
-0.809278
-1.568922
-0.862721
-1.923459
-1.440252
-0.441032
-0.270023
-0.577020
-0.126062
0.279191
-0.115537
-0.538521
1.502499
-0.306856
1.059169
-0.869533
1.555115
-0.844463
-0.418239
0.145983
-1.699119
0.544988
-0.785912
-1.307880
0.920416
1.692953
0.267663
-1.029036
-0.251346
0.084239
0.550713
1.107735
0.567119
-0.144315
1.207874
1.004725
2.290571
-0.024051
-0.543935
-0.081034
1.019197
0.615761
0.953077
1.188394
-1.868958
-0.165898
1.175656
2.495590
0.477293
1.446118
0.136629
-0.144989
0.009543
-2.081503
0.208931
-0.248785
1.287794
-1.466101
0.532052
-0.065013
-1.709071
0.971954
0.574109
-0.775115
1.576105
0.807939
1.736433
0.317389
-1.208854
0.202384
1.185293
0.174962
0.390868
-0.664383
-0.861088
-1.101936
-0.341598
-0.089904
0.282601
0.631040
-1.037647
0.689800
-0.714345
0.395591
-0.084039
0.377591
2.403320
3.365824
1.320540
-0.192053
-2.197916
-0.879557
-0.495586
1.736586
0.135515
1.124213
1.727060
0.782353
-0.074812
-1.657153
2.348249
1.907465
1.400254
0.681611
0.371367
1.860782
1.654634
0.126825
1.766512
-0.514518
1.073636
1.167027
0.557233
1.064643
-0.491497
1.716392
1.103584
-0.837290
-0.020290
-1.784326
-0.220551
0.781425
0.150594
-1.051498
0.269614
-1.272710
0.264535
-0.469623
0.536189
1.401061
-0.565604
0.758425
1.194360
-0.718169
0.839422
1.144664
0.064895
-0.740121
-0.058774
-0.218827
0.135126
0.377874
0.067471
-1.061536
0.414425
-2.625854
1.136881
0.845591
-0.306642
-0.735761
0.707590
1.319478
0.168993
0.060340
-3.105517
0.598388
-0.167022
-0.493337
-0.114687
1.740096
1.224192
0.192128
-0.125058
0.987454
0.831344
1.642427
-0.646434
0.743813
-1.577215
-0.692979
0.032213
-0.135384
-0.233901
-0.025356
-1.425513
0.522185
-0.357180
0.723052
-0.507178
1.024084
-0.467529
-0.361675
-0.987156
-0.908696
-0.247472
0.330888
0.141424
-0.954990
0.136923
1.119627
0.190957
1.214208
0.649119
0.258915
0.517730
1.195209
1.468071
0.676858
0.820589
0.497598
-2.540732
-0.659138
0.952228
-1.348288
-0.064984
-0.243116
1.375825
0.590427
0.701199
0.314283
-0.555258
0.688523
0.649213
1.232251
0.515342
1.626888
1.650096
0.758297
0.600814
-0.529012
1.577298
-0.566189
3.674693
2.759901
1.873582
-0.362478
-0.661999
0.197994
1.059019
2.070675
-1.406003
-0.041689
0.636682
1.956060
1.089658
0.930050
0.751002
0.062281
0.991392
0.094314
0.176280
-0.036588
-2.153875
-0.678692
2.392080
0.408428
-1.040642
0.691774
1.225092
0.205341
-1.178864
-0.205614
-2.562598
-1.253183
1.240069
0.156430
2.174331
0.510029
-0.285039
1.334077
0.904488
-0.343958
-0.545847
-0.494715
-0.807029
0.000834
-0.417822
-1.189052
0.426211
-1.208840
-0.772509
-0.305308
-0.906827
0.353810
0.265596
0.453180
-2.109505
0.309483
-0.250282
0.021828
-0.329644
-0.744546
0.035411
-0.555865
1.414505
0.876068
1.208901
0.347765
-0.214296
2.786917
-0.376782
0.743183
-0.901244
0.268859
0.613931
0.785986
1.099113
0.074586
1.117518
0.421095
0.264056
0.323257
0.123992
2.794630
-0.803559
-0.078496
1.184865
1.762265
-0.359926
0.652675
-0.917849
1.018765
-1.410259
-0.758902
-0.113541
0.409564
2.117994
1.683495
-1.264502
-0.342786
0.948604
0.402812
-0.028609
0.662660
-0.878947
0.292258
-0.291252
-1.247753
-1.132416
0.007395
-0.857348
-0.370308
-0.967310
-0.409800
0.246082
-0.199913
-1.564591
0.003866
0.410548
-0.017546
1.395107
0.909091
0.267733
-1.073186
0.562281
1.214446
1.438859
-0.719385
0.037756
-0.729911
1.739019
-0.851423
1.142022
-0.056737
1.533569
2.533659
-0.939215
1.706765
0.465793
1.342453
0.494636
2.524907
-0.737991
-1.228282
0.623652
0.514847
-0.170251
-0.600130
-1.491092
-0.187549
-0.608969
-2.477345
-0.940473
-0.144512
0.616603
-1.341711
1.859600
0.174566
-0.293929
0.253431
0.450033
-0.447080
-1.523945
-0.453981
1.386480
-0.256589
0.579315
0.459757
-0.079102
-0.175619
-1.742018
0.172050
1.753780
-0.757878
-0.619605
1.056148
-0.581948
-2.138263
0.062021
-0.782407
0.732685
0.023775
-0.445929
-1.355132
2.162001
-0.459538
-0.293033
0.183295
0.161439
0.972491
0.896658
0.390438
1.601167
0.053614
0.371470
1.313239
1.164299
-0.716294
2.358482
0.942360
-1.889824
0.008724
0.334908
-1.063186
-1.678054
0.209246
-1.263958
-0.585358
0.358210
0.417942
-1.018801
-1.546580
0.435173
-0.364272
0.474675
2.550341
-0.278679
0.066911
0.728790
0.882078
0.309818
-0.195853
1.029600
0.074351
0.263176
2.874499
-0.638738
-0.630712
1.644398
1.346172
0.358601
0.346943
1.456813
-0.870167
0.757753
0.323239
-2.307194
-0.249423
1.305939
0.867874
-0.689334
-0.033867
0.278049
0.247561
0.409632
1.135120
2.413002
1.188174
0.737770
0.823805
0.528371
0.757727
0.759082
1.283822
1.192551
0.755485
1.235550
2.282819
0.604862
2.284075
1.357779
-1.212074
-0.282865
-0.440517
0.755823
2.539827
1.074749
0.520455
1.429870
1.377324
-0.923675
1.053638
0.201268
1.412210
0.311204
0.519596
-0.341635
-0.166757
0.591957
-1.012241
0.293384
0.991497
0.939866
0.152094
-0.267162
1.823023
-2.046552
-0.869914
0.706678
0.010842
-0.006896
-1.323624
-0.807277
0.016221
1.766169
0.801155
-0.687861
0.077674
-0.947548
-0.355530
-0.290542
0.920378
0.023403
0.172381
-0.877933
0.260386
-0.390683
0.477623
-1.389503
1.293609
0.308494
-1.101854
0.014852
0.706252
0.713640
-1.218073
-0.102746
0.207193
-0.512012
-1.511107
1.642491
0.108922
0.725028
1.079996
1.662563
1.133852
1.258944
0.563324
1.117662
-1.703951
-0.557666
0.578417
-0.089939
1.217378
1.898276
-1.344972
0.825211
1.939148
-0.861185
-0.100065
0.252617
1.088498
0.357975
2.534870
-0.987481
1.498382
-0.091042
1.707845
-1.029973
1.234305
-0.275035
-2.099576
0.355382
-0.139521
0.505398
-0.052815
0.253085
-0.342517
-1.806236
0.225658
-0.222840
0.218758
0.533665
-1.634314
0.378758
0.343900
1.695260
-2.813307
-0.112395
0.395155
1.168226
1.079501
1.216015
3.510982
1.717960
-0.441369
-1.204616
1.096237
0.594227
1.930535
0.171370
0.499231
1.526259
1.041015
-0.165305
-1.079932
0.167211
0.566444
0.765789
0.114604
0.071069
-0.168521
0.240940
-1.903312
3.249534
2.175758
1.235279
0.496791
1.415988
0.583233
-0.733672
0.896519
0.040376
-0.777208
-0.625196
-0.857077
0.342161
-0.374249
1.119087
-0.033085
1.371674
0.467065
1.399440
0.584429
-0.136265
-0.073198
-0.434211
0.163984
1.023839
1.317730
0.813468
-0.980021
-0.156840
-0.214700
0.059613
1.029527
0.932152
0.032174
-0.093197
-0.230746
-0.514738
0.386197
1.683197
0.341229
-0.409166
-1.049738
-0.069434
0.037952
2.220562
-0.426299
0.141511
0.761952
0.520203
-1.340198
-0.421446
-1.226012
0.779313
1.724578
-0.197116
1.058316
0.689355
0.226570
-0.185251
-0.498435
0.991012
0.118512
1.750289
-0.634676
0.442496
-0.785322
-0.057602
-0.227997
0.407384
1.165924
0.663791
0.754947
2.090960
0.505747
1.006817
0.662594
0.971757
0.176462
-0.496371
-0.741740
0.690420
0.597466
-0.681712
1.758911
-1.637239
0.344787
0.104135
0.407361
1.668847
2.328924
1.300038
1.871782
0.419849
-0.311251
-1.055830
0.227713
-1.305473
-0.122086
0.019384
1.742990
-0.852009
0.279794
0.608402
0.146642
0.578284
1.434455
-0.408697
0.116308
0.086540
0.975668
0.005969
-0.015531
0.578106
0.397911
-0.170926
-1.249023
-0.644256
-0.247332
-0.398758
1.386124
1.272520
2.095087
-0.122144
0.752519
0.802973
1.254452
-0.545979
-1.083490
2.005825
-0.045983
-1.177971
-0.280988
0.120107
0.809748
0.057317
1.757633
0.911672
-1.263888
-1.037986
-2.435828
-0.871245
0.204174
0.066595
3.043303
-0.137184
1.538945
0.248954
1.715713
-0.589579
-1.390592
0.602889
0.092547
0.509254
0.398542
1.348042
1.701925
-0.209373
0.871830
0.753715
0.076293
-0.221424
0.529356
0.528463
-1.336079
-0.384173
-0.802273
2.169652
0.902230
-0.257871
0.251717
-0.259059
-1.631839
-0.011486
-1.050197
-0.115767
0.645820
0.226760
1.476118
1.678382
0.228476
0.413641
0.580135
0.008358
0.265678
-0.891590
-0.370842
0.194518
-1.986321
1.458663
-0.432185
-0.476080
-0.699136
0.554246
-0.185534
0.030606
1.528024
-0.566626
-0.373583
-1.175054
1.422094
-0.294558
-0.972873
0.501015
0.262386
0.855320
1.498387
1.596710
1.141291
0.195176
1.125112
1.946923
-0.277180
0.321891
-0.005069
-0.277116
2.079469
-0.020624
1.213067
0.190852
0.173276
0.749209
1.293334
0.462767
0.359999
-0.101262
-2.134448
1.355539
2.026686
1.424843
-0.774131
-1.130350
-0.286877
-0.103404
-0.534207
-0.296594
0.511496
-0.009539
2.511557
0.266511
1.483125
-0.642480
-0.482123
0.265913
0.720284
1.463340
1.061262
1.621097
1.404960
1.688641
0.177891
0.179035
-0.187078
0.683972
0.240539
0.495277
-0.149034
2.488450
-1.189936
2.380024
1.421276
0.668512
-0.140793
0.476346
0.950252
0.428017
1.537060
0.960545
1.247013
1.171256
1.490530
1.009178
0.577560
0.483959
0.858890
0.642285
-0.043726
0.589773
0.819190
1.496091
1.965452
1.107106
1.003694
-0.203896
0.715126
0.174062
2.038991
2.463018
-0.214186
0.281948
0.665234
0.298382
2.019176
0.651249
-1.575679
-0.830571
-0.298792
0.450469
-1.108547
1.045965
0.098756
1.356278
1.011001
0.881276
-0.095059
1.107834
-0.447588
1.685983
1.346693
0.588981
0.091682
-0.524122
3.076929
0.380569
2.174492
-1.406563
-1.183631
2.496105
-0.017064
-0.168705
-0.660621
0.659801
2.338435
-1.105473
1.231003
0.154577
0.467751
0.823016
1.420016
1.621830
-0.478516
-0.393634
0.804064
-0.196480
1.053348
0.957594
1.609304
0.525661
-1.483499
0.848486
-0.550352
3.131776
-0.683926
0.530388
-0.270778
-0.871211
0.954349
-0.589888
-1.037844
-0.358867
0.819051
0.025368
1.132135
0.160278
0.241618
0.080833
0.699767
0.959759
0.865513
2.997536
2.791733
0.606304
-1.009998
0.426463
-0.196343
0.407156
1.912826
0.936194
-0.566733
-0.104330
1.740965
-0.784603
-2.473020
-0.820062
0.888849
-0.533998
0.060493
-0.011513
0.494501
1.246944
0.532778
2.189464
1.217242
2.064128
-0.123524
0.911665
0.320633
1.369940
0.565290
2.610023
1.246669
1.993859
0.382253
0.567324
0.446977
-0.039337
-0.553029
-0.132782
0.692672
0.860451
0.826986
-0.317114
1.774150
0.125668
1.364341
-0.842356
1.864600
-1.631113
-0.545727
0.564380
1.700779
-1.870881
0.538547
-1.265771
1.484294
-0.323064
1.975243
0.419764
1.257446
0.420074
-0.043411
0.554567
1.549327
0.135932
-1.699698
1.077512
-0.583537
-0.818894
-0.949721
0.092340
1.095391
-0.835832
-0.569022
-0.383092
1.471284
1.723590
0.907799
0.406246
-0.580136
0.146651
-0.973943
-0.092393
0.041673
-0.697799
-2.584090
0.062014
0.751388
-0.715613
0.981031
-0.954996
0.842365
1.679763
0.598277
0.006259
1.630186
-0.531772
-0.273770
-0.100866
-0.422067
0.428135
1.056102
0.110387
1.034821
1.310528
0.145336
-0.447777
-1.454585
-1.023804
1.107691
1.371205
0.833444
0.168751
-0.495866
0.964679
-0.351836
1.240238
1.880165
-0.466913
-0.985521
0.901600
2.122866
-0.235062
-0.417446
-0.269046
0.134998
-0.152132
0.226684
0.018870
0.510754
0.748013
0.680406
2.630030
0.655992
2.689760
1.459368
1.251477
-1.015196
-2.269139
2.323418
1.056154
1.390295
0.097591
0.676009
-0.800298
0.464281
1.241531
1.370767
-0.169429
-0.953439
-0.920206
-0.105810
0.794308
0.232705
0.232723
0.491608
0.699252
-0.904769
0.823120
0.279645
2.372535
1.344078
1.718112
0.945512
0.717303
0.485307
0.835646
-0.531485
-0.779336
0.485446
0.089610
1.023783
0.704426
-1.081602
0.079157
0.085257
-0.763107
-0.232308
1.413699
-0.684563
0.197626
1.015530
0.658853
2.060137
1.100326
-0.139437
1.953787
-1.314008
2.387742
1.191641
-1.420042
2.107493
-0.125888
0.597551
-0.631584
0.630971
0.607543
2.113574
-0.638512
-0.414824
-0.219138
0.701367
2.371889
1.072667
-1.759729
-0.802314
0.379606
2.047290
0.304981
-0.977754
-1.094679
0.809247
-1.196671
-0.169477
-0.567776
-0.953080
0.755117
2.040839
0.662036
-0.185806
1.000427
0.865387
-0.016789
0.406128
0.830521
-1.405404
-0.173852
-1.193018
0.894624
-0.092280
-1.321556
-0.781928
-0.441240
-2.563771
0.120788
-1.185213
-0.721908
0.038639
-1.126782
1.800001
1.247702
-0.558880
1.669719
0.024840
1.385424
0.480761
0.960363
0.255589
-1.699128
-0.004576
1.909988
-1.101086
0.260740
2.070752
-0.418885
-0.825723
-2.006541
1.342039
0.610440
-0.452420
2.086017
-1.079374
0.298249
1.833942
1.957318
2.642172
-0.232807
1.771771
3.068586
1.259138
0.396987
0.948952
0.990095
1.286720
1.165481
0.883226
1.411240
0.307264
-2.409527
1.137666
-1.043974
-2.005061
0.654548
-0.761857
0.967628
-0.170456
0.109334
0.918995
0.335674
-1.252942
-1.277243
1.403936
1.622577
1.060992
0.125502
-0.820062
-0.164235
-0.914384
-1.103869
-1.358215
0.310156
0.158759
-1.052092
-0.630245
0.919981
1.264720
1.099150
-0.551156
1.268990
0.858689
1.892192
1.696582
2.168363
1.107110
0.758120
1.586049
1.843409
0.267395
1.187406
1.371206
0.154575
0.000040
0.558605
-0.039110
-1.833244
-0.267045
-0.027222
0.108803
1.169885
-0.534651
1.087332
-0.372589
0.947401
1.218864
1.749361
0.642722
-0.380122
-0.677541
0.420327
0.664233
1.408232
-1.004984
0.913909
1.843419
-0.192344
-0.366126
-1.125498
0.584314
-0.134281
0.038998
2.676982
0.595743
-1.272510
0.846778
-2.104445
1.042486
-0.778403
0.483136
0.552046
0.362311
0.566034
0.041804
1.440891
0.384036
0.737827
0.433102
0.699728
-0.107723
-0.302742
-0.477369
1.470378
2.118810
0.739998
0.575301
2.266608
-0.338222
-0.465543
-0.156688
-0.805533
0.528238
0.075584
1.478016
4.125963
1.651861
0.793677
0.845188
0.142632
0.275563
0.939379
0.586478
2.213789
0.333705
1.002802
3.248952
0.031727
-0.355726
3.679640
1.443355
-0.003830
-0.918645
0.312326
0.088768
1.212988
0.731517
-0.494834
-1.289256
-1.095133
0.356373
0.398243
-1.397952
3.091217
1.438303
0.562135
2.539209
-0.740661
0.596965
0.456933
0.000879
0.271806
1.318829
1.120273
0.443035
-0.475442
-0.110673
0.524343
-0.327151
-0.316912
0.389979
1.518075
0.146259
1.715199
-0.724221
-0.064305
2.874961
2.052019
0.567346
1.221257
0.482182
1.334768
2.562299
0.533588
0.665542
0.347034
0.053532
-0.336608
0.815864
0.900025
0.412205
1.320924
0.491053
1.689544
0.950191
0.908643
0.161183
1.046439
-0.367607
-0.233867
0.767895
-1.099503
-0.322698
-0.184172
1.379960
-0.885067
-1.109825
0.488133
-1.005992
-1.096834
-0.899222
-0.530691
-0.377703
-1.642704
-0.624690
0.895473
0.493919
1.019474
1.519234
0.744378
1.842327
0.760255
1.348439
0.114832
-0.934244
-1.299425
-1.760729
0.935245
-0.198529
0.363932
-1.166267
-0.427551
-1.094316
0.939923
0.026744
-1.124405
0.858620
0.307144
-0.227335
0.118803
1.481755
0.364213
0.343196
-1.443198
-2.296277
0.326692
0.217440
-0.881332
-0.378454
0.938324
-0.769982
0.413583
0.425072
0.859749
0.700077
1.265977
2.091686
-0.366639
0.730652
0.978941
0.695198
-0.417932
1.286164
-0.311168
0.586205
2.146975
-0.708405
2.462667
0.588551
-0.845438
1.060153
0.616763
-1.376846
0.166095
0.652113
-0.983823
-0.796771
-1.559033
2.541552
1.966654
1.210380
0.462145
0.686390
0.934725
0.422668
-1.030819
-1.321480
-0.838609
0.440286
-0.182263
1.277576
1.126075
-1.759151
-1.400642
1.372853
0.437382
0.558397
-0.625986
-2.310311
-0.268769
0.071948
1.860596
0.070843
0.232705
1.047627
1.940682
0.349034
0.684772
1.719570
-0.497790
-0.130562
1.138930
1.972045
-0.118398
0.978267
0.059626
0.359822
0.338460
-0.943535
-2.930405
2.087147
1.852666
1.828226
1.019523
1.089272
1.340650
-1.164466
0.476088
2.504567
0.679498
1.275869
0.141824
0.807591
1.598189
0.123655
0.071619
-3.067602
0.115881
1.077833
1.732922
-0.231386
-0.029216
0.105252
0.221112
2.365405
-0.882657
1.056250
0.595640
0.843281
0.284976
1.835375
0.148902
0.440937
0.014936
1.517493
-1.423395
-0.535815
-1.291802
0.511240
0.050008
1.124271
-0.114443
-2.021559
1.213311
0.145981
-0.375222
1.117084
-1.496681
0.728823
0.534121
0.717192
-1.208391
-0.482873
-0.458884
-0.837110
-0.440920
2.609816
-1.152255
0.033283
0.528157
-1.048266
-0.094607
3.172539
2.523716
2.072856
2.348646
-0.607229
0.795301
0.159826
1.564627
-0.234684
0.055922
1.430545
1.764992
-0.025736
1.797318
-0.089493
2.078202
-2.907745
-0.495813
0.356110
1.753477
2.303836
3.206411
0.928547
-0.553265
0.698290
1.252107
0.813541
1.262869
2.073792
1.076300
0.560720
-1.122460
0.467242
0.481974
0.022052
-1.487408
-0.293003
-0.138895
-2.372096
-1.032954
-0.710264
2.036926
0.063623
0.912795
0.817398
3.876827
2.265906
-1.658414
2.045762
0.849759
0.322462
1.552249
0.880482
0.898160
-0.896236
2.679500
3.106360
2.585151
0.294813
0.927220
0.949836
-0.742245
0.213427
0.771792
0.805293
0.254777
-0.074433
-0.823336
-0.292629
-1.351528
0.481798
0.083444
0.059009
-1.364232
1.138484
1.856577
2.787927
0.355811
-0.026804
-0.759421
-0.148279
0.919127
-1.920693
0.979265
-1.849400
-0.026113
0.217100
2.375552
-0.567990
0.288287
-1.130729
-0.171426
-0.262218
-0.929535
1.065061
0.996621
-0.496526
1.547277
1.042571
1.595971
0.159182
0.406581
-0.548904
0.551731
0.525984
0.436266
-1.338026
2.660217
0.489757
0.977697
0.296791
-0.045095
0.068698
1.579613
1.281033
0.042844
-0.037193
1.893488
-0.743395
0.733692
1.203121
1.098779
1.973311
1.766567
0.941512
0.121383
1.343632
1.584401
2.673224
2.200922
1.024156
0.686619
0.815554
1.170127
-2.188217
0.124359
1.499427
0.377585
-1.956444
1.728792
-0.334057
0.737180
1.126686
-0.448018
-1.142723
0.990546
1.529613
0.148709
-0.045184
0.588091
-0.881326
0.696826
1.029384
2.584501
1.959063
1.678552
0.740235
-0.242484
2.012150
-0.087531
-0.493807
0.542748
1.180892
0.921060
-0.546543
-0.764609
1.609489
0.819245
-0.037001
-0.238695
0.017515
-1.194405
0.918900
0.472681
1.004616
1.875185
-1.004335
0.332944
-1.412292
-0.173044
1.020598
0.229462
0.975375
0.829768
1.478350
1.464885
1.112842
1.462252
1.153270
-0.156314
-0.938534
0.844666
-0.440731
0.130614
0.283267
-0.092189
0.992742
-0.682669
2.263590
0.479742
1.919070
-0.463198
1.685993
-0.663599
-1.212868
-0.255859
-0.344287
-0.377121
0.001811
-1.257393
-1.573330
0.313765
-0.889046
-0.305339
-0.604132
1.165209
-0.708367
0.533900
1.196190
-0.186704
0.386237
-0.152463
2.070812
0.431660
-0.439828
0.542626
0.469455
-0.519255
1.091848
-0.469066
0.241694
1.023208
1.918728
1.501879
0.126334
-1.200104
-0.674236
0.194780
0.897620
0.996557
0.512521
-0.733373
1.363118
-0.773734
1.438662
0.407491
1.922686
0.340613
2.122203
1.284728
1.389866
0.016297
1.318962
0.553695
0.091226
0.710332
0.990898
0.136035
0.276256
1.093453
2.908954
1.027536
0.058867
2.444491
1.359757
-0.009345
2.034301
-0.170158
0.555237
1.342633
-0.028873
0.896414
1.227881
0.819429
1.682954
1.427809
1.356029
0.985424
-1.923905
2.202053
-0.671153
2.550272
-0.444508
-0.082378
-1.050558
-1.904798
-2.866212
1.398561
0.275863
-0.903430
0.102168
1.034274
-0.861711
1.105971
1.221150
-0.355719
-0.132409
1.509628
-0.500109
2.374932
0.957827
0.373628
0.127658
-0.397243
-0.160342
-0.286447
1.213469
1.912441
1.386437
1.434845
-0.646776
1.951886
0.304884
0.331061
1.371904
0.483046
2.869474
0.126566
2.244016
-0.507348
0.713682
0.046082
-0.171970
1.052573
1.253760
1.778962
-0.143854
2.205910
0.461902
0.591825
0.429973
1.036771
0.620997
0.846499
-0.806068
-0.749633
-1.722099
-2.704525
-3.080533
-1.565457
-0.297442
-0.201381
-0.143686
0.042157
-0.354643
0.709947
-0.371245
-0.111775
1.417714
0.200028
1.702984
-0.301571
1.305856
0.369420
0.236783
-1.525041
-0.722881
0.991183
0.134794
-0.054739
1.314748
-0.784587
-0.395400
0.688785
0.636661
0.867665
1.516706
1.232802
-0.255725
1.915932
0.993585
-0.171805
3.424357
0.507591
0.662990
1.439732
0.350126
0.569608
2.232484
0.387403
2.470565
2.806373
2.060358
1.094330
1.179472
0.331573
1.537583
1.058156
0.672986
-0.651740
0.588139
-0.365953
1.402661
1.348723
0.236993
1.867053
-0.191776
1.458235
2.702779
1.374773
1.923463
0.317235
0.863906
0.180662
1.232189
0.335162
0.458978
-0.810388
0.250265
1.939920
1.744490
-0.038439
-0.390299
0.823878
-1.560273
-1.181271
-1.721778
-1.549364
-0.500382
0.483916
-0.510440
0.440446
-0.676228
2.612812
-1.525215
0.481100
0.164590
-0.637237
-0.049430
-1.943042
0.286190
1.516416
-0.450609
1.665919
0.061559
1.802903
0.735332
3.291469
0.199378
1.494491
0.208500
2.478600
1.133922
1.406478
1.128942
1.385262
0.333647
0.515964
0.821362
2.006890
1.518188
-0.621777
0.910749
0.876337
2.078921
-0.399157
-1.830038
0.015088
0.009712
-1.250907
-0.889079
-1.644491
0.693320
-1.915629
-3.140428
-3.053918
-2.100291
-1.092868
0.142083
-0.585568
0.759058
0.829517
0.827826
-0.238379
0.805037
-1.453746
0.630521
-0.955855
2.828150
2.271544
0.032590
0.139971
1.654137
-0.643954
0.762640
0.616817
-0.191114
-0.444945
-0.668745
0.647780
0.115514
2.270284
1.761220
1.358690
1.358756
0.443073
-2.062944
-1.652505
2.509887
0.484495
0.014584
1.425023
0.531165
1.079313
0.731815
-0.207176
2.110306
-0.926992
1.504885
1.754697
1.005097
